{"learner":{"attributes":{},"feature_names":["hour_sin","hour_cos","weekday","weekday_hour","minutes_until_close","last_5_mins","last_10_mins","last_15_mins","delta_5","delta_10","rolling_mean_15","rolling_mean_30","rolling_std_15","rolling_std_30"],"feature_types":["float","float","int","int","float","float","float","float","float","float","float","float","float","float"],"gradient_booster":{"model":{"cats":{"enc":[],"feature_segments":[],"sorted_idx":[]},"gbtree_model_param":{"num_parallel_tree":"1","num_trees":"200"},"iteration_indptr":[0,1,2,3,4,5,6,7,8,9,10,11,12,13,14,15,16,17,18,19,20,21,22,23,24,25,26,27,28,29,30,31,32,33,34,35,36,37,38,39,40,41,42,43,44,45,46,47,48,49,50,51,52,53,54,55,56,57,58,59,60,61,62,63,64,65,66,67,68,69,70,71,72,73,74,75,76,77,78,79,80,81,82,83,84,85,86,87,88,89,90,91,92,93,94,95,96,97,98,99,100,101,102,103,104,105,106,107,108,109,110,111,112,113,114,115,116,117,118,119,120,121,122,123,124,125,126,127,128,129,130,131,132,133,134,135,136,137,138,139,140,141,142,143,144,145,146,147,148,149,150,151,152,153,154,155,156,157,158,159,160,161,162,163,164,165,166,167,168,169,170,171,172,173,174,175,176,177,178,179,180,181,182,183,184,185,186,187,188,189,190,191,192,193,194,195,196,197,198,199,200],"tree_info":[0,0,0,0,0,0,0,0,0,0,0,0,0,0,0,0,0,0,0,0,0,0,0,0,0,0,0,0,0,0,0,0,0,0,0,0,0,0,0,0,0,0,0,0,0,0,0,0,0,0,0,0,0,0,0,0,0,0,0,0,0,0,0,0,0,0,0,0,0,0,0,0,0,0,0,0,0,0,0,0,0,0,0,0,0,0,0,0,0,0,0,0,0,0,0,0,0,0,0,0,0,0,0,0,0,0,0,0,0,0,0,0,0,0,0,0,0,0,0,0,0,0,0,0,0,0,0,0,0,0,0,0,0,0,0,0,0,0,0,0,0,0,0,0,0,0,0,0,0,0,0,0,0,0,0,0,0,0,0,0,0,0,0,0,0,0,0,0,0,0,0,0,0,0,0,0,0,0,0,0,0,0,0,0,0,0,0,0,0,0,0,0,0,0,0,0,0,0,0,0],"trees":[{"base_weights":[4.2274732E-2,-5.3467323E1,5.9203486E0,-5.619638E1,-3.1118694E1,-2.2542517E0,2.0881954E1,-1.8322142E0,-5.8558964E1,-7.3989115E0,-3.5503357E1,-1.0775128E1,4.26308E0,1.5786477E1,2.6489693E1,-2.9393346E0,-1.0943297E0,-7.42885E-1,4.9896877E-2,-3.5969254E1,-3.5180312E-1,-1.8022806E1,-7.2999206E0,4.7788644E0,-1.660382E1,1.6377731E1,-4.875369E0,2.723031E1,6.2875943E0,3.6426252E-1,-2.6945463E-1,-1.8285357E0,-7.5790423E-1,-9.099951E0,-2.1493893E1,-2.6938114E1,-6.9880486E0,1.3357091E0,7.01996E0,-1.0896882E0,-1.2235786E1,1.3830488E1,1.903183E1,-5.8989567E-1,6.468455E-2,2.7993137E1,1.6775225E1,-8.396858E0,1.1582262E1,-6.722141E-1,-2.8610465E-1,-1.2190301E0,-7.301612E-1,-2.1855307E-1,-1.4227223E0,-4.281927E-1,-2.2211361E-1,1.2422367E-1,-1.4729433E-1,3.7812993E-1,5.0913364E-2,-6.621726E-1,-1.943297E-1,8.180829E-1,6.213081E-1,1.0086406E0,7.9461294E-1,2.503151E-1,-1.0936928E-1,1.3328136E0,1.5942426E0,3.0567032E-1,8.6516124E-1,-3.505316E-2,-4.698053E-1,8.451762E-1,2.6040342E-1],"categories":[],"categories_nodes":[],"categories_segments":[],"categories_sizes":[],"default_left":[0,0,0,0,0,0,0,0,0,0,0,0,0,0,0,0,0,0,0,0,0,0,0,0,0,0,0,0,0,0,0,0,0,0,0,0,0,0,0,0,0,0,0,0,0,0,0,0,0,0,0,0,0,0,0,0,0,0,0,0,0,0,0,0,0,0,0,0,0,0,0,0,0,0,0,0,0],"id":0,"left_children":[1,3,5,7,9,11,13,-1,15,17,19,21,23,25,27,-1,-1,-1,29,31,-1,33,35,37,39,41,43,45,47,-1,-1,-1,-1,49,51,53,55,57,59,-1,61,63,65,-1,67,69,71,73,75,-1,-1,-1,-1,-1,-1,-1,-1,-1,-1,-1,-1,-1,-1,-1,-1,-1,-1,-1,-1,-1,-1,-1,-1,-1,-1,-1,-1],"loss_changes":[1.5698381E6,2.8380625E4,5.500533E5,1.8133E4,5.561496E3,1.6159255E5,4.4986062E4,0E0,1.9705E3,5.563321E2,3.7026562E2,3.1629469E4,1.7827242E4,1.0280516E4,1.11250625E4,0E0,0E0,0E0,2.7537897E2,2.1445312E1,0E0,1.2441E4,5.042172E3,1.2414094E4,6.401299E2,5.226422E3,8.215087E2,5.336625E3,2.274235E3,0E0,0E0,0E0,0E0,1.6253164E3,5.472125E3,3.2047266E2,3.3397695E3,3.135513E3,3.1676328E3,0E0,1.5044434E2,1.2825078E3,1.094375E3,0E0,1.7788374E2,2.67225E3,1.869502E2,5.49328E1,6.242593E2,0E0,0E0,0E0,0E0,0E0,0E0,0E0,0E0,0E0,0E0,0E0,0E0,0E0,0E0,0E0,0E0,0E0,0E0,0E0,0E0,0E0,0E0,0E0,0E0,0E0,0E0,0E0,0E0],"parents":[2147483647,0,0,1,1,2,2,3,3,4,4,5,5,6,6,8,8,9,9,10,10,11,11,12,12,13,13,14,14,18,18,19,19,21,21,22,22,23,23,24,24,25,25,26,26,27,27,28,28,33,33,34,34,35,35,36,36,37,37,38,38,40,40,41,41,42,42,44,44,45,45,46,46,47,47,48,48],"right_children":[2,4,6,8,10,12,14,-1,16,18,20,22,24,26,28,-1,-1,-1,30,32,-1,34,36,38,40,42,44,46,48,-1,-1,-1,-1,50,52,54,56,58,60,-1,62,64,66,-1,68,70,72,74,76,-1,-1,-1,-1,-1,-1,-1,-1,-1,-1,-1,-1,-1,-1,-1,-1,-1,-1,-1,-1,-1,-1,-1,-1,-1,-1,-1,-1],"split_conditions":[4E1,3E1,7.155666E1,-4.5E1,-8.660254E-1,5.5556667E1,8.2666664E1,-1.8322142E0,8.267E1,8.6E1,9.067E1,4.377667E1,8.660254E-1,8.660254E-1,8.660254E-1,-2.9393346E0,-1.0943297E0,-7.42885E-1,-6.7E-1,1.34E0,-3.5180312E-1,1.06E2,5E1,6.2443333E1,5E1,7.644334E1,5E1,-2.5881904E-1,5E1,3.6426252E-1,-2.6945463E-1,-1.8285357E0,-7.5790423E-1,4E0,4.0443333E1,-8.660254E-1,5.2E1,8E2,7.0710677E-1,-1.0896882E0,6.822E1,7.267E1,5.88E2,-5.8989567E-1,2E0,9.4223335E1,5.47E2,8.533E1,3.077277E0,-6.722141E-1,-2.8610465E-1,-1.2190301E0,-7.301612E-1,-2.1855307E-1,-1.4227223E0,-4.281927E-1,-2.2211361E-1,1.2422367E-1,-1.4729433E-1,3.7812993E-1,5.0913364E-2,-6.621726E-1,-1.943297E-1,8.180829E-1,6.213081E-1,1.0086406E0,7.9461294E-1,2.503151E-1,-1.0936928E-1,1.3328136E0,1.5942426E0,3.0567032E-1,8.6516124E-1,-3.505316E-2,-4.698053E-1,8.451762E-1,2.6040342E-1],"split_indices":[4,4,10,4,0,10,10,0,6,6,6,10,1,1,1,0,0,0,9,9,0,3,4,10,4,10,4,0,4,0,0,0,0,9,10,0,10,4,0,0,10,7,4,0,12,10,4,6,12,0,0,0,0,0,0,0,0,0,0,0,0,0,0,0,0,0,0,0,0,0,0,0,0,0,0,0,0],"split_type":[0,0,0,0,0,0,0,0,0,0,0,0,0,0,0,0,0,0,0,0,0,0,0,0,0,0,0,0,0,0,0,0,0,0,0,0,0,0,0,0,0,0,0,0,0,0,0,0,0,0,0,0,0,0,0,0,0,0,0,0,0,0,0,0,0,0,0,0,0,0,0,0,0,0,0,0,0],"sum_hessian":[4.989E3,4.93E2,4.496E3,4.38E2,5.5E1,2.908E3,1.588E3,4.9E1,3.89E2,9E0,4.6E1,1.26E3,1.648E3,8.34E2,7.54E2,3.86E2,3E0,4E0,5E0,4.5E1,1E0,4.07E2,8.53E2,1.609E3,3.9E1,8.11E2,2.3E1,7.27E2,2.7E1,2E0,3E0,4.3E1,2E0,1.15E2,2.92E2,1.2E1,8.41E2,6.35E2,9.74E2,1.6E1,2.3E1,4.17E2,3.94E2,9E0,1.4E1,6.76E2,5.1E1,7E0,2E1,4.9E1,6.6E1,2.04E2,8.8E1,1E0,1.1E1,5.18E2,3.23E2,5.01E2,1.34E2,8.93E2,8.1E1,2E1,3E0,1.45E2,2.72E2,2.85E2,1.09E2,4E0,1E1,5.09E2,1.67E2,3E0,4.8E1,1E0,6E0,1E1,1E1],"tree_param":{"num_deleted":"0","num_feature":"14","num_nodes":"77","size_leaf_vector":"1"}},{"base_weights":[3.6153582E-1,-5.098621E1,5.8678856E0,-5.3094337E1,-3.1230677E1,-2.3348627E0,1.9962973E1,-1.7419672E0,-5.5481857E1,-3.495187E1,-3.9103992E0,-1.1777883E1,2.6641457E0,1.3945938E1,2.5298595E1,-2.8289812E0,-2.1664493E0,-3.8929226E1,-1.1966199E0,-5.5034196E-1,4.16364E0,-2.065556E1,-8.878318E0,-9.4757277E-1,5.9972973E0,-4.446328E0,1.4287448E1,2.1395771E1,2.7625408E1,-6.9653386E-1,-2.0108657E0,-1.118167E-1,3.521205E-1,-2.2860466E1,-6.9619575E0,-1.3254675E0,-8.528983E0,-3.5616273E-1,-1.5913687E1,6.3506227E0,-1.0255214E1,1.1741346E-1,-5.672287E0,1.1935391E1,1.6639044E1,2.1798197E1,6.257817E0,2.8019974E1,1.1789804E1,-1.2526939E0,-9.1376203E-1,-4.1187426E-1,2.880014E-2,-6.012347E-1,-3.378244E-1,-9.655517E-2,1.11324035E-1,-8.693889E-1,-3.0683178E-1,3.4101167E-1,8.096504E-2,-6.7703307E-1,-2.1850498E-1,-5.1607424E-1,-1.9443308E-1,6.489187E-1,4.3193302E-1,6.275197E-1,8.609374E-1,1.1394564E0,8.58424E-1,5.607831E-1,1.2653942E-1,1.4185863E0,8.798265E-1,1.3348708E-1,8.041431E-1],"categories":[],"categories_nodes":[],"categories_segments":[],"categories_sizes":[],"default_left":[0,0,0,0,0,0,0,0,0,0,0,0,0,0,0,0,0,0,0,0,0,0,0,0,0,0,0,0,0,0,0,0,0,0,0,0,0,0,0,0,0,0,0,0,0,0,0,0,0,0,0,0,0,0,0,0,0,0,0,0,0,0,0,0,0,0,0,0,0,0,0,0,0,0,0,0,0],"id":1,"left_children":[1,3,5,7,9,11,13,-1,15,17,19,21,23,25,27,-1,-1,29,-1,-1,31,33,35,37,39,41,43,45,47,-1,-1,-1,-1,49,51,-1,53,55,57,59,61,-1,63,65,67,69,71,73,75,-1,-1,-1,-1,-1,-1,-1,-1,-1,-1,-1,-1,-1,-1,-1,-1,-1,-1,-1,-1,-1,-1,-1,-1,-1,-1,-1,-1],"loss_changes":[1.4100341E6,1.8457375E4,5.2079212E5,1.7026125E4,4.8448633E3,1.3447333E5,5.2844562E4,0E0,2.658125E3,9.529531E2,4.4690698E2,2.5197625E4,2.243323E4,4.9691094E3,7.373125E3,0E0,0E0,4.0575E2,0E0,0E0,8.9445366E1,7.147578E3,4.362449E3,7.916075E3,5.6295312E3,1.382685E2,4.0437344E3,1.8861094E3,3.0811562E3,0E0,0E0,0E0,0E0,1.6340391E3,3.4126526E2,0E0,4.454324E3,3.510493E3,3.8331543E2,2.0975195E3,3.4686597E2,0E0,6.7664795E1,1.2185547E3,6.869453E2,1.0905781E3,1.5639581E2,1.4513125E3,5.443574E2,0E0,0E0,0E0,0E0,0E0,0E0,0E0,0E0,0E0,0E0,0E0,0E0,0E0,0E0,0E0,0E0,0E0,0E0,0E0,0E0,0E0,0E0,0E0,0E0,0E0,0E0,0E0,0E0],"parents":[2147483647,0,0,1,1,2,2,3,3,4,4,5,5,6,6,8,8,9,9,10,10,11,11,12,12,13,13,14,14,17,17,20,20,21,21,22,22,23,23,24,24,25,25,26,26,27,27,28,28,33,33,34,34,36,36,37,37,38,38,39,39,40,40,42,42,43,43,44,44,45,45,46,46,47,47,48,48],"right_children":[2,4,6,8,10,12,14,-1,16,18,20,22,24,26,28,-1,-1,30,-1,-1,32,34,36,38,40,42,44,46,48,-1,-1,-1,-1,50,52,-1,54,56,58,60,62,-1,64,66,68,70,72,74,76,-1,-1,-1,-1,-1,-1,-1,-1,-1,-1,-1,-1,-1,-1,-1,-1,-1,-1,-1,-1,-1,-1,-1,-1,-1,-1,-1,-1],"split_conditions":[4E1,5.2E1,7.133E1,-4.5E1,8.267E1,5.333E1,8.133E1,-1.7419672E0,2.5E1,3.5E1,2.817197E0,4E1,6.267E1,6E1,8.733E1,-2.8289812E0,-2.1664493E0,5.7998333E1,-1.1966199E0,-5.5034196E-1,3.5E1,9.659258E-1,5.5E1,8.660254E-1,8.660254E-1,2.053725E0,7.6E1,8.660254E-1,8.660254E-1,-6.9653386E-1,-2.0108657E0,-1.118167E-1,3.521205E-1,3.6E1,3.8E1,-1.3254675E0,4.6E1,5.933E1,6E1,7.9E2,5.5E1,1.1741346E-1,4.5E1,-1.8369701E-16,2.1769865E0,1.2246469E-16,2.6799955E0,-2.5881904E-1,5.5E1,-1.2526939E0,-9.1376203E-1,-4.1187426E-1,2.880014E-2,-6.012347E-1,-3.378244E-1,-9.655517E-2,1.11324035E-1,-8.693889E-1,-3.0683178E-1,3.4101167E-1,8.096504E-2,-6.7703307E-1,-2.1850498E-1,-5.1607424E-1,-1.9443308E-1,6.489187E-1,4.3193302E-1,6.275197E-1,8.609374E-1,1.1394564E0,8.58424E-1,5.607831E-1,1.2653942E-1,1.4185863E0,8.798265E-1,1.3348708E-1,8.041431E-1],"split_indices":[4,5,5,4,5,5,5,0,4,4,13,5,5,4,5,0,0,11,0,0,4,0,4,1,1,13,5,1,1,0,0,0,0,5,5,0,5,5,4,4,4,0,4,1,13,0,13,0,4,0,0,0,0,0,0,0,0,0,0,0,0,0,0,0,0,0,0,0,0,0,0,0,0,0,0,0,0],"split_type":[0,0,0,0,0,0,0,0,0,0,0,0,0,0,0,0,0,0,0,0,0,0,0,0,0,0,0,0,0,0,0,0,0,0,0,0,0,0,0,0,0,0,0,0,0,0,0,0,0,0,0,0,0,0,0,0,0,0,0,0,0,0,0,0,0,0,0,0,0,0,0,0,0,0,0,0,0],"sum_hessian":[4.985E3,4.82E2,4.503E3,4.34E2,4.8E1,2.847E3,1.656E3,5.2E1,3.82E2,4.2E1,6E0,9.85E2,1.862E3,7.8E2,8.76E2,3.47E2,3.5E1,2.9E1,1.3E1,3E0,3E0,2.41E2,7.44E2,8.94E2,9.68E2,1.4E1,7.66E2,3.31E2,5.45E2,2E0,2.7E1,1E0,2E0,2.07E2,3.4E1,1.3E1,7.31E2,8.61E2,3.3E1,9.48E2,2E1,2E0,1.2E1,3.86E2,3.8E2,3.22E2,9E0,5.31E2,1.4E1,1.37E2,7E1,2.9E1,5E0,2.44E2,4.87E2,5.35E2,3.26E2,2.8E1,5E0,8.62E2,8.6E1,1.2E1,8E0,2E0,1E1,2.91E2,9.5E1,5E1,3.3E2,2.62E2,6E1,3E0,6E0,5.12E2,1.9E1,5E0,9E0],"tree_param":{"num_deleted":"0","num_feature":"14","num_nodes":"77","size_leaf_vector":"1"}},{"base_weights":[1.3267049E-1,-3.4143173E1,6.834346E0,-1.7378271E1,-4.854971E1,-6.214853E-1,1.8824263E1,-2.2586596E1,-1.3860691E1,-5.146465E1,-3.339772E1,-6.1649876E0,4.365684E0,1.3815778E1,2.4018372E1,-1.2930747E1,-2.6036676E1,-1.3340871E1,-1.9947678E0,-2.3226485E0,-2.679364E0,-1.6342445E1,-4.4654896E1,-4.7660456E0,-2.854015E1,5.0987425E0,-1.6284042E1,1.4374907E1,-7.1695623E0,2.446208E1,7.4371076E0,-8.459307E-1,-9.825959E0,-8.408926E-1,-2.6495464E1,-7.518205E0,-1.4435188E1,2.2976952E0,-1.8421663E1,-7.810199E-1,-2.283279E0,-7.2738323E0,-2.1751044E0,-1.9216879E1,-1.8664808E0,2.8549056E0,6.543448E0,-1.108457E1,-2.122764E1,1.1918248E1,1.6179392E1,-1.128005E1,2.1148257E-2,2.1341099E1,2.6957111E1,-3.6964695E0,1.0929129E1,-5.3068054E-1,-1.2471518E-2,-1.4661297E0,-1.2010936E0,-5.2347326E-1,-2.1692991E-1,-9.572754E-1,-6.9308287E-1,-1.3693047E-1,2.4446666E-1,-1.000621E0,-1.9370155E-1,-2.1942611E-1,-4.2443687E-1,-3.545573E-2,-2.177494E-1,-1.1405822E0,-5.840897E-1,1.9458735E-1,2.6582504E-2,3.310265E-1,-1.3780482E0,-5.889584E-1,1.3964386E-1,-1.4272388E0,-8.121173E-1,-5.524938E-1,6.0426813E-1,8.1382513E-1,-7.0742327E-1,-1.1642881E-1,-6.7548364E-1,1.8585421E-1,-7.829227E-2,1.1363922E0,8.993441E-1,1.2599744E0,1.432637E0,1.3278495E-1,-5.4669356E-1,6.560837E-1,2.6146937E-2],"categories":[],"categories_nodes":[],"categories_segments":[],"categories_sizes":[],"default_left":[0,0,0,0,0,0,0,0,0,0,0,0,0,0,0,0,0,0,0,0,0,0,0,0,0,0,0,0,0,0,0,0,0,0,0,0,0,0,0,0,0,0,0,0,0,0,0,0,0,0,0,0,0,0,0,0,0,0,0,0,0,0,0,0,0,0,0,0,0,0,0,0,0,0,0,0,0,0,0,0,0,0,0,0,0,0,0,0,0,0,0,0,0,0,0,0,0,0,0],"id":2,"left_children":[1,3,5,7,9,11,13,15,17,19,21,23,25,27,29,31,33,35,-1,-1,-1,37,39,41,43,45,47,49,51,53,55,-1,57,-1,59,61,63,65,67,-1,-1,69,71,73,-1,75,77,79,81,83,85,87,89,91,93,95,97,-1,-1,-1,-1,-1,-1,-1,-1,-1,-1,-1,-1,-1,-1,-1,-1,-1,-1,-1,-1,-1,-1,-1,-1,-1,-1,-1,-1,-1,-1,-1,-1,-1,-1,-1,-1,-1,-1,-1,-1,-1,-1],"loss_changes":[1.1531256E6,1.9744762E5,3.753805E5,6.6671094E3,1.7758812E4,7.163105E4,4.1551688E4,4.7269688E3,2.5804375E3,1.4255625E3,1.3477805E4,3.827098E4,2.0730527E4,9.748E3,5.6229688E3,3.5378076E2,2.3882812E1,1.3378828E3,0E0,0E0,0E0,1.243792E3,5.7784375E2,7.4953184E3,5.182797E3,4.2538555E3,9.7279297E2,3.358E3,6.5049976E2,5.4050938E3,8.957302E2,0E0,1.9346973E2,0E0,2.2898438E1,3.1116333E2,2.4789844E2,6.559908E1,5.704385E2,0E0,0E0,2.0204043E3,1.8184539E3,7.357334E2,0E0,1.2457144E3,2.2881602E3,2.7387866E2,3.753623E2,1.450082E3,1.5821094E3,2.4795947E2,5.8609226E1,1.2005938E3,5.38625E2,3.048762E2,3.8101086E2,0E0,0E0,0E0,0E0,0E0,0E0,0E0,0E0,0E0,0E0,0E0,0E0,0E0,0E0,0E0,0E0,0E0,0E0,0E0,0E0,0E0,0E0,0E0,0E0,0E0,0E0,0E0,0E0,0E0,0E0,0E0,0E0,0E0,0E0,0E0,0E0,0E0,0E0,0E0,0E0,0E0,0E0],"parents":[2147483647,0,0,1,1,2,2,3,3,4,4,5,5,6,6,7,7,8,8,9,9,10,10,11,11,12,12,13,13,14,14,15,15,16,16,17,17,21,21,22,22,23,23,24,24,25,25,26,26,27,27,28,28,29,29,30,30,32,32,34,34,35,35,36,36,37,37,38,38,41,41,42,42,43,43,45,45,46,46,47,47,48,48,49,49,50,50,51,51,52,52,53,53,54,54,55,55,56,56],"right_children":[2,4,6,8,10,12,14,16,18,20,22,24,26,28,30,32,34,36,-1,-1,-1,38,40,42,44,46,48,50,52,54,56,-1,58,-1,60,62,64,66,68,-1,-1,70,72,74,-1,76,78,80,82,84,86,88,90,92,94,96,98,-1,-1,-1,-1,-1,-1,-1,-1,-1,-1,-1,-1,-1,-1,-1,-1,-1,-1,-1,-1,-1,-1,-1,-1,-1,-1,-1,-1,-1,-1,-1,-1,-1,-1,-1,-1,-1,-1,-1,-1,-1,-1],"split_conditions":[4.467E1,-1.8369701E-16,7.2E1,3.6E1,3.267E1,5.933E1,8.267E1,1.3E2,5.733E1,1.11666664E-1,8.660254E-1,8.660254E-1,8.660254E-1,8.660254E-1,8.660254E-1,1.0898155E1,1.3350018E0,8E1,-1.9947678E0,-2.3226485E0,-2.679364E0,3.4443333E1,3.8333332E1,5.333E1,5.018603E0,6.4E1,5.555832E0,7.6E1,-6.6E-1,8.933E1,-5.33E0,-8.459307E-1,2.133E1,-8.408926E-1,6E0,2E0,3.733E1,2.933E1,1.64E2,-7.810199E-1,-2.283279E0,8E1,1.14E2,5.533E1,-1.8664808E0,1.15E2,8.2666664E1,6.933E1,7.2E1,-1.066E1,9.333E1,-8E0,2.040517E0,9E1,9.4E1,8.733E1,4.66E0,-5.3068054E-1,-1.2471518E-2,-1.4661297E0,-1.2010936E0,-5.2347326E-1,-2.1692991E-1,-9.572754E-1,-6.9308287E-1,-1.3693047E-1,2.4446666E-1,-1.000621E0,-1.9370155E-1,-2.1942611E-1,-4.2443687E-1,-3.545573E-2,-2.177494E-1,-1.1405822E0,-5.840897E-1,1.9458735E-1,2.6582504E-2,3.310265E-1,-1.3780482E0,-5.889584E-1,1.3964386E-1,-1.4272388E0,-8.121173E-1,-5.524938E-1,6.0426813E-1,8.1382513E-1,-7.0742327E-1,-1.1642881E-1,-6.7548364E-1,1.8585421E-1,-7.829227E-2,1.1363922E0,8.993441E-1,1.2599744E0,1.432637E0,1.3278495E-1,-5.4669356E-1,6.560837E-1,2.6146937E-2],"split_indices":[5,1,5,5,5,5,5,3,7,11,1,1,1,1,1,13,13,3,0,0,0,11,11,5,13,5,13,5,9,5,8,0,9,0,2,9,5,6,3,0,0,3,3,5,0,3,11,5,7,8,6,9,13,3,5,5,9,0,0,0,0,0,0,0,0,0,0,0,0,0,0,0,0,0,0,0,0,0,0,0,0,0,0,0,0,0,0,0,0,0,0,0,0,0,0,0,0,0,0],"split_type":[0,0,0,0,0,0,0,0,0,0,0,0,0,0,0,0,0,0,0,0,0,0,0,0,0,0,0,0,0,0,0,0,0,0,0,0,0,0,0,0,0,0,0,0,0,0,0,0,0,0,0,0,0,0,0,0,0,0,0,0,0,0,0,0,0,0,0,0,0,0,0,0,0,0,0,0,0,0,0,0,0,0,0,0,0,0,0,0,0,0,0,0,0,0,0,0,0,0,0],"sum_hessian":[5.018E3,8.2E2,4.198E3,3.8E2,4.4E2,2.589E3,1.609E3,1.51E2,2.29E2,3.67E2,7.3E1,1.226E3,1.363E3,8.21E2,7.88E2,4.1E1,1.1E2,2.26E2,3E0,1.16E2,2.51E2,3E1,4.3E1,1.155E3,7.1E1,1.317E3,4.6E1,8E2,2.1E1,7.67E2,2.1E1,1.6E1,2.5E1,7E0,1.03E2,3.7E1,1.89E2,3E0,2.7E1,2E0,4.1E1,5.86E2,5.69E2,3.6E1,3.5E1,5.17E2,8E2,2.4E1,2.2E1,3.42E2,4.58E2,1.3E1,8E0,3.45E2,4.22E2,5E0,1.6E1,2.3E1,2E0,4.3E1,6E1,1.8E1,1.9E1,1.7E1,1.72E2,1E0,2E0,2.4E1,3E0,1.75E2,4.11E2,3.41E2,2.28E2,2.3E1,1.3E1,3.57E2,1.6E2,7.99E2,1E0,2.3E1,1E0,7E0,1.5E1,2E0,3.4E2,4.57E2,1E0,3E0,1E1,2E0,6E0,2.4E2,1.05E2,2.15E2,2.07E2,3E0,2E0,1.3E1,3E0],"tree_param":{"num_deleted":"0","num_feature":"14","num_nodes":"99","size_leaf_vector":"1"}},{"base_weights":[2.8577222E-2,-4.6112408E1,5.150812E0,-4.8145317E1,-2.7594053E1,-3.573696E0,1.5978236E1,-1.5377823E0,-5.0482883E1,-3.0527592E1,-4.374507E0,-1.0494707E1,1.5355484E0,1.0069708E1,2.168115E1,-2.5379565E0,-9.364479E-1,-1.5445668E0,-3.5397997E-1,-9.635853E0,2.9262862E-1,-1.9183798E1,-8.141633E0,2.0501263E0,-1.3135006E1,1.0418801E1,-4.459079E0,1.7688848E1,2.4342052E1,-1.4310332E-1,-5.306892E-1,-9.035215E0,-2.1727129E1,-5.808171E0,-1.0295451E1,-1.3513224E0,3.9303823E0,-1.59903555E1,-7.7849617E0,8.17099E0,1.1955321E1,-8.977531E0,-5.9036034E-1,1.8101662E1,-2.8990262E0,2.4803772E1,7.701638E0,-3.4016797E-1,-6.671476E-1,-1.2144556E0,-9.589577E-1,-3.338486E-1,-1.12526715E-1,-6.089E-1,-3.947024E-1,-1.5967077E-2,-2.2265063E-1,2.2764038E-1,4.0329783E-3,-8.810527E-1,-4.5497343E-1,-4.1475496E-1,3.493786E-2,6.39484E-1,3.679532E-1,6.3318676E-1,4.3540683E-1,-5.2945566E-1,-5.751381E-2,1.894049E-1,-1.3602768E-1,9.452106E-1,7.424225E-1,2.1873617E-1,-3.632511E-1,1.2628863E0,7.528633E-1,7.5465E-1,1.3962479E-2],"categories":[],"categories_nodes":[],"categories_segments":[],"categories_sizes":[],"default_left":[0,0,0,0,0,0,0,0,0,0,0,0,0,0,0,0,0,0,0,0,0,0,0,0,0,0,0,0,0,0,0,0,0,0,0,0,0,0,0,0,0,0,0,0,0,0,0,0,0,0,0,0,0,0,0,0,0,0,0,0,0,0,0,0,0,0,0,0,0,0,0,0,0,0,0,0,0,0,0],"id":3,"left_children":[1,3,5,7,9,11,13,-1,15,17,19,21,23,25,27,-1,-1,-1,-1,29,-1,31,33,35,37,39,41,43,45,-1,-1,47,49,51,53,55,57,59,61,63,65,67,69,71,73,75,77,-1,-1,-1,-1,-1,-1,-1,-1,-1,-1,-1,-1,-1,-1,-1,-1,-1,-1,-1,-1,-1,-1,-1,-1,-1,-1,-1,-1,-1,-1,-1,-1],"loss_changes":[1.1873984E6,1.7569875E4,4.2722312E5,1.678025E4,3.408457E3,8.8595766E4,6.7779875E4,0E0,2.523E3,1.7363672E2,4.3305194E2,2.159843E4,1.0912794E4,5.082867E3,1.046875E4,0E0,0E0,0E0,0E0,2.74411E0,0E0,5.6370234E3,4.1568906E3,8.92077E3,6.2405176E2,3.2525078E3,4.1423495E2,3.5710234E3,4.5187812E3,0E0,0E0,3.6109253E2,7.091797E2,1.2367793E3,1.8703945E3,1.5894176E3,2.1513877E3,1.880039E2,8.802576E1,1.3946445E3,1.210125E3,1.26576416E2,1.408832E2,7.793125E2,3.1759686E2,2.2566562E3,9.8329333E2,0E0,0E0,0E0,0E0,0E0,0E0,0E0,0E0,0E0,0E0,0E0,0E0,0E0,0E0,0E0,0E0,0E0,0E0,0E0,0E0,0E0,0E0,0E0,0E0,0E0,0E0,0E0,0E0,0E0,0E0,0E0,0E0],"parents":[2147483647,0,0,1,1,2,2,3,3,4,4,5,5,6,6,8,8,9,9,10,10,11,11,12,12,13,13,14,14,19,19,21,21,22,22,23,23,24,24,25,25,26,26,27,27,28,28,31,31,32,32,33,33,34,34,35,35,36,36,37,37,38,38,39,39,40,40,41,41,42,42,43,43,44,44,45,45,46,46],"right_children":[2,4,6,8,10,12,14,-1,16,18,20,22,24,26,28,-1,-1,-1,-1,30,-1,32,34,36,38,40,42,44,46,-1,-1,48,50,52,54,56,58,60,62,64,66,68,70,72,74,76,78,-1,-1,-1,-1,-1,-1,-1,-1,-1,-1,-1,-1,-1,-1,-1,-1,-1,-1,-1,-1,-1,-1,-1,-1,-1,-1,-1,-1,-1,-1,-1,-1],"split_conditions":[4E1,3E1,6.8E1,-4.5E1,8.267E1,5.4E1,7.867E1,-1.5377823E0,7.4E1,3.33E0,9.333E1,3.867E1,8.660254E-1,8.660254E-1,8.6E1,-2.5379565E0,-9.364479E-1,-1.5445668E0,-3.5397997E-1,8.4E1,2.9262862E-1,1.05E2,1.16E2,5.933E1,5.5E1,7.2E1,7.4E1,8.660254E-1,8.660254E-1,-1.4310332E-1,-5.306892E-1,3.067E1,3.133E1,4E0,4.8E1,8E2,7.9E2,7.111E1,6.533E1,1.7E2,2.5881904E-1,-1.33E0,2.053725E0,6E2,3.841066E0,5.15E2,2.3429966E0,-3.4016797E-1,-6.671476E-1,-1.2144556E0,-9.589577E-1,-3.338486E-1,-1.12526715E-1,-6.089E-1,-3.947024E-1,-1.5967077E-2,-2.2265063E-1,2.2764038E-1,4.0329783E-3,-8.810527E-1,-4.5497343E-1,-4.1475496E-1,3.493786E-2,6.39484E-1,3.679532E-1,6.3318676E-1,4.3540683E-1,-5.2945566E-1,-5.751381E-2,1.894049E-1,-1.3602768E-1,9.452106E-1,7.424225E-1,2.1873617E-1,-3.632511E-1,1.2628863E0,7.528633E-1,7.5465E-1,1.3962479E-2],"split_indices":[4,4,5,4,5,5,5,0,5,8,5,5,1,1,5,0,0,0,0,5,0,3,3,5,4,5,5,1,1,0,0,7,5,8,5,4,4,11,5,4,1,8,13,4,13,4,12,0,0,0,0,0,0,0,0,0,0,0,0,0,0,0,0,0,0,0,0,0,0,0,0,0,0,0,0,0,0,0,0],"split_type":[0,0,0,0,0,0,0,0,0,0,0,0,0,0,0,0,0,0,0,0,0,0,0,0,0,0,0,0,0,0,0,0,0,0,0,0,0,0,0,0,0,0,0,0,0,0,0,0,0,0,0,0,0,0,0,0,0,0,0,0,0,0,0,0,0,0,0,0,0,0,0,0,0,0,0,0,0,0,0],"sum_hessian":[5.022E3,5.01E2,4.521E3,4.5E2,5.1E1,2.504E3,2.017E3,5.5E1,3.95E2,4.5E1,6E0,1.063E3,1.441E3,9.92E2,1.025E3,3.91E2,4E0,4.4E1,1E0,4E0,2E0,2.25E2,8.38E2,1.393E3,4.8E1,9.69E2,2.3E1,4.13E2,6.12E2,1E0,3E0,4.6E1,1.79E2,4.04E2,4.34E2,4.96E2,8.97E2,3E1,1.8E1,3.96E2,5.73E2,1E1,1.3E1,4.05E2,8E0,5.95E2,1.7E1,3.2E1,1.4E1,8.5E1,9.4E1,3.24E2,8E1,2.41E2,1.93E2,3.73E2,1.23E2,7.72E2,1.25E2,2.3E1,7E0,1.7E1,1E0,5.7E1,3.39E2,4.68E2,1.05E2,8E0,2E0,4E0,9E0,3.21E2,8.4E1,3E0,5E0,5.67E2,2.8E1,8E0,9E0],"tree_param":{"num_deleted":"0","num_feature":"14","num_nodes":"79","size_leaf_vector":"1"}},{"base_weights":[-4.228989E-2,-3.1166222E1,6.275102E0,-1.5765346E1,-4.3512417E1,-3.428769E-1,1.6663338E1,-2.261429E0,-1.484181E1,-4.584072E1,-2.9108149E1,-5.4154253E0,4.081413E0,1.2502578E1,2.1742973E1,-1.987236E1,-1.1701553E1,-2.0449438E0,-4.8132046E1,-1.4070717E1,-1.9641293E0,-4.242492E0,-2.5273241E1,4.692499E0,-1.3893747E1,1.3005468E1,-7.1071315E0,2.223779E1,5.5874357E0,-1.1809979E1,-2.2447346E1,-6.4242835E0,-1.2887029E1,-2.4161217E0,7.2309494E-2,-1.8204992E1,-6.6967425E0,-6.8190904E0,-2.0055315E0,-1.7962557E1,-1.6473902E0,2.3669589E0,6.1266265E0,-9.870921E0,-1.8879147E1,1.0562322E1,1.5645924E1,-1.8574086E0,-1.1002502E1,2.2686092E1,1.010694E1,1.1884179E1,-1.1749271E0,-6.596218E-1,-2.0990144E-1,-1.2705199E0,-1.0193775E0,-4.9739763E-1,-2.0277373E-1,-5.331811E-1,-6.917992E-1,-1.1682844E-1,-9.500492E-1,2.934846E-1,-4.1863772E-1,-2.1737745E-1,-3.912698E-1,-9.20498E-2,-1.7122072E0,-1.0689614E0,-5.1365614E-1,1.7526977E-1,-1.2157938E-2,3.10845E-1,-6.8539554E-1,-5.952795E-1,-1.7751916E-1,-1.3206409E0,-7.1509594E-1,5.409829E-1,-1.5951079E0,7.919491E-1,-8.137895E-1,-2.5372186E-1,-8.359194E-4,-6.731215E-1,-1.0510283E-1,1.0559723E0,1.3110374E0,5.877943E-1,-3.5016263E-1,3.5886297E-1,9.751852E-1,2.7991644E-1,-2.630673E-1],"categories":[],"categories_nodes":[],"categories_segments":[],"categories_sizes":[],"default_left":[0,0,0,0,0,0,0,0,0,0,0,0,0,0,0,0,0,0,0,0,0,0,0,0,0,0,0,0,0,0,0,0,0,0,0,0,0,0,0,0,0,0,0,0,0,0,0,0,0,0,0,0,0,0,0,0,0,0,0,0,0,0,0,0,0,0,0,0,0,0,0,0,0,0,0,0,0,0,0,0,0,0,0,0,0,0,0,0,0,0,0,0,0,0,0],"id":4,"left_children":[1,3,5,7,9,11,13,-1,15,17,19,21,23,25,27,29,31,-1,33,35,-1,37,39,41,43,45,47,49,51,53,55,57,59,-1,-1,61,63,65,67,69,-1,71,73,75,77,79,81,83,85,87,89,91,93,-1,-1,-1,-1,-1,-1,-1,-1,-1,-1,-1,-1,-1,-1,-1,-1,-1,-1,-1,-1,-1,-1,-1,-1,-1,-1,-1,-1,-1,-1,-1,-1,-1,-1,-1,-1,-1,-1,-1,-1,-1,-1],"loss_changes":[9.8586206E5,1.6017431E5,2.8655203E5,9.614227E3,1.439475E4,5.7182957E4,3.4009375E4,0E0,5.5808438E3,2.5834375E3,9.851086E3,2.7540258E4,1.5014934E4,8.908656E3,5.703375E3,2.6413633E3,1.3498516E3,0E0,2.609E3,7.6218115E2,0E0,6.453252E3,3.1111875E3,4.3778535E3,7.161377E2,5.4600312E3,4.4990503E2,3.615625E3,9.933229E2,3.2345215E2,1.2279297E2,3.2692004E2,2.4490234E2,0E0,0E0,1.8296338E2,3.018833E2,1.2617695E3,3.1302058E3,7.261699E2,0E0,1.4984648E3,1.542709E3,3.049563E2,2.774297E2,5.3281953E3,2.827664E3,6.5052246E1,2.5632922E2,3.2173125E3,8.4410156E2,2.9039075E2,3.6159506E2,0E0,0E0,0E0,0E0,0E0,0E0,0E0,0E0,0E0,0E0,0E0,0E0,0E0,0E0,0E0,0E0,0E0,0E0,0E0,0E0,0E0,0E0,0E0,0E0,0E0,0E0,0E0,0E0,0E0,0E0,0E0,0E0,0E0,0E0,0E0,0E0,0E0,0E0,0E0,0E0,0E0,0E0],"parents":[2147483647,0,0,1,1,2,2,3,3,4,4,5,5,6,6,8,8,9,9,10,10,11,11,12,12,13,13,14,14,15,15,16,16,18,18,19,19,21,21,22,22,23,23,24,24,25,25,26,26,27,27,28,28,29,29,30,30,31,31,32,32,35,35,36,36,37,37,38,38,39,39,41,41,42,42,43,43,44,44,45,45,46,46,47,47,48,48,49,49,50,50,51,51,52,52],"right_children":[2,4,6,8,10,12,14,-1,16,18,20,22,24,26,28,30,32,-1,34,36,-1,38,40,42,44,46,48,50,52,54,56,58,60,-1,-1,62,64,66,68,70,-1,72,74,76,78,80,82,84,86,88,90,92,94,-1,-1,-1,-1,-1,-1,-1,-1,-1,-1,-1,-1,-1,-1,-1,-1,-1,-1,-1,-1,-1,-1,-1,-1,-1,-1,-1,-1,-1,-1,-1,-1,-1,-1,-1,-1,-1,-1,-1,-1,-1,-1],"split_conditions":[4.467E1,-1.8369701E-16,7.2E1,-8.660254E-1,3.333E1,5.933E1,8.333E1,-2.261429E0,3.533E1,1.11666664E-1,-5E-1,8.660254E-1,8.660254E-1,8.660254E-1,8.660254E-1,1.29E2,8E1,-2.0449438E0,1.34E0,3.933E1,-1.9641293E0,5.267E1,5.7757864E0,6.4E1,5.2065067E0,7.733E1,4.720703E0,1.37E2,2.6962256E0,1.4888997E1,1.34E2,1.6E1,-7.0710677E-1,-2.4161217E0,7.2309494E-2,3.2666668E1,3.467E1,8E1,7.267E1,5.533E1,-1.6473902E0,1.15E2,8.2666664E1,6.9333336E1,7.2E1,9.644496E0,8.889E1,7.578E1,7.4410977E0,9.4E1,9.699834E1,9.7776665E1,9.022E1,-6.596218E-1,-2.0990144E-1,-1.2705199E0,-1.0193775E0,-4.9739763E-1,-2.0277373E-1,-5.331811E-1,-6.917992E-1,-1.1682844E-1,-9.500492E-1,2.934846E-1,-4.1863772E-1,-2.1737745E-1,-3.912698E-1,-9.20498E-2,-1.7122072E0,-1.0689614E0,-5.1365614E-1,1.7526977E-1,-1.2157938E-2,3.10845E-1,-6.8539554E-1,-5.952795E-1,-1.7751916E-1,-1.3206409E0,-7.1509594E-1,5.409829E-1,-1.5951079E0,7.919491E-1,-8.137895E-1,-2.5372186E-1,-8.359194E-4,-6.731215E-1,-1.0510283E-1,1.0559723E0,1.3110374E0,5.877943E-1,-3.5016263E-1,3.5886297E-1,9.751852E-1,2.7991644E-1,-2.630673E-1],"split_indices":[5,1,5,0,5,5,5,0,5,11,0,1,1,1,1,3,3,0,9,5,0,5,13,5,13,5,13,3,12,12,3,3,1,0,0,10,7,3,7,5,0,3,11,10,7,12,10,10,13,5,11,11,10,0,0,0,0,0,0,0,0,0,0,0,0,0,0,0,0,0,0,0,0,0,0,0,0,0,0,0,0,0,0,0,0,0,0,0,0,0,0,0,0,0,0],"split_type":[0,0,0,0,0,0,0,0,0,0,0,0,0,0,0,0,0,0,0,0,0,0,0,0,0,0,0,0,0,0,0,0,0,0,0,0,0,0,0,0,0,0,0,0,0,0,0,0,0,0,0,0,0,0,0,0,0,0,0,0,0,0,0,0,0,0,0,0,0,0,0,0,0,0,0,0,0,0,0,0,0,0,0,0,0,0,0,0,0,0,0,0,0,0,0],"sum_hessian":[5.012E3,8.45E2,4.167E3,3.77E2,4.68E2,2.546E3,1.621E3,1E1,3.67E2,4.01E2,6.7E1,1.186E3,1.36E3,8.93E2,7.28E2,1.39E2,2.28E2,1.33E2,2.68E2,2.8E1,3.9E1,1.121E3,6.5E1,1.316E3,4.4E1,8.71E2,2.2E1,7.06E2,2.2E1,3.5E1,1.04E2,4.3E1,1.85E2,2.67E2,1E0,1.7E1,1.1E1,5.2E2,6.01E2,3.5E1,3E1,5.03E2,8.13E2,2.6E1,1.8E1,4.55E2,4.16E2,1E1,1.2E1,6.8E2,2.6E1,1.1E1,1.1E1,2.9E1,6E0,3.8E1,6.6E1,1.6E1,2.7E1,5.9E1,1.26E2,1E0,1.6E1,1E0,1E1,1.52E2,3.68E2,5.99E2,2E0,2.3E1,1.2E1,3.5E2,1.53E2,8.1E2,3E0,1.9E1,7E0,5E0,1.3E1,4.53E2,2E0,4.14E2,2E0,3E0,7E0,9E0,3E0,4.76E2,2.04E2,2.4E1,2E0,8E0,3E0,4E0,7E0],"tree_param":{"num_deleted":"0","num_feature":"14","num_nodes":"95","size_leaf_vector":"1"}},{"base_weights":[7.4920096E-2,-4.1464916E1,4.681228E0,-4.347081E1,-2.5112583E1,-3.0360887E0,1.4381537E1,-2.688128E1,-4.5602886E1,-2.7941397E1,-6.9209824E0,-9.156911E0,1.7310314E0,9.303855E0,1.9573263E1,-1.0976876E0,-1.5101106E0,-2.300338E0,-1.4489877E0,-2.8236153E1,-3.4482652E-1,-1.2058292E1,2.5152283E0,-1.4625997E1,-6.4765096E0,-1.0569071E1,2.199368E0,6.8594384E0,1.0916824E1,1.601634E1,2.1879873E1,-1.436686E0,-5.5973643E-1,-1.5422058E-1,-6.618093E-1,-1.4339887E-1,2.6328114E-1,-1.584147E1,-5.738641E0,-6.0175657E0,-2.0521954E1,-1.4098958E1,-6.4969153E0,-2.2970931E-1,4.3720055E0,7.123457E0,-7.1329207E0,1.1967005E1,6.8451424E0,-3.3438507E-1,1.6386578E1,2.2306376E1,7.753672E0,-9.6914977E-1,-6.209648E-1,-3.387936E-1,-4.7230483E-3,-4.2294905E-1,-2.4680956E-1,-1.0836688E0,-2.8106728E-1,-1.5342127E-1,-7.429332E-1,-3.6264846E-1,-2.6268912E-2,4.9516287E-2,-1.13698006E-1,2.4223351E-1,3.7060462E-2,5.3118515E-1,3.2774723E-1,-3.9642474E-1,-3.90975E-2,4.7516546E-1,6.789713E-1,-4.9855018E-1,4.1838214E-1,8.696777E-1,6.220641E-1,6.732848E-1,1.1357573E0,-1.4837067E-1,6.465064E-1],"categories":[],"categories_nodes":[],"categories_segments":[],"categories_sizes":[],"default_left":[0,0,0,0,0,0,0,0,0,0,0,0,0,0,0,0,0,0,0,0,0,0,0,0,0,0,0,0,0,0,0,0,0,0,0,0,0,0,0,0,0,0,0,0,0,0,0,0,0,0,0,0,0,0,0,0,0,0,0,0,0,0,0,0,0,0,0,0,0,0,0,0,0,0,0,0,0,0,0,0,0,0,0],"id":5,"left_children":[1,3,5,7,9,11,13,15,17,19,21,23,25,27,29,-1,-1,-1,-1,31,-1,33,35,37,39,41,43,45,47,49,51,-1,-1,-1,-1,-1,-1,53,55,57,59,61,63,65,67,69,71,73,75,-1,77,79,81,-1,-1,-1,-1,-1,-1,-1,-1,-1,-1,-1,-1,-1,-1,-1,-1,-1,-1,-1,-1,-1,-1,-1,-1,-1,-1,-1,-1,-1,-1],"loss_changes":[9.584512E5,1.5308875E4,3.3758903E5,1.44784375E4,2.739875E3,7.3312734E4,5.2489E4,2.0424219E2,1.2985625E3,1.0922266E2,4.6662E2,1.6030547E4,8.1629536E3,3.9151953E3,7.7473438E3,0E0,0E0,0E0,0E0,8.533984E1,0E0,2.2595764E1,7.4325424E1,3.8087344E3,4.6465996E3,6.5586084E2,7.188965E3,1.5469824E3,2.5178984E3,3.4047031E3,3.417875E3,0E0,0E0,0E0,0E0,0E0,0E0,3.6012266E3,2.6280432E2,1.8538262E3,2.727754E2,1.806665E2,1.1357434E2,1.6084249E3,1.2303203E3,7.2235547E2,3.422168E1,1.7856953E3,3.3349604E3,0E0,1.3171172E3,1.782875E3,1.0928163E3,0E0,0E0,0E0,0E0,0E0,0E0,0E0,0E0,0E0,0E0,0E0,0E0,0E0,0E0,0E0,0E0,0E0,0E0,0E0,0E0,0E0,0E0,0E0,0E0,0E0,0E0,0E0,0E0,0E0,0E0],"parents":[2147483647,0,0,1,1,2,2,3,3,4,4,5,5,6,6,7,7,8,8,9,9,10,10,11,11,12,12,13,13,14,14,19,19,21,21,22,22,23,23,24,24,25,25,26,26,27,27,28,28,29,29,30,30,37,37,38,38,39,39,40,40,41,41,42,42,43,43,44,44,45,45,46,46,47,47,48,48,50,50,51,51,52,52],"right_children":[2,4,6,8,10,12,14,16,18,20,22,24,26,28,30,-1,-1,-1,-1,32,-1,34,36,38,40,42,44,46,48,50,52,-1,-1,-1,-1,-1,-1,54,56,58,60,62,64,66,68,70,72,74,76,-1,78,80,82,-1,-1,-1,-1,-1,-1,-1,-1,-1,-1,-1,-1,-1,-1,-1,-1,-1,-1,-1,-1,-1,-1,-1,-1,-1,-1,-1,-1,-1,-1],"split_conditions":[4E1,3E1,6.8E1,-4.5E1,8.267E1,5.467E1,7.933E1,-5.3E1,5.6E1,3.33E0,9.333E1,4.4E1,7E1,7.2E1,8.6E1,-1.0976876E0,-1.5101106E0,-2.300338E0,-1.4489877E0,3.33E0,-3.4482652E-1,8.4E1,3.5E1,9.3E2,8.660254E-1,5.5E1,6.133E1,8.660254E-1,2.5881904E-1,5E1,8.660254E-1,-1.436686E0,-5.5973643E-1,-1.5422058E-1,-6.618093E-1,-1.4339887E-1,2.6328114E-1,3.733E1,2.133E1,4.8E1,5.5E1,-1.8369701E-16,3.33E0,1.14E2,7.8E2,1.7E2,6E1,-8.660254E-1,2.1E1,-3.3438507E-1,6E2,-8.660254E-1,-3.34E0,-9.6914977E-1,-6.209648E-1,-3.387936E-1,-4.7230483E-3,-4.2294905E-1,-2.4680956E-1,-1.0836688E0,-2.8106728E-1,-1.5342127E-1,-7.429332E-1,-3.6264846E-1,-2.6268912E-2,4.9516287E-2,-1.13698006E-1,2.4223351E-1,3.7060462E-2,5.3118515E-1,3.2774723E-1,-3.9642474E-1,-3.90975E-2,4.7516546E-1,6.789713E-1,-4.9855018E-1,4.1838214E-1,8.696777E-1,6.220641E-1,6.732848E-1,1.1357573E0,-1.4837067E-1,6.465064E-1],"split_indices":[4,4,5,4,5,5,5,4,5,8,5,5,4,5,5,0,0,0,0,9,0,5,4,4,1,4,5,1,1,4,1,0,0,0,0,0,0,5,9,5,4,1,9,3,4,4,4,1,3,0,4,1,8,0,0,0,0,0,0,0,0,0,0,0,0,0,0,0,0,0,0,0,0,0,0,0,0,0,0,0,0,0,0],"split_type":[0,0,0,0,0,0,0,0,0,0,0,0,0,0,0,0,0,0,0,0,0,0,0,0,0,0,0,0,0,0,0,0,0,0,0,0,0,0,0,0,0,0,0,0,0,0,0,0,0,0,0,0,0,0,0,0,0,0,0,0,0,0,0,0,0,0,0,0,0,0,0,0,0,0,0,0,0,0,0,0,0,0,0],"sum_hessian":[5.007E3,4.99E2,4.508E3,4.43E2,5.6E1,2.511E3,1.997E3,5.2E1,3.91E2,4.8E1,8E0,1.099E3,1.412E3,1.011E3,9.86E2,2.4E1,2.8E1,3.8E2,1.1E1,4.7E1,1E0,5E0,3E0,3.6E2,7.39E2,5.1E1,1.361E3,4.04E2,6.07E2,3.91E2,5.95E2,4.5E1,2E0,1E0,4E0,1E0,2E0,3.16E2,4.4E1,7.17E2,2.2E1,2.6E1,2.5E1,6.43E2,7.18E2,3.97E2,7E0,4.81E2,1.26E2,6E0,3.85E2,5.77E2,1.8E1,1.53E2,1.63E2,3.7E1,7E0,2.18E2,4.99E2,2E1,2E0,2E0,2.4E1,2.2E1,3E0,4.03E2,2.4E2,6.35E2,8.3E1,5.3E1,3.44E2,6E0,1E0,1.93E2,2.88E2,1E1,1.16E2,3.04E2,8.1E1,2.7E1,5.5E2,6E0,1.2E1],"tree_param":{"num_deleted":"0","num_feature":"14","num_nodes":"83","size_leaf_vector":"1"}},{"base_weights":[-8.3346136E-2,-3.96844E1,4.3079715E0,-4.1815807E1,-2.7299265E1,-2.366261E0,1.4579101E1,-2.5195995E1,-2.2038677E0,-1.2529764E1,-2.9872768E1,-9.248287E0,1.6207013E0,1.02767105E1,1.9260931E1,-1.0243734E0,-1.4825023E0,-1.4016006E1,1.3262872E-1,-3.240467E1,-1.0801047E0,-1.6751286E1,-7.083014E0,-1.0822184E0,3.916301E0,8.574572E0,1.2680088E1,1.971794E1,4.089221E0,-7.829246E-1,-1.9345264E-1,-1.6352681E0,-4.6432152E-1,-1.8359362E1,-7.272292E0,-4.5687985E0,-8.466752E0,-7.1705514E-1,-1.2271352E1,-1.0060457E1,4.2491655E0,-2.961361E0,8.818205E0,-3.8497255E0,1.2954831E1,1.7269775E1,2.2214375E1,-3.4174602E0,9.821952E0,-1.1526034E0,-8.497338E-1,-3.775936E-1,4.884615E-2,-2.4927233E-1,2.1539514E-1,-9.9916154E-1,-4.0954694E-1,1.4168324E-2,-1.8116355E-1,-7.283405E-1,-2.786327E-1,-5.551345E-1,-1.2973714E-1,2.2694933E-1,-7.856864E-2,1.19091E-1,-3.5590896E-1,3.5120162E-1,4.895792E-1,-3.9082434E-2,-2.9776856E-1,4.168006E-1,6.733067E-1,9.0291464E-1,6.4670324E-1,1.0584719E0,1.227938E0,1.9389206E-1,-3.7749204E-1,7.2439224E-1,1.9641571E-1],"categories":[],"categories_nodes":[],"categories_segments":[],"categories_sizes":[],"default_left":[0,0,0,0,0,0,0,0,0,0,0,0,0,0,0,0,0,0,0,0,0,0,0,0,0,0,0,0,0,0,0,0,0,0,0,0,0,0,0,0,0,0,0,0,0,0,0,0,0,0,0,0,0,0,0,0,0,0,0,0,0,0,0,0,0,0,0,0,0,0,0,0,0,0,0,0,0,0,0,0,0],"id":6,"left_children":[1,3,5,7,9,11,13,15,-1,17,19,21,23,25,27,-1,-1,29,-1,31,-1,33,35,37,39,41,43,45,47,-1,-1,-1,-1,49,51,53,55,57,59,61,63,65,67,69,71,73,75,77,79,-1,-1,-1,-1,-1,-1,-1,-1,-1,-1,-1,-1,-1,-1,-1,-1,-1,-1,-1,-1,-1,-1,-1,-1,-1,-1,-1,-1,-1,-1,-1,-1],"loss_changes":[8.675882E5,1.20045E4,3.0790112E5,1.47885625E4,2.514414E3,7.472968E4,3.5435125E4,5.040664E2,0E0,3.3051855E2,6.401836E2,1.6111148E4,1.0707555E4,3.6712422E3,5.7851875E3,0E0,0E0,1.3941113E2,0E0,2.3003906E1,0E0,3.2656602E3,2.6645117E3,3.2312883E3,4.3834062E3,1.5550469E3,1.7801641E3,4.6340312E3,1.1524443E3,0E0,0E0,0E0,0E0,8.250078E2,8.579236E1,1.0496484E3,1.4245117E3,2.236849E3,3.0323853E2,1.4237329E2,1.5455996E3,2.8348175E2,8.620625E2,4.0566963E1,7.7335156E2,1.1989062E3,4.6735938E2,3.9104068E2,3.555735E2,0E0,0E0,0E0,0E0,0E0,0E0,0E0,0E0,0E0,0E0,0E0,0E0,0E0,0E0,0E0,0E0,0E0,0E0,0E0,0E0,0E0,0E0,0E0,0E0,0E0,0E0,0E0,0E0,0E0,0E0,0E0,0E0],"parents":[2147483647,0,0,1,1,2,2,3,3,4,4,5,5,6,6,7,7,9,9,10,10,11,11,12,12,13,13,14,14,17,17,19,19,21,21,22,22,23,23,24,24,25,25,26,26,27,27,28,28,33,33,34,34,35,35,36,36,37,37,38,38,39,39,40,40,41,41,42,42,43,43,44,44,45,45,46,46,47,47,48,48],"right_children":[2,4,6,8,10,12,14,16,-1,18,20,22,24,26,28,-1,-1,30,-1,32,-1,34,36,38,40,42,44,46,48,-1,-1,-1,-1,50,52,54,56,58,60,62,64,66,68,70,72,74,76,78,80,-1,-1,-1,-1,-1,-1,-1,-1,-1,-1,-1,-1,-1,-1,-1,-1,-1,-1,-1,-1,-1,-1,-1,-1,-1,-1,-1,-1,-1,-1,-1,-1],"split_conditions":[4E1,2.5E1,7E1,-4.5E1,3.674901E0,5.333E1,8.133E1,-5E1,-2.2038677E0,5.33E0,3.5E1,3.867E1,6.133E1,7.6E1,8.660254E-1,-1.0243734E0,-1.4825023E0,3.4448028E0,1.3262872E-1,7.533E1,-1.0801047E0,1.2055452E1,4E0,8.660254E-1,6E1,7E1,6E1,8.933E1,5.5E1,-7.829246E-1,-1.9345264E-1,-1.6352681E0,-4.6432152E-1,-8.660254E-1,1.681661E1,1.8889778E1,6E1,7.95E2,5.5E1,6.359421E0,8.5E2,2.053725E0,-8.660254E-1,7.867E1,-9.659258E-1,-2.5881904E-1,9.667E1,3.841066E0,3.077277E0,-1.1526034E0,-8.497338E-1,-3.775936E-1,4.884615E-2,-2.4927233E-1,2.1539514E-1,-9.9916154E-1,-4.0954694E-1,1.4168324E-2,-1.8116355E-1,-7.283405E-1,-2.786327E-1,-5.551345E-1,-1.2973714E-1,2.2694933E-1,-7.856864E-2,1.19091E-1,-3.5590896E-1,3.5120162E-1,4.895792E-1,-3.9082434E-2,-2.9776856E-1,4.168006E-1,6.733067E-1,9.0291464E-1,6.4670324E-1,1.0584719E0,1.227938E0,1.9389206E-1,-3.7749204E-1,7.2439224E-1,1.9641571E-1],"split_indices":[4,4,5,4,13,5,5,4,0,8,4,5,5,5,1,0,0,13,0,5,0,13,2,1,4,4,4,5,4,0,0,0,0,1,13,13,4,4,4,12,4,13,1,5,1,0,5,13,12,0,0,0,0,0,0,0,0,0,0,0,0,0,0,0,0,0,0,0,0,0,0,0,0,0,0,0,0,0,0,0,0],"split_type":[0,0,0,0,0,0,0,0,0,0,0,0,0,0,0,0,0,0,0,0,0,0,0,0,0,0,0,0,0,0,0,0,0,0,0,0,0,0,0,0,0,0,0,0,0,0,0,0,0,0,0,0,0,0,0,0,0,0,0,0,0,0,0,0,0,0,0,0,0,0,0,0,0,0,0,0,0,0,0,0,0],"sum_hessian":[4.987E3,4.97E2,4.49E3,4.22E2,7.5E1,2.722E3,1.768E3,5.2E1,3.7E2,1.2E1,6.3E1,9.98E2,1.724E3,9.23E2,8.45E2,2.8E1,2.4E1,1.1E1,1E0,4.6E1,1.7E1,2.22E2,7.76E2,7.92E2,9.32E2,5.43E2,3.8E2,8.2E2,2.5E1,9E0,2E0,4.5E1,1E0,1.89E2,3.3E1,2.77E2,4.99E2,7.68E2,2.4E1,2.1E1,9.11E2,1.1E1,5.32E2,6E0,3.74E2,4.18E2,4.02E2,1.1E1,1.4E1,3.9E1,1.5E2,3.2E1,1E0,2.65E2,1.2E1,1E1,4.89E2,5.72E2,1.96E2,1.7E1,7E0,1.8E1,3E0,8.68E2,4.3E1,5E0,6E0,1.9E2,3.42E2,3E0,3E0,3.9E1,3.35E2,3.51E2,6.7E1,2.85E2,1.17E2,4E0,7E0,7E0,7E0],"tree_param":{"num_deleted":"0","num_feature":"14","num_nodes":"81","size_leaf_vector":"1"}},{"base_weights":[-6.852567E-2,-3.7644634E1,4.0398326E0,-3.936797E1,-2.3016825E1,-3.0517979E0,1.2940916E1,-2.4225754E1,-4.1095253E1,-2.5501198E1,-5.233483E0,-8.317219E0,1.570338E0,8.202039E0,1.7470207E1,-9.840479E-1,-1.4155027E0,-2.0961063E0,-1.580805E0,-2.8802385E1,-9.4733137E-1,-1.0452898E1,2.5991564E0,-1.57361555E1,-6.333139E0,-9.274035E0,2.0192432E0,-3.3397899E0,8.479726E0,1.445614E1,1.9713919E1,-3.03662E1,-7.455034E-1,-5.858173E-1,-1.3497762E-1,-1.455288E-1,2.702963E-1,-1.714498E1,-5.602769E0,-6.0351014E0,-1.79404E1,-1.2712435E1,-6.099567E0,-4.3275246E-1,3.3384995E0,-4.8851067E-1,-1.5651945E0,6.476675E0,9.861048E0,1.4902756E1,-1.5316517E0,2.2213924E0,1.9950548E1,-3.2724753E-1,-1.5528626E0,-1.0221747E0,-7.642517E-1,-3.362481E-1,-6.9778465E-2,-4.1379032E-1,-2.2241722E-1,-1.0208005E0,-4.6826425E-1,-6.6549057E-1,-1.9475403E-1,-3.3518857E-1,-2.4814893E-2,9.714951E-3,-1.6475444E-1,1.9320224E-1,-8.813596E-3,-1.2675877E-1,9.2589155E-2,4.8929125E-1,2.912573E-1,5.5339295E-1,3.9984974E-1,7.986096E-1,5.9901047E-1,-3.2097462E-1,1.1628425E-1,3.339463E-1,-4.4599915E-1,9.2605096E-1,1.1197332E0],"categories":[],"categories_nodes":[],"categories_segments":[],"categories_sizes":[],"default_left":[0,0,0,0,0,0,0,0,0,0,0,0,0,0,0,0,0,0,0,0,0,0,0,0,0,0,0,0,0,0,0,0,0,0,0,0,0,0,0,0,0,0,0,0,0,0,0,0,0,0,0,0,0,0,0,0,0,0,0,0,0,0,0,0,0,0,0,0,0,0,0,0,0,0,0,0,0,0,0,0,0,0,0,0,0],"id":7,"left_children":[1,3,5,7,9,11,13,15,17,19,21,23,25,27,29,-1,-1,-1,-1,31,-1,33,35,37,39,41,43,45,47,49,51,53,-1,-1,-1,-1,-1,55,57,59,61,63,65,67,69,-1,71,73,75,77,79,81,83,-1,-1,-1,-1,-1,-1,-1,-1,-1,-1,-1,-1,-1,-1,-1,-1,-1,-1,-1,-1,-1,-1,-1,-1,-1,-1,-1,-1,-1,-1,-1,-1],"loss_changes":[7.8160394E5,1.16729375E4,2.8813375E5,1.0643375E4,2.2964648E3,6.1854625E4,4.3299344E4,3.3382227E2,1.794125E3,4.9291016E2,3.5422302E2,1.738743E4,6.6101294E3,3.2045078E3,6.7076562E3,0E0,0E0,0E0,0E0,1.9899023E2,0E0,1.7350952E1,7.7592545E1,3.4729766E3,3.1400977E3,5.118745E2,4.209934E3,2.5858133E2,2.6144531E3,3.2003125E3,2.3978125E3,2.2473438E2,0E0,0E0,0E0,0E0,0E0,1.0311016E3,1.416961E2,3.2235352E3,2.9705762E2,7.983887E1,9.8238525E1,8.190836E2,1.5633877E3,0E0,7.098265E1,8.010879E2,1.1959883E3,1.1619844E3,2.6003232E2,5.065434E2,1.6187031E3,0E0,0E0,0E0,0E0,0E0,0E0,0E0,0E0,0E0,0E0,0E0,0E0,0E0,0E0,0E0,0E0,0E0,0E0,0E0,0E0,0E0,0E0,0E0,0E0,0E0,0E0,0E0,0E0,0E0,0E0,0E0,0E0],"parents":[2147483647,0,0,1,1,2,2,3,3,4,4,5,5,6,6,7,7,8,8,9,9,10,10,11,11,12,12,13,13,14,14,19,19,21,21,22,22,23,23,24,24,25,25,26,26,27,27,28,28,29,29,30,30,31,31,37,37,38,38,39,39,40,40,41,41,42,42,43,43,44,44,46,46,47,47,48,48,49,49,50,50,51,51,52,52],"right_children":[2,4,6,8,10,12,14,16,18,20,22,24,26,28,30,-1,-1,-1,-1,32,-1,34,36,38,40,42,44,46,48,50,52,54,-1,-1,-1,-1,-1,56,58,60,62,64,66,68,70,-1,72,74,76,78,80,82,84,-1,-1,-1,-1,-1,-1,-1,-1,-1,-1,-1,-1,-1,-1,-1,-1,-1,-1,-1,-1,-1,-1,-1,-1,-1,-1,-1,-1,-1,-1,-1,-1],"split_conditions":[4E1,5E1,6.8E1,-4.5E1,8.267E1,5.533E1,7.867E1,-5.3E1,2.5E1,3.5E1,3.5E1,3.933E1,7E1,7E1,8.6E1,-9.840479E-1,-1.4155027E0,-2.0961063E0,-1.580805E0,7.933E1,-9.4733137E-1,9.467E1,8.4E1,9.659258E-1,8.660254E-1,5.5E1,6E1,4.5E1,7.2E1,8.660254E-1,5E1,5.8E1,-7.455034E-1,-5.858173E-1,-1.3497762E-1,-1.455288E-1,2.702963E-1,3E1,2.9776667E1,4.8E1,5.5E1,2E0,3.33E0,8.25E2,7.9E2,-4.8851067E-1,7.867E1,6.5996666E1,-2.5881904E-1,-2.5881904E-1,5E1,9.667E1,9.4E1,-3.2724753E-1,-1.5528626E0,-1.0221747E0,-7.642517E-1,-3.362481E-1,-6.9778465E-2,-4.1379032E-1,-2.2241722E-1,-1.0208005E0,-4.6826425E-1,-6.6549057E-1,-1.9475403E-1,-3.3518857E-1,-2.4814893E-2,9.714951E-3,-1.6475444E-1,1.9320224E-1,-8.813596E-3,-1.2675877E-1,9.2589155E-2,4.8929125E-1,2.912573E-1,5.5339295E-1,3.9984974E-1,7.986096E-1,5.9901047E-1,-3.2097462E-1,1.1628425E-1,3.339463E-1,-4.4599915E-1,9.2605096E-1,1.1197332E0],"split_indices":[4,5,5,4,5,5,5,4,4,4,4,5,4,4,5,0,0,0,0,5,0,5,5,0,1,4,5,4,5,1,4,7,0,0,0,0,0,5,10,5,4,9,9,4,4,0,6,10,0,0,4,7,5,0,0,0,0,0,0,0,0,0,0,0,0,0,0,0,0,0,0,0,0,0,0,0,0,0,0,0,0,0,0,0,0],"split_type":[0,0,0,0,0,0,0,0,0,0,0,0,0,0,0,0,0,0,0,0,0,0,0,0,0,0,0,0,0,0,0,0,0,0,0,0,0,0,0,0,0,0,0,0,0,0,0,0,0,0,0,0,0,0,0,0,0,0,0,0,0,0,0,0,0,0,0,0,0,0,0,0,0,0,0,0,0,0,0,0,0,0,0,0,0],"sum_hessian":[5.061E3,4.98E2,4.563E3,4.44E2,5.4E1,2.54E3,2.023E3,4.7E1,3.97E2,4.7E1,7E0,1.187E3,1.353E3,9.9E2,1.033E3,2.5E1,2.2E1,3.62E2,3.5E1,2.9E1,1.8E1,4E0,3E0,2.49E2,9.38E2,5.3E1,1.3E3,2.3E1,9.67E2,4.44E2,5.89E2,2.5E1,4E0,3E0,1E0,1E0,2E0,2.18E2,3.1E1,9.16E2,2.2E1,2.4E1,2.9E1,4.55E2,8.45E2,4E0,1.9E1,3.97E2,5.7E2,4.32E2,1.2E1,8E0,5.81E2,1E0,2.4E1,7.5E1,1.43E2,2.4E1,7E0,3.78E2,5.38E2,1.6E1,6E0,2.2E1,2E0,2.6E1,3E0,3.74E2,8.1E1,7.35E2,1.1E2,1.5E1,4E0,6.3E1,3.34E2,3.43E2,2.27E2,3.13E2,1.19E2,5E0,7E0,6E0,2E0,3.72E2,2.09E2],"tree_param":{"num_deleted":"0","num_feature":"14","num_nodes":"85","size_leaf_vector":"1"}},{"base_weights":[-1.0922743E-1,-3.4871296E1,4.010516E0,-3.740742E1,-2.070107E1,-1.35694E0,1.3874329E1,-2.3415884E1,-3.9137127E1,-2.4434431E1,-1.3290988E1,-7.1037116E0,2.8895433E0,9.83203E0,1.7046814E1,-8.909624E-1,-2.6098211E1,-1.9865834E0,-2.9474129E1,-3.9721426E-1,-2.5248669E1,-1.4690002E1,-3.3579147E0,-1.1612949E1,-4.6053824E0,-8.563615E0,3.2186208E0,8.77239E0,1.3847783E1,1.579461E1,2.1425571E1,-1.4399418E0,-7.029453E-1,-9.329848E-1,-1.5837705E0,-1.2908167E0,-6.0622656E-1,-1.8243605E1,-9.733046E0,1.2255555E-1,-2.7114746E-1,-6.0200424E0,-1.3813246E1,-2.7734604E0,-5.7781377E0,-4.2547207E0,-9.919386E0,3.890885E0,-1.5431E0,-1.063159E0,9.066327E0,7.057485E0,1.4411617E1,1.6240488E1,2.1192472E0,1.1873097E1,2.1826107E1,-9.715433E-1,-3.706678E-1,-5.190976E-1,-4.8654176E-2,-4.2682806E-1,-1.2533003E-1,-7.986678E-1,-5.0105757E-1,9.228467E-2,-1.8718266E-1,-3.9608485E-1,-2.4895732E-1,2.4954796E-2,-2.5822115E-1,-5.4572463E-1,-1.6453117E-1,2.6057371E-1,3.9452925E-2,-9.526377E-2,2.8005978E-1,-1.9873804E-1,9.832857E-2,3.8979518E-1,5.0773287E-1,-6.1103057E-2,3.9246428E-1,5.6473035E-1,7.845934E-1,8.4702486E-1,5.80022E-1,-1.410778E-1,3.068454E-1,1.9856724E-1,9.490291E-1,1.1154693E0,8.214801E-1],"categories":[],"categories_nodes":[],"categories_segments":[],"categories_sizes":[],"default_left":[0,0,0,0,0,0,0,0,0,0,0,0,0,0,0,0,0,0,0,0,0,0,0,0,0,0,0,0,0,0,0,0,0,0,0,0,0,0,0,0,0,0,0,0,0,0,0,0,0,0,0,0,0,0,0,0,0,0,0,0,0,0,0,0,0,0,0,0,0,0,0,0,0,0,0,0,0,0,0,0,0,0,0,0,0,0,0,0,0,0,0,0,0],"id":8,"left_children":[1,3,5,7,9,11,13,15,17,19,21,23,25,27,29,-1,31,-1,33,-1,35,37,39,41,43,45,47,49,51,53,55,-1,-1,-1,-1,-1,-1,57,59,-1,-1,61,63,65,67,69,71,73,75,77,79,81,83,85,87,89,91,-1,-1,-1,-1,-1,-1,-1,-1,-1,-1,-1,-1,-1,-1,-1,-1,-1,-1,-1,-1,-1,-1,-1,-1,-1,-1,-1,-1,-1,-1,-1,-1,-1,-1,-1,-1],"loss_changes":[7.1905806E5,1.8344375E4,2.3768256E5,9.9741875E3,1.9713984E3,7.098611E4,2.0120188E4,3.155703E2,1.1211875E3,5.244707E2,3.6756738E2,1.387075E4,6.3330576E3,2.8486953E3,4.5141406E3,0E0,6.6807227E2,0E0,5.1697266E1,0E0,6.694336E1,2.8042578E2,7.327143E1,5.331508E3,1.6962461E3,2.3236401E2,5.214252E3,1.6141602E3,4.4960938E2,4.185078E3,4.83125E2,0E0,0E0,0E0,0E0,0E0,0E0,3.596875E1,6.3794678E1,0E0,0E0,1.0926489E3,2.4202031E3,1.4096099E3,7.9121094E2,5.8796783E1,1.9495581E2,5.837125E3,5.333445E2,1.577799E2,6.660781E2,9.481708E1,3.4951758E2,1.9797031E3,4.7387653E2,4.862373E2,1.1594531E2,0E0,0E0,0E0,0E0,0E0,0E0,0E0,0E0,0E0,0E0,0E0,0E0,0E0,0E0,0E0,0E0,0E0,0E0,0E0,0E0,0E0,0E0,0E0,0E0,0E0,0E0,0E0,0E0,0E0,0E0,0E0,0E0,0E0,0E0,0E0,0E0],"parents":[2147483647,0,0,1,1,2,2,3,3,4,4,5,5,6,6,7,7,8,8,9,9,10,10,11,11,12,12,13,13,14,14,16,16,18,18,20,20,21,21,22,22,23,23,24,24,25,25,26,26,27,27,28,28,29,29,30,30,37,37,38,38,41,41,42,42,43,43,44,44,45,45,46,46,47,47,48,48,49,49,50,50,51,51,52,52,53,53,54,54,55,55,56,56],"right_children":[2,4,6,8,10,12,14,16,18,20,22,24,26,28,30,-1,32,-1,34,-1,36,38,40,42,44,46,48,50,52,54,56,-1,-1,-1,-1,-1,-1,58,60,-1,-1,62,64,66,68,70,72,74,76,78,80,82,84,86,88,90,92,-1,-1,-1,-1,-1,-1,-1,-1,-1,-1,-1,-1,-1,-1,-1,-1,-1,-1,-1,-1,-1,-1,-1,-1,-1,-1,-1,-1,-1,-1,-1,-1,-1,-1,-1,-1],"split_conditions":[4.5E1,3E1,7.133667E1,-4.5E1,7.2E1,5.5556667E1,8.0223335E1,7.9E1,2.5E1,-1.8369701E-16,8.889E1,4.467E1,7E1,3.34E0,9.378E1,-8.909624E-1,1.52E2,-1.9865834E0,6.1190906E0,-3.9721426E-1,1.33E0,4E1,8.733E1,1.07E2,8.7E1,5.911E1,7.95E2,7E1,1.5E1,8.660254E-1,7E1,-1.4399418E0,-7.029453E-1,-9.329848E-1,-1.5837705E0,-1.2908167E0,-6.0622656E-1,6.7E-1,8.533E1,1.2255555E-1,-2.7114746E-1,1.3741637E1,3.978E1,5.4E2,4.777667E1,-1.8369701E-16,6.911E1,1.14E2,9.546502E0,-2E0,7.6E1,7.067E1,-2.66E0,5.15E2,5.5E1,9.7776665E1,1.12E2,-9.715433E-1,-3.706678E-1,-5.190976E-1,-4.8654176E-2,-4.2682806E-1,-1.2533003E-1,-7.986678E-1,-5.0105757E-1,9.228467E-2,-1.8718266E-1,-3.9608485E-1,-2.4895732E-1,2.4954796E-2,-2.5822115E-1,-5.4572463E-1,-1.6453117E-1,2.6057371E-1,3.9452925E-2,-9.526377E-2,2.8005978E-1,-1.9873804E-1,9.832857E-2,3.8979518E-1,5.0773287E-1,-6.1103057E-2,3.9246428E-1,5.6473035E-1,7.845934E-1,8.4702486E-1,5.80022E-1,-1.410778E-1,3.068454E-1,1.9856724E-1,9.490291E-1,1.1154693E0,8.214801E-1],"split_indices":[4,4,10,4,7,10,10,3,4,1,10,6,4,8,10,0,3,0,13,0,8,4,6,3,3,11,4,4,3,1,4,0,0,0,0,0,0,9,6,0,0,13,10,4,10,1,10,3,13,8,6,7,9,4,4,11,3,0,0,0,0,0,0,0,0,0,0,0,0,0,0,0,0,0,0,0,0,0,0,0,0,0,0,0,0,0,0,0,0,0,0,0,0],"split_type":[0,0,0,0,0,0,0,0,0,0,0,0,0,0,0,0,0,0,0,0,0,0,0,0,0,0,0,0,0,0,0,0,0,0,0,0,0,0,0,0,0,0,0,0,0,0,0,0,0,0,0,0,0,0,0,0,0,0,0,0,0,0,0,0,0,0,0,0,0,0,0,0,0,0,0,0,0,0,0,0,0,0,0,0,0,0,0,0,0,0,0,0,0],"sum_hessian":[5.019E3,5.31E2,4.488E3,4.49E2,8.2E1,2.907E3,1.581E3,5.1E1,3.98E2,5.3E1,2.9E1,1.235E3,1.672E3,6.97E2,8.84E2,1.9E1,3.2E1,3.72E2,2.6E1,3E0,5E1,2.5E1,4E0,4.39E2,7.96E2,4.6E1,1.626E3,5.54E2,1.43E2,6.91E2,1.93E2,2.5E1,7E0,6E0,2E1,4.7E1,3E0,1.3E1,1.2E1,1E0,3E0,1.25E2,3.14E2,3.12E2,4.84E2,1.2E1,3.4E1,1.425E3,2.01E2,1.6E1,5.38E2,1.2E1,1.31E2,6.69E2,2.2E1,9E0,1.84E2,1.1E1,2E0,1.1E1,1E0,7.2E1,5.3E1,1.98E2,1.16E2,5.4E1,2.58E2,1.29E2,3.55E2,2E0,1E1,2.9E1,5E0,9.99E2,4.26E2,1.92E2,9E0,8E0,8E0,2.52E2,2.86E2,1E0,1.1E1,4.1E1,9E1,5.79E2,9E1,1E1,1.2E1,5E0,4E0,1.66E2,1.8E1],"tree_param":{"num_deleted":"0","num_feature":"14","num_nodes":"93","size_leaf_vector":"1"}},{"base_weights":[1.08220756E-1,-3.3135777E1,3.9287536E0,-3.5410698E1,-1.8976982E1,-2.5443587E0,1.2080513E1,-2.2133564E1,-3.7183228E1,-4.0274234E0,-2.1249922E1,-8.961044E0,4.2152998E-1,7.7960615E0,1.6518614E1,-1.899198E1,-2.5143785E1,-3.7388298E1,-6.9164693E-1,2.6096734E-1,-8.147381E0,-2.337695E1,-1.3407781E1,-1.4642675E1,-6.913168E0,-2.22E0,2.613945E0,6.17943E0,9.549385E0,1.5210878E1,2.1025911E1,-7.024183E-1,-1.1374298E0,-1.4044017E0,-8.3943397E-1,-1.904501E0,-3.2234226E1,-4.573426E-1,-1.716322E-1,-1.1943382E0,-5.83493E-1,-7.007528E-1,-1.0746632E-1,-9.116861E0,-1.7224638E1,-3.7556076E0,-7.875279E0,-1.1180954E0,-3.8763366E0,-7.025183E0,2.9278111E0,9.333506E0,5.6425543E0,9.866973E0,-1.8853397E0,1.5525086E1,2.74608E0,2.126908E1,1.0657667E1,-9.76202E-1,-1.6720698E0,-5.303219E-1,-2.1535741E-1,-1.02509E0,-7.610363E-1,-2.4496727E-1,3.3341262E-3,-4.887497E-1,-3.313141E-1,7.0780806E-2,-1.9591424E-1,-1.6321127E-1,-3.6724874E-1,-3.7988666E-1,3.3017095E-2,1.7156747E-1,-1.077962E-2,1.2026688E-1,5.644495E-1,8.708811E-2,3.3706304E-1,5.500352E-1,4.026188E-1,-2.4832249E-2,-2.1428306E-1,8.17221E-1,5.493802E-1,-2.9369894E-1,2.634109E-1,1.0721407E0,5.8652E-1,7.4274635E-1,5.483882E-3],"categories":[],"categories_nodes":[],"categories_segments":[],"categories_sizes":[],"default_left":[0,0,0,0,0,0,0,0,0,0,0,0,0,0,0,0,0,0,0,0,0,0,0,0,0,0,0,0,0,0,0,0,0,0,0,0,0,0,0,0,0,0,0,0,0,0,0,0,0,0,0,0,0,0,0,0,0,0,0,0,0,0,0,0,0,0,0,0,0,0,0,0,0,0,0,0,0,0,0,0,0,0,0,0,0,0,0,0,0,0,0,0,0],"id":9,"left_children":[1,3,5,7,9,11,13,15,17,19,21,23,25,27,29,31,33,35,-1,-1,37,39,41,43,45,47,49,51,53,55,57,-1,-1,-1,-1,-1,59,-1,-1,-1,-1,-1,-1,61,63,65,67,69,71,73,75,77,79,81,83,85,87,89,91,-1,-1,-1,-1,-1,-1,-1,-1,-1,-1,-1,-1,-1,-1,-1,-1,-1,-1,-1,-1,-1,-1,-1,-1,-1,-1,-1,-1,-1,-1,-1,-1,-1,-1],"loss_changes":[6.3949744E5,1.60450625E4,2.3832766E5,9.6731875E3,2.4288984E3,4.7924277E4,3.7881875E4,4.2597656E1,1.3599375E3,4.6158325E2,7.5411523E2,9.160461E3,9.984264E3,2.8293242E3,5.4625312E3,2.5612793E2,1.4342578E2,1.754375E2,0E0,0E0,6.300049E0,1.3697266E1,7.926904E1,2.839129E3,1.7536816E3,1.4229143E3,2.8704927E3,8.498887E2,1.7871602E3,2.9495938E3,3.2295312E2,0E0,0E0,0E0,0E0,0E0,1.6028906E2,0E0,0E0,0E0,0E0,0E0,0E0,4.486626E2,6.2048047E2,6.079928E2,1.0005879E3,3.3472314E3,6.3845996E2,1.3702747E2,1.4458574E3,1.0024883E3,1.951166E3,8.865547E2,4.453794E1,2.5900938E3,4.6576495E2,9.9796875E1,3.0827942E2,0E0,0E0,0E0,0E0,0E0,0E0,0E0,0E0,0E0,0E0,0E0,0E0,0E0,0E0,0E0,0E0,0E0,0E0,0E0,0E0,0E0,0E0,0E0,0E0,0E0,0E0,0E0,0E0,0E0,0E0,0E0,0E0,0E0,0E0],"parents":[2147483647,0,0,1,1,2,2,3,3,4,4,5,5,6,6,7,7,8,8,9,9,10,10,11,11,12,12,13,13,14,14,15,15,16,16,17,17,20,20,21,21,22,22,23,23,24,24,25,25,26,26,27,27,28,28,29,29,30,30,36,36,43,43,44,44,45,45,46,46,47,47,48,48,49,49,50,50,51,51,52,52,53,53,54,54,55,55,56,56,57,57,58,58],"right_children":[2,4,6,8,10,12,14,16,18,20,22,24,26,28,30,32,34,36,-1,-1,38,40,42,44,46,48,50,52,54,56,58,-1,-1,-1,-1,-1,60,-1,-1,-1,-1,-1,-1,62,64,66,68,70,72,74,76,78,80,82,84,86,88,90,92,-1,-1,-1,-1,-1,-1,-1,-1,-1,-1,-1,-1,-1,-1,-1,-1,-1,-1,-1,-1,-1,-1,-1,-1,-1,-1,-1,-1,-1,-1,-1,-1,-1,-1],"split_conditions":[4.5E1,3E1,6.8E1,-4.5E1,-8.660254E-1,5.067E1,7.933E1,4E0,8.267E1,-6.6E-1,6.733E1,3.8E1,5.933E1,7.333E1,9.4E1,-5E1,6E0,2E1,-6.9164693E-1,2.6096734E-1,3.284262E0,1.33E0,9.067E1,1.29E2,8E1,1.14E2,7E1,1.75E2,8.660254E-1,8.660254E-1,8.660254E-1,-7.024183E-1,-1.1374298E0,-1.4044017E0,-8.3943397E-1,-1.904501E0,6.1190906E0,-4.573426E-1,-1.716322E-1,-1.1943382E0,-5.83493E-1,-7.007528E-1,-1.0746632E-1,1.3741637E1,1.34E2,3.33E0,4.467E1,8E2,5.55E2,3.33E0,7.9E2,9E1,3.2E2,-2.5881904E-1,3E0,5.25E2,5E1,1.266E1,9.8E1,-9.76202E-1,-1.6720698E0,-5.303219E-1,-2.1535741E-1,-1.02509E0,-7.610363E-1,-2.4496727E-1,3.3341262E-3,-4.887497E-1,-3.313141E-1,7.0780806E-2,-1.9591424E-1,-1.6321127E-1,-3.6724874E-1,-3.7988666E-1,3.3017095E-2,1.7156747E-1,-1.077962E-2,1.2026688E-1,5.644495E-1,8.708811E-2,3.3706304E-1,5.500352E-1,4.026188E-1,-2.4832249E-2,-2.1428306E-1,8.17221E-1,5.493802E-1,-2.9369894E-1,2.634109E-1,1.0721407E0,5.8652E-1,7.4274635E-1,5.483882E-3],"split_indices":[4,4,5,4,0,5,5,2,6,9,5,5,5,5,5,4,2,4,0,0,13,8,5,3,3,3,4,4,1,1,1,0,0,0,0,0,13,0,0,0,0,0,0,13,3,8,5,4,4,9,4,4,4,0,2,4,4,9,5,0,0,0,0,0,0,0,0,0,0,0,0,0,0,0,0,0,0,0,0,0,0,0,0,0,0,0,0,0,0,0,0,0,0],"split_type":[0,0,0,0,0,0,0,0,0,0,0,0,0,0,0,0,0,0,0,0,0,0,0,0,0,0,0,0,0,0,0,0,0,0,0,0,0,0,0,0,0,0,0,0,0,0,0,0,0,0,0,0,0,0,0,0,0,0,0,0,0,0,0,0,0,0,0,0,0,0,0,0,0,0,0,0,0,0,0,0,0,0,0,0,0,0,0,0,0,0,0,0,0],"sum_hessian":[5.033E3,5.18E2,4.515E3,4.45E2,7.3E1,2.517E3,1.998E3,5.4E1,3.91E2,1E1,6.3E1,7.95E2,1.722E3,1.018E3,9.8E2,3E1,2.4E1,3.87E2,4E0,3E0,7E0,4.8E1,1.5E1,2.09E2,5.86E2,7.81E2,9.41E2,5.32E2,4.86E2,7.63E2,2.17E2,1.5E1,1.5E1,1.6E1,8E0,3.35E2,5.2E1,5E0,2E0,4.5E1,3E0,1.4E1,1E0,6.8E1,1.41E2,1.38E2,4.48E2,4.7E2,3.11E2,2.9E1,9.12E2,7.5E1,4.57E2,4.73E2,1.3E1,7.44E2,1.9E1,2.11E2,6E0,6E0,4.6E1,5.1E1,1.7E1,5E1,9.1E1,1.06E2,3.2E1,1.75E2,2.73E2,2.47E2,2.23E2,2.66E2,4.5E1,2.7E1,2E0,7.86E2,1.26E2,1.7E1,5.8E1,1.01E2,3.56E2,2.88E2,1.85E2,9E0,4E0,6.28E2,1.16E2,4E0,1.5E1,2.06E2,5E0,4E0,2E0],"tree_param":{"num_deleted":"0","num_feature":"14","num_nodes":"93","size_leaf_vector":"1"}},{"base_weights":[-1.609993E-1,-3.2551582E1,3.5341673E0,-3.3842632E1,-1.9473969E1,-2.5660577E0,1.1217235E1,-2.1032288E1,-3.5634113E1,-2.1497883E1,-1.7235953E0,-8.396975E0,3.2987088E-1,7.6439843E0,1.5584426E1,-1.7599016E1,-1.2224767E0,-1.7893223E0,-5.746361E-1,-2.2469208E1,-4.8109826E-1,-3.4706777E-1,2.6206236E0,-1.363379E1,-6.5836763E0,-1.5126357E0,2.696544E0,6.3649077E0,1.0205776E1,1.3526284E1,1.7898235E1,-1.8632753E1,-4.920869E-1,-1.3326077E0,-9.5303357E-1,-1.2053366E-1,2.55064E-1,-9.027116E0,-1.6160309E1,-3.5771275E0,-7.547912E0,-1.2149282E0,-1.0761269E1,-8.115645E0,3.0772097E0,-3.5278032E0,6.6641636E0,1.0441494E1,-1.4710107E0,-1.2480075E0,1.3815544E1,1.817912E1,4.732612E0,-6.9820493E-1,-1.2289243E0,-5.6827813E-1,-2.8676942E-1,-9.753446E-1,-7.16391E-1,-1.962596E-1,3.6857015E-1,-9.2566663E-1,-3.6697206E-1,-1.2788138E-1,4.049707E-3,-6.410665E-1,-2.7825102E-1,-5.1357573E-1,-1.5708546E-1,1.6792579E-1,-8.991594E-2,-3.7574518E-1,-3.5634067E-2,2.0064218E-1,3.6362812E-1,3.3621612E-1,5.440883E-1,-2.7592877E-1,3.9897E-2,-5.1053375E-1,1.1344969E-1,7.289329E-1,5.04138E-1,8.6670065E-1,1.0055612E0,-7.2760485E-2,5.605738E-1],"categories":[],"categories_nodes":[],"categories_segments":[],"categories_sizes":[],"default_left":[0,0,0,0,0,0,0,0,0,0,0,0,0,0,0,0,0,0,0,0,0,0,0,0,0,0,0,0,0,0,0,0,0,0,0,0,0,0,0,0,0,0,0,0,0,0,0,0,0,0,0,0,0,0,0,0,0,0,0,0,0,0,0,0,0,0,0,0,0,0,0,0,0,0,0,0,0,0,0,0,0,0,0,0,0,0,0],"id":10,"left_children":[1,3,5,7,9,11,13,15,17,19,21,23,25,27,29,31,-1,-1,-1,33,-1,-1,35,37,39,41,43,45,47,49,51,53,-1,-1,-1,-1,-1,55,57,59,61,63,65,67,69,71,73,75,77,79,81,83,85,-1,-1,-1,-1,-1,-1,-1,-1,-1,-1,-1,-1,-1,-1,-1,-1,-1,-1,-1,-1,-1,-1,-1,-1,-1,-1,-1,-1,-1,-1,-1,-1,-1,-1],"loss_changes":[5.9377056E5,7.9179375E3,2.0873394E5,9.83025E3,1.6873555E3,4.1930508E4,3.0638469E4,2.6191797E2,1.0707812E3,2.7982227E2,1.5419324E2,7.7348633E3,7.242693E3,3.4935742E3,3.9771562E3,8.124805E1,0E0,0E0,0E0,4.804297E1,0E0,0E0,6.222119E1,2.309918E3,1.753E3,2.5585896E3,3.0171836E3,2.1757617E3,1.0062383E3,2.0386641E3,1.4449375E3,4.340244E2,0E0,0E0,0E0,0E0,0E0,5.275239E2,5.4840625E2,6.043646E2,9.248125E2,1.576678E3,2.3908203E2,2.3580872E2,9.7021484E2,2.4157611E2,1.1096367E3,5.0453125E2,7.787328E1,3.3838513E2,1.1747344E3,3.126875E2,4.1721558E2,0E0,0E0,0E0,0E0,0E0,0E0,0E0,0E0,0E0,0E0,0E0,0E0,0E0,0E0,0E0,0E0,0E0,0E0,0E0,0E0,0E0,0E0,0E0,0E0,0E0,0E0,0E0,0E0,0E0,0E0,0E0,0E0,0E0,0E0],"parents":[2147483647,0,0,1,1,2,2,3,3,4,4,5,5,6,6,7,7,8,8,9,9,10,10,11,11,12,12,13,13,14,14,15,15,19,19,22,22,23,23,24,24,25,25,26,26,27,27,28,28,29,29,30,30,31,31,37,37,38,38,39,39,40,40,41,41,42,42,43,43,44,44,45,45,46,46,47,47,48,48,49,49,50,50,51,51,52,52],"right_children":[2,4,6,8,10,12,14,16,18,20,22,24,26,28,30,32,-1,-1,-1,34,-1,-1,36,38,40,42,44,46,48,50,52,54,-1,-1,-1,-1,-1,56,58,60,62,64,66,68,70,72,74,76,78,80,82,84,86,-1,-1,-1,-1,-1,-1,-1,-1,-1,-1,-1,-1,-1,-1,-1,-1,-1,-1,-1,-1,-1,-1,-1,-1,-1,-1,-1,-1,-1,-1,-1,-1,-1,-1],"split_conditions":[4E1,3E1,6.8E1,-4.5E1,8.6E1,5.133E1,8.067E1,-5E1,7.533E1,1.33E0,8.4E1,3.8E1,6.133E1,7.6E1,8.933E1,6E0,-1.2224767E0,-1.7893223E0,-5.746361E-1,5.133E1,-4.8109826E-1,-3.4706777E-1,3.5E1,1.29E2,8E1,8.660254E-1,7E1,7E1,8.660254E-1,5E1,8.660254E-1,4E0,-4.920869E-1,-1.3326077E0,-9.5303357E-1,-1.2053366E-1,2.55064E-1,8.55E2,2.933E1,1.333E1,5.5E1,5.667E1,5.867E1,6E1,8.55E2,5E1,-8.660254E-1,-9.659258E-1,5E1,-6E0,-2.5881904E-1,9.667E1,5.5E1,-6.9820493E-1,-1.2289243E0,-5.6827813E-1,-2.8676942E-1,-9.753446E-1,-7.16391E-1,-1.962596E-1,3.6857015E-1,-9.2566663E-1,-3.6697206E-1,-1.2788138E-1,4.049707E-3,-6.410665E-1,-2.7825102E-1,-5.1357573E-1,-1.5708546E-1,1.6792579E-1,-8.991594E-2,-3.7574518E-1,-3.5634067E-2,2.0064218E-1,3.6362812E-1,3.3621612E-1,5.440883E-1,-2.7592877E-1,3.9897E-2,-5.1053375E-1,1.1344969E-1,7.289329E-1,5.04138E-1,8.6670065E-1,1.0055612E0,-7.2760485E-2,5.605738E-1],"split_indices":[4,4,5,4,6,5,5,4,5,9,5,5,5,5,5,2,0,0,0,6,0,0,4,3,3,1,4,4,1,4,1,2,0,0,0,0,0,4,5,9,4,5,5,4,4,4,0,1,4,9,0,5,4,0,0,0,0,0,0,0,0,0,0,0,0,0,0,0,0,0,0,0,0,0,0,0,0,0,0,0,0,0,0,0,0,0,0],"split_type":[0,0,0,0,0,0,0,0,0,0,0,0,0,0,0,0,0,0,0,0,0,0,0,0,0,0,0,0,0,0,0,0,0,0,0,0,0,0,0,0,0,0,0,0,0,0,0,0,0,0,0,0,0,0,0,0,0,0,0,0,0,0,0,0,0,0,0,0,0,0,0,0,0,0,0,0,0,0,0,0,0,0,0,0,0,0,0],"sum_hessian":[4.959E3,5.07E2,4.452E3,4.6E2,4.7E1,2.482E3,1.97E3,5.8E1,4.02E2,4.2E1,5E0,8.23E2,1.659E3,1.085E3,8.85E2,3.2E1,2.6E1,3.99E2,3E0,3.8E1,4E0,2E0,3E0,2.1E2,6.13E2,9.33E2,7.26E2,7.26E2,3.59E2,4.72E2,4.13E2,2.7E1,5E0,1.4E1,2.4E1,1E0,2E0,7.6E1,1.34E2,1.5E2,4.63E2,9.05E2,2.8E1,2.4E1,7.02E2,2.1E1,7.05E2,3.52E2,7E0,9E0,4.63E2,4.04E2,9E0,1.7E1,1E1,4.3E1,3.3E1,4.4E1,9E1,1.46E2,4E0,7E0,4.56E2,4.44E2,4.61E2,1.9E1,9E0,1.6E1,8E0,6.64E2,3.8E1,8E0,1.3E1,1.33E2,5.72E2,3.9E1,3.13E2,2E0,5E0,2E0,7E0,3.82E2,8.1E1,2.88E2,1.16E2,5E0,4E0],"tree_param":{"num_deleted":"0","num_feature":"14","num_nodes":"87","size_leaf_vector":"1"}},{"base_weights":[-9.043916E-3,-3.037031E1,3.3312404E0,-3.1938114E1,-1.8769304E1,-3.8337374E0,8.974262E0,-2.0685186E1,-3.349095E1,-2.0245556E1,-1.8627491E0,-8.373421E0,-1.2142763E0,5.661906E0,1.425304E1,-1.665267E1,-1.1745265E0,-1.7193711E0,-2.7475323E1,-1.2620882E0,-1.7214674E1,-3.5448983E-1,2.5232239E0,-4.002866E0,-9.863513E0,-8.522086E-1,-1.3410391E1,4.8676953E0,1.0048214E1,1.5220775E1,9.368201E0,-6.425491E-1,-1.9465822E1,-2.846752E1,-6.029145E-1,-9.2344826E-1,-9.021526E0,-1.1752033E-1,2.4656181E-1,-6.8030586E0,-3.2356817E-1,-1.3266815E1,-7.151067E0,-3.1814098E0,8.6351186E-1,-1.692631E1,-8.954123E0,-4.7065773E0,5.1898065E0,8.169492E0,1.2459891E1,1.4353579E1,1.8142498E1,-3.115979E0,1.0570191E1,-1.1439873E0,-4.7137985E-1,-3.5263044E-1,-1.4380314E0,-4.8637024E-1,-1.1965638E-1,4.0104008E-1,-3.584386E-1,-3.172182E-1,2.5857374E-2,-7.760739E-1,-5.0113577E-1,-1.4577027E-1,-3.745506E-1,-1.9680645E-1,-4.892254E-2,-4.2221207E-2,1.0982289E-1,-8.725088E-1,-1.874175E-1,-4.7148767E-1,-2.1709919E-2,-4.2218956E-1,-1.3056199E-1,2.0031019E-1,3.9909473E-1,2.977816E-1,5.2662176E-1,4.6537668E-2,6.462862E-1,6.596582E-1,8.041512E-1,3.5177478E-1,9.145501E-1,1.6936402E-1,-3.3531684E-1,4.4905144E-1,7.318203E-1],"categories":[],"categories_nodes":[],"categories_segments":[],"categories_sizes":[],"default_left":[0,0,0,0,0,0,0,0,0,0,0,0,0,0,0,0,0,0,0,0,0,0,0,0,0,0,0,0,0,0,0,0,0,0,0,0,0,0,0,0,0,0,0,0,0,0,0,0,0,0,0,0,0,0,0,0,0,0,0,0,0,0,0,0,0,0,0,0,0,0,0,0,0,0,0,0,0,0,0,0,0,0,0,0,0,0,0,0,0,0,0,0,0],"id":11,"left_children":[1,3,5,7,9,11,13,15,17,19,21,23,25,27,29,31,-1,-1,33,-1,35,-1,37,39,41,43,45,47,49,51,53,-1,55,57,-1,-1,59,-1,-1,61,63,65,67,69,71,73,75,77,79,81,83,85,87,89,91,-1,-1,-1,-1,-1,-1,-1,-1,-1,-1,-1,-1,-1,-1,-1,-1,-1,-1,-1,-1,-1,-1,-1,-1,-1,-1,-1,-1,-1,-1,-1,-1,-1,-1,-1,-1,-1,-1],"loss_changes":[5.0342516E5,8.349094E3,1.8084688E5,6.8559688E3,1.4847441E3,2.3428025E4,4.3667266E4,2.3101172E2,1.0936875E3,4.1347266E2,1.5544328E2,4.656051E3,5.5127627E3,5.312426E3,4.4144688E3,2.7907715E1,0E0,0E0,4.827539E2,0E0,2.2389355E2,0E0,5.8533455E1,1.9038064E3,4.862328E3,4.8621973E3,4.1248242E2,4.0490156E3,9.6296484E2,1.7741562E3,2.4638857E3,0E0,2.2980566E2,1.1100781E2,0E0,0E0,9.472961E0,0E0,0E0,6.267344E2,4.1328497E2,1.5779336E3,4.1156934E2,8.540586E2,1.5977417E3,6.5756836E1,6.884778E1,3.1467242E2,4.1418906E3,6.434883E2,5.304043E2,1.0400938E3,1.6821484E2,3.729516E2,8.249082E2,0E0,0E0,0E0,0E0,0E0,0E0,0E0,0E0,0E0,0E0,0E0,0E0,0E0,0E0,0E0,0E0,0E0,0E0,0E0,0E0,0E0,0E0,0E0,0E0,0E0,0E0,0E0,0E0,0E0,0E0,0E0,0E0,0E0,0E0,0E0,0E0,0E0,0E0],"parents":[2147483647,0,0,1,1,2,2,3,3,4,4,5,5,6,6,7,7,8,8,9,9,10,10,11,11,12,12,13,13,14,14,15,15,18,18,20,20,22,22,23,23,24,24,25,25,26,26,27,27,28,28,29,29,30,30,32,32,33,33,36,36,39,39,40,40,41,41,42,42,43,43,44,44,45,45,46,46,47,47,48,48,49,49,50,50,51,51,52,52,53,53,54,54],"right_children":[2,4,6,8,10,12,14,16,18,20,22,24,26,28,30,32,-1,-1,34,-1,36,-1,38,40,42,44,46,48,50,52,54,-1,56,58,-1,-1,60,-1,-1,62,64,66,68,70,72,74,76,78,80,82,84,86,88,90,92,-1,-1,-1,-1,-1,-1,-1,-1,-1,-1,-1,-1,-1,-1,-1,-1,-1,-1,-1,-1,-1,-1,-1,-1,-1,-1,-1,-1,-1,-1,-1,-1,-1,-1,-1,-1,-1,-1],"split_conditions":[4E1,3E1,6.2666668E1,-4.5E1,8.889E1,4.889E1,7.9333336E1,-5E1,2E1,5.133E1,-6.7E-1,4E0,8.660254E-1,4.66E0,-5E-1,4E0,-1.1745265E0,-1.7193711E0,8.6113335E1,-1.2620882E0,6.6E-1,-3.5448983E-1,3.5E1,3.33E0,3.9886665E1,5.5556667E1,5E1,7E1,7.0666664E1,9.378E1,5.5E1,-6.425491E-1,6E0,3.0314908E0,-6.029145E-1,-9.2344826E-1,8.6E1,-1.1752033E-1,2.4656181E-1,1.55E2,2.0443333E1,4.0371065E0,1.35E2,2.67E0,0E0,0E0,6E1,5E1,7.3333336E1,1.33E0,7E1,1.33E0,7E1,3.841066E0,6.000939E0,-1.1439873E0,-4.7137985E-1,-3.5263044E-1,-1.4380314E0,-4.8637024E-1,-1.1965638E-1,4.0104008E-1,-3.584386E-1,-3.172182E-1,2.5857374E-2,-7.760739E-1,-5.0113577E-1,-1.4577027E-1,-3.745506E-1,-1.9680645E-1,-4.892254E-2,-4.2221207E-2,1.0982289E-1,-8.725088E-1,-1.874175E-1,-4.7148767E-1,-2.1709919E-2,-4.2218956E-1,-1.3056199E-1,2.0031019E-1,3.9909473E-1,2.977816E-1,5.2662176E-1,4.6537668E-2,6.462862E-1,6.596582E-1,8.041512E-1,3.5177478E-1,9.145501E-1,1.6936402E-1,-3.3531684E-1,4.4905144E-1,7.318203E-1],"split_indices":[4,4,10,4,10,10,10,4,4,6,8,2,1,8,0,2,0,0,11,0,9,0,4,8,11,10,4,4,10,10,4,0,2,13,0,0,6,0,0,4,10,13,4,8,8,8,4,4,10,9,4,8,4,13,13,0,0,0,0,0,0,0,0,0,0,0,0,0,0,0,0,0,0,0,0,0,0,0,0,0,0,0,0,0,0,0,0,0,0,0,0,0,0],"split_type":[0,0,0,0,0,0,0,0,0,0,0,0,0,0,0,0,0,0,0,0,0,0,0,0,0,0,0,0,0,0,0,0,0,0,0,0,0,0,0,0,0,0,0,0,0,0,0,0,0,0,0,0,0,0,0,0,0,0,0,0,0,0,0,0,0,0,0,0,0,0,0,0,0,0,0,0,0,0,0,0,0,0,0,0,0,0,0,0,0,0,0,0,0],"sum_hessian":[4.962E3,4.91E2,4.471E3,4.31E2,6E1,1.97E3,2.501E3,5.4E1,3.77E2,5.5E1,5E0,7.2E2,1.25E3,1.538E3,9.63E2,2.5E1,2.9E1,3.24E2,5.3E1,1.8E1,3.7E1,2E0,3E0,1.84E2,5.36E2,1.215E3,3.5E1,1.304E3,2.34E2,8.02E2,1.61E2,1.3E1,1.2E1,4.9E1,4E0,3.1E1,6E0,1E0,2E0,1.04E2,8E1,2.36E2,3E2,5.15E2,7E2,1.8E1,1.7E1,4.2E1,1.262E3,1.34E2,1E2,6.23E2,1.79E2,1.4E1,1.47E2,8E0,4E0,1E0,4.8E1,5E0,1E0,2E0,1.02E2,9E0,7.1E1,1.37E2,9.9E1,2.3E1,2.77E2,3.83E2,1.32E2,3.07E2,3.93E2,1.7E1,1E0,1.6E1,1E0,1.4E1,2.8E1,8.88E2,3.74E2,7.1E1,6.3E1,4E0,9.6E1,3.78E2,2.45E2,3E0,1.76E2,5E0,9E0,1.08E2,3.9E1],"tree_param":{"num_deleted":"0","num_feature":"14","num_nodes":"93","size_leaf_vector":"1"}},{"base_weights":[-2.0173589E-2,-2.8254921E1,3.1630678E0,-3.0225662E1,-1.508755E1,-2.7255116E0,9.495839E0,-1.9262867E1,-3.1581757E1,-1.7807814E1,-3.3231177E0,-8.772597E0,-5.098384E-1,6.522544E0,1.4258852E1,-1.5602123E1,-2.2182732E1,-3.2404076E1,-1.259889E0,-2.1903814E1,-6.53791E-1,-5.8403087E0,4.4299374E0,-1.2811169E1,-6.952235E0,-2.737866E0,1.3196831E0,4.506885E0,8.204841E0,1.1662066E1,1.5379824E1,-5.987658E-1,-9.1538775E-1,-1.2757051E0,-1.3055246E1,-1.622311E0,-4.5082346E-1,-4.115536E-1,-2.2638985E1,-6.826047E0,1.0042687E-1,-1.1458235E-1,3.717174E-1,-7.8615313E0,-1.5205861E1,-7.384829E0,-1.4848907E0,-7.436257E-1,-3.7238615E0,-5.8236527E0,1.5458776E0,2.0029104E0,5.109676E0,4.69807E-1,8.445551E0,1.6143967E1,1.11047125E1,1.4417034E1,1.7428562E1,-3.200232E-1,-7.657947E-1,-1.2035912E0,-5.9033436E-1,-1.1942654E-1,-3.81843E-1,-3.1051168E-1,-5.63322E-1,-3.2502863E-1,-7.826031E-1,-4.307797E-1,-3.1665418E-1,1.9401298E-1,-1.1793567E-1,1.0367932E-1,-1.3903205E-1,-1.6013986E-1,-3.4174627E-1,-3.1467715E-1,1.7328708E-2,1.1190098E-1,-3.8658925E-3,-5.650806E-2,2.577409E-1,3.235664E-1,2.0430093E-1,6.509131E-1,-6.7260064E-2,4.7284672E-1,3.4609544E-1,2.6523983E-1,8.4130985E-1,6.2926704E-1,4.7438556E-1,8.0787927E-1,6.275145E-1,4.555443E-1,8.8812304E-1],"categories":[],"categories_nodes":[],"categories_segments":[],"categories_sizes":[],"default_left":[0,0,0,0,0,0,0,0,0,0,0,0,0,0,0,0,0,0,0,0,0,0,0,0,0,0,0,0,0,0,0,0,0,0,0,0,0,0,0,0,0,0,0,0,0,0,0,0,0,0,0,0,0,0,0,0,0,0,0,0,0,0,0,0,0,0,0,0,0,0,0,0,0,0,0,0,0,0,0,0,0,0,0,0,0,0,0,0,0,0,0,0,0,0,0,0,0],"id":12,"left_children":[1,3,5,7,9,11,13,15,17,19,21,23,25,27,29,31,33,35,-1,37,-1,39,41,43,45,47,49,51,53,55,57,-1,-1,-1,59,-1,-1,-1,61,63,-1,-1,-1,65,67,69,71,73,75,77,79,81,83,85,87,89,91,93,95,-1,-1,-1,-1,-1,-1,-1,-1,-1,-1,-1,-1,-1,-1,-1,-1,-1,-1,-1,-1,-1,-1,-1,-1,-1,-1,-1,-1,-1,-1,-1,-1,-1,-1,-1,-1,-1,-1],"loss_changes":[4.497491E5,1.2700375E4,1.6772362E5,5.9329375E3,2.1169824E3,3.122712E4,3.0595719E4,1.990332E2,1.2308438E3,7.7961523E2,2.990951E2,4.5057227E3,6.961728E3,4.4933086E3,2.2425312E3,3.58916E1,4.574912E2,4.453125E1,0E0,9.510742E1,0E0,9.881641E1,9.781449E1,2.1680605E3,1.0131426E3,1.5112905E3,1.5246078E3,9.104824E2,1.3496406E3,4.5771875E2,8.888281E2,0E0,0E0,0E0,3.7368286E1,0E0,0E0,0E0,1.1933496E2,1.7739044E1,0E0,0E0,0E0,2.9549658E2,3.9933008E2,4.6451172E2,1.638627E2,1.4748743E3,8.1295703E2,8.626166E1,1.022541E3,1.190844E3,6.579463E2,5.413498E2,1.0209336E3,1.0300586E2,4.312539E2,1.0936406E3,3.3808203E2,0E0,0E0,0E0,0E0,0E0,0E0,0E0,0E0,0E0,0E0,0E0,0E0,0E0,0E0,0E0,0E0,0E0,0E0,0E0,0E0,0E0,0E0,0E0,0E0,0E0,0E0,0E0,0E0,0E0,0E0,0E0,0E0,0E0,0E0,0E0,0E0,0E0,0E0],"parents":[2147483647,0,0,1,1,2,2,3,3,4,4,5,5,6,6,7,7,8,8,9,9,10,10,11,11,12,12,13,13,14,14,15,15,16,16,17,17,19,19,21,21,22,22,23,23,24,24,25,25,26,26,27,27,28,28,29,29,30,30,34,34,38,38,39,39,43,43,44,44,45,45,46,46,47,47,48,48,49,49,50,50,51,51,52,52,53,53,54,54,55,55,56,56,57,57,58,58],"right_children":[2,4,6,8,10,12,14,16,18,20,22,24,26,28,30,32,34,36,-1,38,-1,40,42,44,46,48,50,52,54,56,58,-1,-1,-1,60,-1,-1,-1,62,64,-1,-1,-1,66,68,70,72,74,76,78,80,82,84,86,88,90,92,94,96,-1,-1,-1,-1,-1,-1,-1,-1,-1,-1,-1,-1,-1,-1,-1,-1,-1,-1,-1,-1,-1,-1,-1,-1,-1,-1,-1,-1,-1,-1,-1,-1,-1,-1,-1,-1,-1,-1],"split_conditions":[4.5E1,5.2E1,6.6E1,-4.5E1,8.267E1,4.8E1,8.133E1,4E0,2.5E1,3.5E1,9.6E1,3.733E1,5.733E1,7.2E1,8.6E1,-5.3E1,6E0,4.867E1,-1.259889E0,5.7998333E1,-6.53791E-1,6.66E0,3.5E1,1.29E2,9.3E2,8E1,7.5E1,-8.660254E-1,7E1,7.4555E1,9.467E1,-5.987658E-1,-9.1538775E-1,-1.2757051E0,-5.3E1,-1.622311E0,-4.5082346E-1,-4.115536E-1,7.933E1,8.444334E1,1.0042687E-1,-1.1458235E-1,3.717174E-1,3.322167E1,2.3E2,4.4E1,3.133E1,7.9E2,8.660254E-1,3.33E0,1.13E2,2.55E2,-2.5881904E-1,-7.0710677E-1,-2.5881904E-1,-2.67E0,6.7E1,8.8665E1,6.5E1,-3.200232E-1,-7.657947E-1,-1.2035912E0,-5.9033436E-1,-1.1942654E-1,-3.81843E-1,-3.1051168E-1,-5.63322E-1,-3.2502863E-1,-7.826031E-1,-4.307797E-1,-3.1665418E-1,1.9401298E-1,-1.1793567E-1,1.0367932E-1,-1.3903205E-1,-1.6013986E-1,-3.4174627E-1,-3.1467715E-1,1.7328708E-2,1.1190098E-1,-3.8658925E-3,-5.650806E-2,2.577409E-1,3.235664E-1,2.0430093E-1,6.509131E-1,-6.7260064E-2,4.7284672E-1,3.4609544E-1,2.6523983E-1,8.4130985E-1,6.2926704E-1,4.7438556E-1,8.0787927E-1,6.275145E-1,4.555443E-1,8.8812304E-1],"split_indices":[4,5,5,4,5,5,5,2,4,4,5,5,5,5,5,4,2,5,0,11,0,8,4,3,4,3,4,0,4,11,5,0,0,0,4,0,0,0,5,11,0,0,0,11,4,5,6,4,0,9,3,4,0,0,0,9,3,11,4,0,0,0,0,0,0,0,0,0,0,0,0,0,0,0,0,0,0,0,0,0,0,0,0,0,0,0,0,0,0,0,0,0,0,0,0,0,0],"split_type":[0,0,0,0,0,0,0,0,0,0,0,0,0,0,0,0,0,0,0,0,0,0,0,0,0,0,0,0,0,0,0,0,0,0,0,0,0,0,0,0,0,0,0,0,0,0,0,0,0,0,0,0,0,0,0,0,0,0,0,0,0,0,0,0,0,0,0,0,0,0,0,0,0,0,0,0,0,0,0,0,0,0,0,0,0,0,0,0,0,0,0,0,0,0,0,0,0],"sum_hessian":[5.002E3,5.06E2,4.496E3,4.39E2,6.7E1,2.33E3,2.166E3,5E1,3.89E2,5.4E1,1.3E1,6.24E2,1.706E3,1.335E3,8.31E2,2.5E1,2.5E1,3.41E2,4.8E1,2.7E1,2.7E1,1E1,3E0,1.92E2,4.32E2,7.69E2,9.37E2,6.09E2,7.26E2,2.54E2,5.77E2,1.3E1,1.2E1,1.7E1,8E0,3.4E2,1E0,2E0,2.5E1,9E0,1E0,1E0,2E0,6.4E1,1.28E2,4E2,3.2E1,2.55E2,5.14E2,2.8E1,9.09E2,1.19E2,4.9E2,2.2E1,7.04E2,2.5E1,2.29E2,3.98E2,1.79E2,3E0,5E0,2.1E1,4E0,2E0,7E0,4.5E1,1.9E1,7E0,1.21E2,1.81E2,2.19E2,4E0,2.8E1,1.07E2,1.48E2,4.42E2,7.2E1,2.6E1,2E0,6.37E2,2.72E2,6E1,5.9E1,2.08E2,2.82E2,2E0,2E1,4.2E2,2.84E2,2E0,2.3E1,1.16E2,1.13E2,2.02E2,1.96E2,8E0,1.71E2],"tree_param":{"num_deleted":"0","num_feature":"14","num_nodes":"97","size_leaf_vector":"1"}},{"base_weights":[-9.414362E-3,-2.6904222E1,3.098672E0,-2.888434E1,-1.5840327E1,-1.0339298E0,1.0848623E1,-1.8427027E1,-3.027245E1,-1.773558E1,-2.1672997E0,-5.429668E0,2.1765552E0,8.215553E0,1.3822985E1,-1.4837257E1,-1.0505012E0,-1.5273968E0,-1.6859423E1,-1.1586293E0,-1.5303356E1,4.2980547E0,-6.4757957E0,-9.673678E0,-3.6143296E0,-5.808601E0,2.453098E0,6.72606E0,9.714027E0,1.4234974E1,2.5382807E0,-5.639504E-1,-1.7527891E1,-8.890139E-1,-2.1429329E-1,-1.8618515E1,-1.3161178E1,-1.117178E-1,3.244873E-1,-7.525234E-1,-5.2900594E-1,-4.290699E0,-1.1993845E1,-2.6248572E0,-4.8259807E0,-8.377707E0,-2.848538E0,3.084594E0,-1.5677587E0,-1.6937456E0,7.06371E0,1.3285864E1,9.091281E0,1.4681709E1,8.20961E0,7.784962E0,-1.0059415E0,-1.0438344E0,-3.9972386E-1,-3.541302E-1,-9.808921E-1,-6.806367E-1,-1.9035016E-1,9.791622E-2,-1.1544571E-1,-1.0589736E-1,-3.9566287E-1,-7.60574E-1,-5.2833194E-1,3.177201E-2,-1.7697176E-1,-1.5490133E-1,-3.2913992E-1,-4.5900282E-1,-1.2649712E-1,-3.0387688E-2,-2.029827E-1,2.1160758E-1,1.6730348E-2,-1.3391979E-2,-1.5535969E-1,4.3671664E-2,-2.3455004E-1,4.680829E-1,2.944287E-1,9.306248E-2,7.27205E-1,4.8975155E-1,2.9359818E-1,6.9066983E-1,8.5608643E-1,6.9173366E-2,4.460753E-1,3.318267E-2,5.1862484E-1,-1.7107289E-1,7.606729E-2],"categories":[],"categories_nodes":[],"categories_segments":[],"categories_sizes":[],"default_left":[0,0,0,0,0,0,0,0,0,0,0,0,0,0,0,0,0,0,0,0,0,0,0,0,0,0,0,0,0,0,0,0,0,0,0,0,0,0,0,0,0,0,0,0,0,0,0,0,0,0,0,0,0,0,0,0,0,0,0,0,0,0,0,0,0,0,0,0,0,0,0,0,0,0,0,0,0,0,0,0,0,0,0,0,0,0,0,0,0,0,0,0,0,0,0,0,0],"id":13,"left_children":[1,3,5,7,9,11,13,15,17,19,21,23,25,27,29,31,-1,-1,33,-1,35,37,39,41,43,45,47,49,51,53,55,-1,57,-1,-1,59,61,-1,-1,63,-1,65,67,69,71,73,75,77,79,81,83,85,87,89,91,93,95,-1,-1,-1,-1,-1,-1,-1,-1,-1,-1,-1,-1,-1,-1,-1,-1,-1,-1,-1,-1,-1,-1,-1,-1,-1,-1,-1,-1,-1,-1,-1,-1,-1,-1,-1,-1,-1,-1,-1,-1],"loss_changes":[4.1879262E5,1.0912594E4,1.4384655E5,5.8146875E3,2.060584E3,4.13613E4,1.2119578E4,1.8897656E2,9.1128125E2,5.842871E2,3.342488E2,9.495273E3,3.7550054E3,1.7894258E3,3.3670469E3,5.1225098E1,0E0,0E0,3.9580322E1,0E0,1.2424512E2,8.6085556E1,1.5646933E2,4.569617E3,1.0279736E3,4.096045E2,4.1639697E3,1.206002E3,7.9564453E2,1.7798438E3,5.0990723E2,0E0,2.4813306E2,0E0,0E0,6.856055E1,9.601465E1,0E0,0E0,2.1398159E1,0E0,8.7265405E2,1.0240625E3,1.433511E3,1.1604932E3,1.1753369E2,7.352052E1,4.4671533E3,4.4542218E2,1.3490363E2,1.0358359E3,8.210449E2,7.4450586E2,1.1533594E3,2.3549219E2,1.9580914E2,1.0898516E2,0E0,0E0,0E0,0E0,0E0,0E0,0E0,0E0,0E0,0E0,0E0,0E0,0E0,0E0,0E0,0E0,0E0,0E0,0E0,0E0,0E0,0E0,0E0,0E0,0E0,0E0,0E0,0E0,0E0,0E0,0E0,0E0,0E0,0E0,0E0,0E0,0E0,0E0,0E0,0E0],"parents":[2147483647,0,0,1,1,2,2,3,3,4,4,5,5,6,6,7,7,8,8,9,9,10,10,11,11,12,12,13,13,14,14,15,15,18,18,20,20,21,21,22,22,23,23,24,24,25,25,26,26,27,27,28,28,29,29,30,30,32,32,35,35,36,36,39,39,41,41,42,42,43,43,44,44,45,45,46,46,47,47,48,48,49,49,50,50,51,51,52,52,53,53,54,54,55,55,56,56],"right_children":[2,4,6,8,10,12,14,16,18,20,22,24,26,28,30,32,-1,-1,34,-1,36,38,40,42,44,46,48,50,52,54,56,-1,58,-1,-1,60,62,-1,-1,64,-1,66,68,70,72,74,76,78,80,82,84,86,88,90,92,94,96,-1,-1,-1,-1,-1,-1,-1,-1,-1,-1,-1,-1,-1,-1,-1,-1,-1,-1,-1,-1,-1,-1,-1,-1,-1,-1,-1,-1,-1,-1,-1,-1,-1,-1,-1,-1,-1,-1,-1,-1],"split_conditions":[4.5E1,3E1,7.155666E1,-4.5E1,8.6E1,5.5556667E1,8.2666664E1,-5E1,7.133667E1,5.2E1,2.142343E0,4.289E1,7.5E1,7.644334E1,8.660254E-1,4E0,-1.0505012E0,-1.5273968E0,9.467E1,-1.1586293E0,3.5E1,3.5E1,8.933E1,1.06E2,1.18E2,6E1,7.0710677E-1,7.5E1,7.533E1,-2.5881904E-1,3.077277E0,-5.639504E-1,6E0,-8.890139E-1,-2.1429329E-1,5.8E1,8E1,-1.117178E-1,3.244873E-1,8.733E1,-5.2900594E-1,3.4443333E1,4.65E2,-7.0710677E-1,4.9E2,7.111E1,6.067E1,1.14E2,8.55E2,7.422E1,7.267E1,1.5E1,2.5881904E-1,9.4223335E1,5.55E2,8.689E1,5.5E1,-1.0438344E0,-3.9972386E-1,-3.541302E-1,-9.808921E-1,-6.806367E-1,-1.9035016E-1,9.791622E-2,-1.1544571E-1,-1.0589736E-1,-3.9566287E-1,-7.60574E-1,-5.2833194E-1,3.177201E-2,-1.7697176E-1,-1.5490133E-1,-3.2913992E-1,-4.5900282E-1,-1.2649712E-1,-3.0387688E-2,-2.029827E-1,2.1160758E-1,1.6730348E-2,-1.3391979E-2,-1.5535969E-1,4.3671664E-2,-2.3455004E-1,4.680829E-1,2.944287E-1,9.306248E-2,7.27205E-1,4.8975155E-1,2.9359818E-1,6.9066983E-1,8.5608643E-1,6.9173366E-2,4.460753E-1,3.318267E-2,5.1862484E-1,-1.7107289E-1,7.606729E-2],"split_indices":[4,4,10,4,6,10,10,4,10,6,12,10,4,10,1,2,0,0,6,0,4,4,6,3,3,4,0,4,7,0,12,0,2,0,0,7,6,0,0,6,0,11,4,1,4,11,7,3,4,10,7,3,1,10,4,10,4,0,0,0,0,0,0,0,0,0,0,0,0,0,0,0,0,0,0,0,0,0,0,0,0,0,0,0,0,0,0,0,0,0,0,0,0,0,0,0,0],"split_type":[0,0,0,0,0,0,0,0,0,0,0,0,0,0,0,0,0,0,0,0,0,0,0,0,0,0,0,0,0,0,0,0,0,0,0,0,0,0,0,0,0,0,0,0,0,0,0,0,0,0,0,0,0,0,0,0,0,0,0,0,0,0,0,0,0,0,0,0,0,0,0,0,0,0,0,0,0,0,0,0,0,0,0,0,0,0,0,0,0,0,0,0,0,0,0,0,0],"sum_hessian":[5.008E3,5.18E2,4.49E3,4.38E2,8E1,2.929E3,1.561E3,5.3E1,3.85E2,7E1,1E1,1.236E3,1.693E3,8.3E2,7.31E2,2.5E1,2.8E1,3.76E2,9E0,1.9E1,5.1E1,4E0,6E0,3.69E2,8.67E2,5.6E1,1.637E3,4.19E2,4.11E2,7.05E2,2.6E1,1.3E1,1.2E1,8E0,1E0,1.7E1,3.4E1,1E0,3E0,3E0,3E0,1.12E2,2.57E2,4.79E2,3.88E2,2.9E1,2.7E1,1.415E3,2.22E2,1.6E1,4.03E2,5.8E1,3.53E2,6.55E2,5E1,1E1,1.6E1,8E0,4E0,2E0,1.5E1,3.2E1,2E0,1E0,2E0,7.1E1,4.1E1,7.6E1,1.81E2,1.05E2,3.74E2,1.97E2,1.91E2,2.5E1,4E0,1E1,1.7E1,9.98E2,4.17E2,1.21E2,1.01E2,9E0,7E0,1.34E2,2.69E2,6E0,5.2E1,2.88E2,6.5E1,4.88E2,1.67E2,5E0,4.5E1,3E0,7E0,8E0,8E0],"tree_param":{"num_deleted":"0","num_feature":"14","num_nodes":"97","size_leaf_vector":"1"}},{"base_weights":[3.297873E-2,-2.6364576E1,2.9556825E0,-2.7520384E1,-1.56039915E1,-2.5387003E0,8.704111E0,-1.7106506E1,-2.883142E1,-1.6767763E1,2.2622623E0,-8.154972E0,-5.6039786E-1,5.9171257E0,1.3050123E1,-1.4425222E1,-9.668051E-1,-1.47868E0,-2.3638237E1,-1.1219252E0,-1.4020387E1,-1.08924866E-1,2.2343408E-1,-1.21457405E1,-6.2941227E0,-2.6928315E0,1.1659135E0,4.469999E0,7.583309E0,1.0447871E1,1.4132905E1,-1.5359646E1,-4.2195302E-1,-1.2060345E0,-3.6177322E-1,-7.662075E-1,-8.551277E0,-1.3290917E1,-4.6975946E0,-3.0824866E0,-7.1641326E0,-1.2553176E1,-2.4663439E0,-4.451696E0,1.4833019E0,-6.3507876E0,4.691687E0,-8.329339E-1,7.833433E0,-1.7751856E0,1.0598633E1,1.4666E1,9.532849E0,-5.7024115E-1,-1.0122195E0,-4.5331106E-1,-1.1079321E-1,-7.994187E-1,-5.798622E-1,-2.7670592E-1,-4.237045E-2,4.0412632E-1,-1.714042E-1,-7.7198136E-1,-3.4932896E-1,8.275032E-4,-6.6699094E-1,-1.4094141E-1,7.509645E-2,-9.0653025E-2,-3.365E-1,9.456344E-2,-7.454365E-2,-3.6384007E-1,-1.5217003E-1,1.2385656E-1,2.6219457E-1,4.5351163E-1,-9.4350584E-2,2.851318E-1,4.2141372E-1,1.1809273E-1,-1.9707419E-1,6.9661605E-1,4.928371E-1,6.918362E-1,8.2020694E-1,-2.4863136E-1,5.2744454E-1],"categories":[],"categories_nodes":[],"categories_segments":[],"categories_sizes":[],"default_left":[0,0,0,0,0,0,0,0,0,0,0,0,0,0,0,0,0,0,0,0,0,0,0,0,0,0,0,0,0,0,0,0,0,0,0,0,0,0,0,0,0,0,0,0,0,0,0,0,0,0,0,0,0,0,0,0,0,0,0,0,0,0,0,0,0,0,0,0,0,0,0,0,0,0,0,0,0,0,0,0,0,0,0,0,0,0,0,0,0],"id":14,"left_children":[1,3,5,7,9,11,13,15,17,19,21,23,25,27,29,31,-1,-1,33,-1,35,-1,-1,37,39,41,43,45,47,49,51,53,-1,-1,-1,-1,55,57,59,61,63,65,67,69,71,73,75,77,79,81,83,85,87,-1,-1,-1,-1,-1,-1,-1,-1,-1,-1,-1,-1,-1,-1,-1,-1,-1,-1,-1,-1,-1,-1,-1,-1,-1,-1,-1,-1,-1,-1,-1,-1,-1,-1,-1,-1],"loss_changes":[3.8853947E5,5.8140312E3,1.4322427E5,5.6779375E3,1.0983379E3,2.576111E4,2.6763578E4,3.7916016E1,8.4265625E2,4.3322656E2,4.892772E1,4.4089883E3,6.320156E3,3.2260117E3,2.2896094E3,2.7000488E1,0E0,0E0,2.6072266E2,0E0,1.18524414E2,0E0,0E0,1.5666895E3,1.1346953E3,1.6841714E3,1.6986361E3,1.7713516E3,1.3264258E3,4.9425E2,1.3511797E3,2.1343701E2,0E0,0E0,0E0,0E0,9.271912E0,5.6839844E2,8.227112E1,3.7498126E2,3.6966602E2,1.683147E2,1.0560962E3,2.9439032E2,1.0936346E3,2.3794128E1,8.5770605E2,2.1545108E2,7.2383594E2,4.515746E1,4.9334766E2,5.557031E2,1.0251743E3,0E0,0E0,0E0,0E0,0E0,0E0,0E0,0E0,0E0,0E0,0E0,0E0,0E0,0E0,0E0,0E0,0E0,0E0,0E0,0E0,0E0,0E0,0E0,0E0,0E0,0E0,0E0,0E0,0E0,0E0,0E0,0E0,0E0,0E0,0E0,0E0],"parents":[2147483647,0,0,1,1,2,2,3,3,4,4,5,5,6,6,7,7,8,8,9,9,10,10,11,11,12,12,13,13,14,14,15,15,18,18,20,20,23,23,24,24,25,25,26,26,27,27,28,28,29,29,30,30,31,31,36,36,37,37,38,38,39,39,40,40,41,41,42,42,43,43,44,44,45,45,46,46,47,47,48,48,49,49,50,50,51,51,52,52],"right_children":[2,4,6,8,10,12,14,16,18,20,22,24,26,28,30,32,-1,-1,34,-1,36,-1,-1,38,40,42,44,46,48,50,52,54,-1,-1,-1,-1,56,58,60,62,64,66,68,70,72,74,76,78,80,82,84,86,88,-1,-1,-1,-1,-1,-1,-1,-1,-1,-1,-1,-1,-1,-1,-1,-1,-1,-1,-1,-1,-1,-1,-1,-1,-1,-1,-1,-1,-1,-1,-1,-1,-1,-1,-1,-1],"split_conditions":[4E1,3E1,6.6E1,-4.5E1,9.333E1,4.8E1,8.133E1,-5E1,2E1,5.133E1,3.5E1,3.733E1,5.733E1,7.333E1,8.6E1,1.52E2,-9.668051E-1,-1.47868E0,8.6113335E1,-1.1219252E0,-6.6E-1,-1.08924866E-1,2.2343408E-1,9.659258E-1,8E1,5E1,8.5E1,6E1,7E1,5E1,-5E-1,1.03E2,-4.2195302E-1,-1.2060345E0,-3.6177322E-1,-7.662075E-1,8.733E1,3E1,2.133E1,1.55E2,6E1,-8.660254E-1,4.999853E0,-5E-1,8.2E2,5E1,-8.660254E-1,-8.660254E-1,-8.660254E-1,-8.660254E-1,1.6E2,9.467E1,5E1,-5.7024115E-1,-1.0122195E0,-4.5331106E-1,-1.1079321E-1,-7.994187E-1,-5.798622E-1,-2.7670592E-1,-4.237045E-2,4.0412632E-1,-1.714042E-1,-7.7198136E-1,-3.4932896E-1,8.275032E-4,-6.6699094E-1,-1.4094141E-1,7.509645E-2,-9.0653025E-2,-3.365E-1,9.456344E-2,-7.454365E-2,-3.6384007E-1,-1.5217003E-1,1.2385656E-1,2.6219457E-1,4.5351163E-1,-9.4350584E-2,2.851318E-1,4.2141372E-1,1.1809273E-1,-1.9707419E-1,6.9661605E-1,4.928371E-1,6.918362E-1,8.2020694E-1,-2.4863136E-1,5.2744454E-1],"split_indices":[4,4,5,4,5,5,5,4,4,6,4,5,5,5,5,3,0,0,11,0,9,0,0,0,3,4,4,4,4,4,0,3,0,0,0,0,7,5,9,4,4,0,12,0,4,4,0,0,0,0,4,5,4,0,0,0,0,0,0,0,0,0,0,0,0,0,0,0,0,0,0,0,0,0,0,0,0,0,0,0,0,0,0,0,0,0,0,0,0],"split_type":[0,0,0,0,0,0,0,0,0,0,0,0,0,0,0,0,0,0,0,0,0,0,0,0,0,0,0,0,0,0,0,0,0,0,0,0,0,0,0,0,0,0,0,0,0,0,0,0,0,0,0,0,0,0,0,0,0,0,0,0,0,0,0,0,0,0,0,0,0,0,0,0,0,0,0,0,0,0,0,0,0,0,0,0,0,0,0,0,0],"sum_hessian":[5.034E3,5.01E2,4.533E3,4.51E2,5E1,2.318E3,2.215E3,5.2E1,3.99E2,4.7E1,3E0,6.03E2,1.715E3,1.351E3,8.64E2,2.7E1,2.5E1,3.45E2,5.4E1,1.3E1,3.4E1,1E0,2E0,1.9E2,4.13E2,7.67E2,9.48E2,7.25E2,6.26E2,2.57E2,6.07E2,2.2E1,5E0,5.2E1,2E0,2.6E1,8E0,1.64E2,2.6E1,8.9E1,3.24E2,1.6E1,7.51E2,5E1,8.98E2,1.4E1,7.11E2,1.8E1,6.08E2,3E0,2.54E2,5.42E2,6.5E1,1.4E1,8E0,7E0,1E0,6E1,1.04E2,2.1E1,5E0,2E0,8.7E1,5E0,3.19E2,1E0,1.5E1,6.9E2,6.1E1,2.4E1,2.6E1,7.9E2,1.08E2,1E1,4E0,1.43E2,5.68E2,1E0,1.7E1,1.35E2,4.73E2,1E0,2E0,4.3E1,2.11E2,3.73E2,1.69E2,4E0,6.1E1],"tree_param":{"num_deleted":"0","num_feature":"14","num_nodes":"89","size_leaf_vector":"1"}},{"base_weights":[4.376579E-2,-2.4559538E1,2.7944698E0,-2.6106657E1,-1.5088745E1,-1.4693153E0,9.296251E0,-1.653517E1,-2.7433779E1,-1.6826303E1,-4.8539605E0,-5.2790675E0,1.4702392E0,6.376899E0,1.2496932E1,-1.3623288E1,-1.9259066E1,-2.758937E1,-5.1699305E-1,-1.9723751E1,-1.4335496E1,-5.3289574E-1,-6.197438E-1,-9.182912E0,-3.4439597E0,-1.0488995E-2,2.8557508E0,7.190367E0,4.0079193E0,1.0444172E1,1.3725137E1,-5.419699E-1,-8.214981E-1,-1.0875893E0,-6.0668653E-1,-1.3956441E0,-2.2198206E1,-1.0061917E0,-2.4304084E-1,-8.6252517E-1,-1.2037763E1,2.042779E-1,-2.1300183E-1,-1.3580316E1,-8.121687E0,-3.6182044E0,4.394779E0,9.261344E-1,-1.7747854E0,3.4538717E0,5.047132E-1,4.8923297E0,8.979594E0,9.480656E0,3.1246266E0,1.073462E1,2.0463831E0,1.3810731E1,-9.4047165E-1,-3.696694E-1,-1.1561942E0,-6.165184E-1,-1.3269663E-1,-4.2554674E-1,-7.5562495E-1,-4.4215795E-1,-1.9712079E-1,-1.737114E-1,-5.412682E-1,2.4267574E-1,2.416312E-2,1.1952396E-1,-1.15364864E-1,-6.508624E-2,-3.6695606E-1,1.9449985E-1,1.7587643E-2,1.6685304E-1,-1.2200781E-1,1.9018294E-1,5.195126E-1,3.513031E-1,5.3316253E-1,7.795105E-1,3.4509954E-1,-2.1288514E-1,2.030193E-1,5.5110204E-1,2.3732178E-1,2.6918337E-1,-1.4760852E-2,6.9905645E-1,2.6805744E-1,2.4673461E-3,-9.774818E-2],"categories":[],"categories_nodes":[],"categories_segments":[],"categories_sizes":[],"default_left":[0,0,0,0,0,0,0,0,0,0,0,0,0,0,0,0,0,0,0,0,0,0,0,0,0,0,0,0,0,0,0,0,0,0,0,0,0,0,0,0,0,0,0,0,0,0,0,0,0,0,0,0,0,0,0,0,0,0,0,0,0,0,0,0,0,0,0,0,0,0,0,0,0,0,0,0,0,0,0,0,0,0,0,0,0,0,0,0,0,0,0,0,0,0,0],"id":15,"left_children":[1,3,5,7,9,11,13,15,17,19,21,23,25,27,29,31,33,35,-1,37,39,-1,41,43,45,47,49,51,53,55,57,-1,-1,-1,-1,-1,59,-1,-1,-1,61,-1,-1,63,65,67,69,71,73,75,77,79,81,83,85,87,89,91,93,-1,-1,-1,-1,-1,-1,-1,-1,-1,-1,-1,-1,-1,-1,-1,-1,-1,-1,-1,-1,-1,-1,-1,-1,-1,-1,-1,-1,-1,-1,-1,-1,-1,-1,-1,-1],"loss_changes":[3.3851834E5,6.97625E3,1.2473583E5,5.0211875E3,1.2165254E3,3.0446574E4,1.6571156E4,1.7386914E2,7.174375E2,1.6470117E2,2.8829715E2,8.450523E3,3.1491838E3,1.7710859E3,1.9971719E3,5.631299E1,1.9786816E2,3.090625E1,0E0,5.6789062E1,4.016504E1,0E0,1.5443402E2,1.6536895E3,1.1181494E3,1.2294373E3,1.113377E3,2.8095938E3,1.1353774E3,7.634297E2,6.7578125E2,0E0,0E0,0E0,0E0,0E0,1.8535254E2,0E0,0E0,0E0,3.317383E1,0E0,0E0,4.3061816E2,8.9081055E2,7.821416E2,2.995282E1,2.306657E3,6.695716E2,8.5367236E2,1.3593677E3,1.792021E3,1.2045293E3,4.1229492E2,1.4610776E3,4.8295312E2,9.536435E1,6.809375E2,4.1131234E0,0E0,0E0,0E0,0E0,0E0,0E0,0E0,0E0,0E0,0E0,0E0,0E0,0E0,0E0,0E0,0E0,0E0,0E0,0E0,0E0,0E0,0E0,0E0,0E0,0E0,0E0,0E0,0E0,0E0,0E0,0E0,0E0,0E0,0E0,0E0,0E0],"parents":[2147483647,0,0,1,1,2,2,3,3,4,4,5,5,6,6,7,7,8,8,9,9,10,10,11,11,12,12,13,13,14,14,15,15,16,16,17,17,19,19,20,20,22,22,23,23,24,24,25,25,26,26,27,27,28,28,29,29,30,30,36,36,40,40,43,43,44,44,45,45,46,46,47,47,48,48,49,49,50,50,51,51,52,52,53,53,54,54,55,55,56,56,57,57,58,58],"right_children":[2,4,6,8,10,12,14,16,18,20,22,24,26,28,30,32,34,36,-1,38,40,-1,42,44,46,48,50,52,54,56,58,-1,-1,-1,-1,-1,60,-1,-1,-1,62,-1,-1,64,66,68,70,72,74,76,78,80,82,84,86,88,90,92,94,-1,-1,-1,-1,-1,-1,-1,-1,-1,-1,-1,-1,-1,-1,-1,-1,-1,-1,-1,-1,-1,-1,-1,-1,-1,-1,-1,-1,-1,-1,-1,-1,-1,-1,-1,-1],"split_conditions":[4.5E1,3E1,7E1,-4.5E1,8.133E1,5.533E1,8.133E1,4E0,7.4E1,3.5E1,-1.34E0,4.4E1,6.267E1,-1.8369701E-16,8.733E1,-5E1,6E0,2.5E1,-5.1699305E-1,3.33E0,5.133E1,-5.3289574E-1,-6.6E-1,3E1,1.8889778E1,1.14E2,2.5881904E-1,-8.660254E-1,6.7555E1,8.660254E-1,6E0,-5.419699E-1,-8.214981E-1,-1.0875893E0,-6.0668653E-1,-1.3956441E0,4.839193E0,-1.0061917E0,-2.4304084E-1,-8.6252517E-1,1.34E0,2.042779E-1,-2.1300183E-1,1.29E2,1.0898155E1,8.660254E-1,4E0,8E2,5.45E2,7.8E2,1.75E2,6.95E2,7.2333336E1,1E0,2.1E1,9.2668335E1,2.6799955E0,8.660254E-1,8.867E1,-3.696694E-1,-1.1561942E0,-6.165184E-1,-1.3269663E-1,-4.2554674E-1,-7.5562495E-1,-4.4215795E-1,-1.9712079E-1,-1.737114E-1,-5.412682E-1,2.4267574E-1,2.416312E-2,1.1952396E-1,-1.15364864E-1,-6.508624E-2,-3.6695606E-1,1.9449985E-1,1.7587643E-2,1.6685304E-1,-1.2200781E-1,1.9018294E-1,5.195126E-1,3.513031E-1,5.3316253E-1,7.795105E-1,3.4509954E-1,-2.1288514E-1,2.030193E-1,5.5110204E-1,2.3732178E-1,2.6918337E-1,-1.4760852E-2,6.9905645E-1,2.6805744E-1,2.4673461E-3,-9.774818E-2],"split_indices":[4,4,5,4,5,5,5,2,5,4,9,5,5,1,5,4,2,4,0,9,5,0,9,5,13,3,1,1,11,1,2,0,0,0,0,0,13,0,0,0,8,0,0,3,13,1,2,4,4,4,4,4,11,2,3,11,13,1,5,0,0,0,0,0,0,0,0,0,0,0,0,0,0,0,0,0,0,0,0,0,0,0,0,0,0,0,0,0,0,0,0,0,0,0,0],"split_type":[0,0,0,0,0,0,0,0,0,0,0,0,0,0,0,0,0,0,0,0,0,0,0,0,0,0,0,0,0,0,0,0,0,0,0,0,0,0,0,0,0,0,0,0,0,0,0,0,0,0,0,0,0,0,0,0,0,0,0,0,0,0,0,0,0,0,0,0,0,0,0,0,0,0,0,0,0,0,0,0,0,0,0,0,0,0,0,0,0,0,0,0,0,0,0],"sum_hessian":[5E3,5.02E2,4.498E3,4.3E2,7.2E1,2.717E3,1.781E3,5.4E1,3.76E2,6.1E1,1.1E1,1.183E3,1.534E3,9.33E2,8.48E2,2.9E1,2.5E1,3.72E2,4E0,2.5E1,3.6E1,4E0,7E0,3.77E2,8.06E2,7.42E2,7.92E2,6.93E2,2.4E2,3.21E2,5.27E2,1.7E1,1.2E1,1.7E1,8E0,3.47E2,2.5E1,2.4E1,1E0,1.3E1,2.3E1,3E0,4E0,7.1E1,3.06E2,7.89E2,1.7E1,4.85E2,2.57E2,6.31E2,1.61E2,3.05E2,3.88E2,3.2E1,2.08E2,3.1E2,1.1E1,5.24E2,3E0,2E0,2.3E1,2.2E1,1E0,1.8E1,5.3E1,2.6E2,4.6E1,7.75E2,1.4E1,1.5E1,2E0,3.34E2,1.51E2,2.38E2,1.9E1,5.53E2,7.8E1,8.2E1,7.9E1,2.56E2,4.9E1,1.82E2,2.06E2,8E0,2.4E1,2.3E1,1.85E2,2.95E2,1.5E1,4E0,7E0,5.13E2,1.1E1,2E0,1E0],"tree_param":{"num_deleted":"0","num_feature":"14","num_nodes":"95","size_leaf_vector":"1"}},{"base_weights":[1.0772605E-2,-2.3762146E1,2.6615932E0,-2.4691494E1,-1.2710417E1,-1.0593357E0,9.543627E0,-1.5962024E1,-2.5759714E1,-1.411254E1,2.0737687E-1,-5.522616E0,1.2539628E0,7.3069015E0,1.2887154E1,-1.2700614E1,-9.111585E-1,-2.6125809E1,-1.511175E1,-1.518506E1,-8.326526E0,-1.9189562E-1,2.0917702E-1,-8.632937E0,-3.5715818E0,-5.1974076E-1,2.8765543E0,7.536773E0,-2.7216399E0,1.3112694E1,5.3299994E0,-1.3601208E1,-3.7909314E-1,-1.3337402E0,-2.2402386E1,-8.187966E-1,-3.612611E-1,-1.5412937E1,-2.144147E-1,-4.464591E-1,-1.02698326E-1,-1.3178343E1,-7.523635E0,-1.3824573E1,-3.3272073E0,-2.416347E-1,-8.238323E0,-5.4386835E0,3.1289396E0,6.0194573E0,8.851881E0,-4.5222917E0,9.947872E-1,1.3424815E1,7.026205E0,8.208516E0,8.997544E-1,-5.0435764E-1,-8.8056993E-1,-6.548287E-1,-1.1522659E0,-7.8234494E-1,-2.2155122E-1,-8.667864E-1,-5.543036E-1,-4.0913063E-1,-1.21124305E-1,-7.209824E-1,-1.5221529E-1,-1.7545505E-1,2.0124185E-1,3.502713E-2,-7.0670396E-2,-4.6598363E-1,-9.995972E-2,-3.3982623E-1,-4.275272E-2,4.2028796E-2,1.8188429E-1,3.418034E-1,1.8053328E-1,4.3025097E-1,7.29176E-1,-1.3935457E-1,-3.0536112E-1,1.3627066E-1,-1.3990301E-1,6.089334E-1,7.3103607E-1,1.00264035E-1,3.940868E-1,-1.863963E-2,4.9810287E-1,-2.1801881E-1,1.0511589E-1],"categories":[],"categories_nodes":[],"categories_segments":[],"categories_sizes":[],"default_left":[0,0,0,0,0,0,0,0,0,0,0,0,0,0,0,0,0,0,0,0,0,0,0,0,0,0,0,0,0,0,0,0,0,0,0,0,0,0,0,0,0,0,0,0,0,0,0,0,0,0,0,0,0,0,0,0,0,0,0,0,0,0,0,0,0,0,0,0,0,0,0,0,0,0,0,0,0,0,0,0,0,0,0,0,0,0,0,0,0,0,0,0,0,0,0],"id":16,"left_children":[1,3,5,7,9,11,13,15,17,19,21,23,25,27,29,31,-1,33,35,37,39,-1,-1,41,43,45,47,49,51,53,55,57,-1,-1,59,-1,-1,61,-1,-1,-1,63,65,67,69,71,73,75,77,79,81,83,85,87,89,91,93,-1,-1,-1,-1,-1,-1,-1,-1,-1,-1,-1,-1,-1,-1,-1,-1,-1,-1,-1,-1,-1,-1,-1,-1,-1,-1,-1,-1,-1,-1,-1,-1,-1,-1,-1,-1,-1,-1],"loss_changes":[3.15341E5,4.8421562E3,1.15295336E5,3.8969375E3,7.4553174E2,3.0186605E4,1.1721953E4,1.594043E2,1.2034688E3,1.03168945E2,9.6479706E1,6.025371E3,5.5445146E3,2.2082188E3,1.0073125E3,1.2125732E1,0E0,2.0984375E2,4.1200195E1,8.399414E0,1.1901367E1,0E0,0E0,1.8370664E3,1.4949292E3,1.9750133E3,2.128254E3,1.7984805E3,1.517225E2,1.0702188E3,2.4766504E2,1.0419165E2,0E0,0E0,3.9214844E1,0E0,0E0,5.178711E0,0E0,0E0,0E0,4.514961E2,1.0256191E3,4.591284E1,8.191719E2,9.835663E2,1.9726196E2,1.8090393E2,1.1343623E3,8.2901465E2,5.7489844E2,2.423117E1,6.0137867E1,6.8928125E2,1.2165271E2,1.8428595E2,6.6097664E1,0E0,0E0,0E0,0E0,0E0,0E0,0E0,0E0,0E0,0E0,0E0,0E0,0E0,0E0,0E0,0E0,0E0,0E0,0E0,0E0,0E0,0E0,0E0,0E0,0E0,0E0,0E0,0E0,0E0,0E0,0E0,0E0,0E0,0E0,0E0,0E0,0E0,0E0],"parents":[2147483647,0,0,1,1,2,2,3,3,4,4,5,5,6,6,7,7,8,8,9,9,10,10,11,11,12,12,13,13,14,14,15,15,17,17,18,18,19,19,20,20,23,23,24,24,25,25,26,26,27,27,28,28,29,29,30,30,31,31,34,34,37,37,41,41,42,42,43,43,44,44,45,45,46,46,47,47,48,48,49,49,50,50,51,51,52,52,53,53,54,54,55,55,56,56],"right_children":[2,4,6,8,10,12,14,16,18,20,22,24,26,28,30,32,-1,34,36,38,40,-1,-1,42,44,46,48,50,52,54,56,58,-1,-1,60,-1,-1,62,-1,-1,-1,64,66,68,70,72,74,76,78,80,82,84,86,88,90,92,94,-1,-1,-1,-1,-1,-1,-1,-1,-1,-1,-1,-1,-1,-1,-1,-1,-1,-1,-1,-1,-1,-1,-1,-1,-1,-1,-1,-1,-1,-1,-1,-1,-1,-1,-1,-1,-1,-1],"split_conditions":[4E1,5.6E1,7.2E1,-4.5E1,9.333E1,5.333E1,8.533E1,-5.3E1,3.5E1,6.6E-1,3.5E1,4.4E1,6.267E1,8.660254E-1,8.660254E-1,6E0,-9.111585E-1,2E1,5.133E1,8.867E1,8.733E1,-1.9189562E-1,2.0917702E-1,3E1,5.5E1,8.660254E-1,7E1,7.733E1,-2E0,-2.5881904E-1,3.077277E0,4E0,-3.7909314E-1,-1.3337402E0,4.839193E0,-8.187966E-1,-3.612611E-1,-2.5881904E-1,-2.144147E-1,-4.464591E-1,-1.02698326E-1,-8.660254E-1,6E0,3.33E0,1.8889778E1,4E0,6E1,6.6E-1,-8.660254E-1,-1.8369701E-16,9.34E0,3E0,2.778225E0,4.0142717E0,5.55E2,1.9045384E0,5E1,-5.0435764E-1,-8.8056993E-1,-6.548287E-1,-1.1522659E0,-7.8234494E-1,-2.2155122E-1,-8.667864E-1,-5.543036E-1,-4.0913063E-1,-1.21124305E-1,-7.209824E-1,-1.5221529E-1,-1.7545505E-1,2.0124185E-1,3.502713E-2,-7.0670396E-2,-4.6598363E-1,-9.995972E-2,-3.3982623E-1,-4.275272E-2,4.2028796E-2,1.8188429E-1,3.418034E-1,1.8053328E-1,4.3025097E-1,7.29176E-1,-1.3935457E-1,-3.0536112E-1,1.3627066E-1,-1.3990301E-1,6.089334E-1,7.3103607E-1,1.00264035E-1,3.940868E-1,-1.863963E-2,4.9810287E-1,-2.1801881E-1,1.0511589E-1],"split_indices":[4,5,5,4,5,5,5,4,4,9,4,5,5,1,1,2,0,4,5,5,7,0,0,5,4,1,4,5,9,0,12,2,0,0,13,0,0,0,0,0,0,1,8,9,13,2,4,9,0,1,8,2,12,13,4,13,4,0,0,0,0,0,0,0,0,0,0,0,0,0,0,0,0,0,0,0,0,0,0,0,0,0,0,0,0,0,0,0,0,0,0,0,0,0,0],"split_type":[0,0,0,0,0,0,0,0,0,0,0,0,0,0,0,0,0,0,0,0,0,0,0,0,0,0,0,0,0,0,0,0,0,0,0,0,0,0,0,0,0,0,0,0,0,0,0,0,0,0,0,0,0,0,0,0,0,0,0,0,0,0,0,0,0,0,0,0,0,0,0,0,0,0,0,0,0,0,0,0,0,0,0,0,0,0,0,0,0,0,0,0,0,0,0],"sum_hessian":[5.002E3,5.01E2,4.501E3,4.61E2,4E1,2.922E3,1.579E3,5.2E1,4.09E2,3.6E1,4E0,9.97E2,1.925E3,9.48E2,6.31E2,2.4E1,2.8E1,3.94E2,1.5E1,2.9E1,7E0,2E0,2E0,3.83E2,6.14E2,9.2E2,1.005E3,9.27E2,2.1E1,6.12E2,1.9E1,1.9E1,5E0,3.38E2,5.6E1,1.2E1,3E0,2.8E1,1E0,6E0,1E0,7.3E1,3.1E2,1.3E1,6.01E2,8.89E2,3.1E1,2.9E1,9.76E2,4.33E2,4.94E2,1.4E1,7E0,5.81E2,3.1E1,1.1E1,8E0,1.2E1,7E0,5E0,5.1E1,2.7E1,1E0,2.2E1,5.1E1,2.74E2,3.6E1,1.2E1,1E0,5.87E2,1.4E1,4.93E2,3.96E2,2.6E1,5E0,2.2E1,7E0,1.78E2,7.98E2,3.22E2,1.11E2,4.76E2,1.8E1,8E0,6E0,5E0,2E0,2.9E2,2.91E2,5E0,2.6E1,2E0,9E0,1E0,7E0],"tree_param":{"num_deleted":"0","num_feature":"14","num_nodes":"95","size_leaf_vector":"1"}},{"base_weights":[-1.6390225E-2,-1.592678E1,3.2119763E0,-8.270983E0,-2.2652176E1,-2.5118136E-1,8.727937E0,-4.8642526E0,-1.0116144E1,-2.387533E1,-1.5640858E1,-2.8766644E0,2.0591962E0,6.7702336E0,1.166462E1,-5.906519E0,-2.2916667E0,-1.313966E1,-7.5201454E0,-1.0826843E0,-1.2458656E0,-7.662005E0,-2.0902952E1,-2.2641902E0,-1.3768041E1,2.336958E0,-6.8590794E0,7.0444818E0,-4.6729093E0,1.1959818E1,3.983413E0,-5.3272023E0,-8.5787735E0,-2.7949948E0,2.5916323E-1,-1.1061014E0,-1.253575E1,-4.941045E0,-9.473788E0,-1.0738057E1,-1.6522793E0,-1.1904632E0,-1.700126E1,-4.326997E0,-1.4459752E0,-1.0165262E1,-8.4702843E-1,1.3282341E-1,2.8443642E0,4.944544E-2,-7.080002E0,5.390107E0,8.555303E0,-5.069386E-2,-8.22456E0,1.2237472E1,3.5763202E0,-2.3566039E0,8.367198E0,-4.094274E-1,-2.2394863E-1,-6.502304E-2,-4.4886485E-1,-1.5920725E-1,-2.955977E-3,-3.4269163E-1,-6.4849514E-1,-4.0516207E-1,-2.0100263E-1,-9.986741E-1,-4.3181625E-1,-2.8897545E-1,-6.29102E-1,3.2473356E-1,-2.0921715E-1,-8.689715E-1,-2.3594666E-1,-2.2422002E-1,1.6646568E-1,-2.5605649E-2,-1.407608E-1,-5.883024E-1,-2.733464E-1,1.21131204E-1,-1.3369475E-1,1.6781665E-1,-2.382365E-2,-2.798284E-2,-3.704225E-1,-6.541802E-1,2.8138062E-1,4.9725738E-1,3.6098757E-1,-1.1424495E-1,1.5436661E-1,-1.0568663E-1,-4.5717308E-1,6.271984E-1,3.3373976E-1,-2.3964691E-1,3.6217764E-1,-3.6302948E-1,1.4700747E-1,8.601028E-2,7.8590083E-1],"categories":[],"categories_nodes":[],"categories_segments":[],"categories_sizes":[],"default_left":[0,0,0,0,0,0,0,0,0,0,0,0,0,0,0,0,0,0,0,0,0,0,0,0,0,0,0,0,0,0,0,0,0,0,0,0,0,0,0,0,0,0,0,0,0,0,0,0,0,0,0,0,0,0,0,0,0,0,0,0,0,0,0,0,0,0,0,0,0,0,0,0,0,0,0,0,0,0,0,0,0,0,0,0,0,0,0,0,0,0,0,0,0,0,0,0,0,0,0,0,0,0,0,0,0],"id":17,"left_children":[1,3,5,7,9,11,13,15,17,19,21,23,25,27,29,31,33,35,37,-1,-1,39,41,43,45,47,49,51,53,55,57,59,61,63,-1,-1,65,67,69,71,73,-1,75,77,79,81,-1,83,85,-1,87,89,91,93,95,97,99,101,103,-1,-1,-1,-1,-1,-1,-1,-1,-1,-1,-1,-1,-1,-1,-1,-1,-1,-1,-1,-1,-1,-1,-1,-1,-1,-1,-1,-1,-1,-1,-1,-1,-1,-1,-1,-1,-1,-1,-1,-1,-1,-1,-1,-1,-1,-1],"loss_changes":[2.548708E5,4.2908312E4,7.880058E4,2.4211777E3,3.4428438E3,1.5382871E4,9.067945E3,3.6184888E2,1.8948457E3,3.331875E2,2.736838E3,7.8869307E3,3.357713E3,3.0362305E3,1.3921953E3,1.07559326E2,1.725056E2,3.5192773E2,6.5356104E2,0E0,0E0,5.183583E2,6.0134766E1,1.89254E3,5.4788086E2,1.4635957E3,7.8087036E1,2.2908867E3,3.7716238E2,1.3784766E3,7.145498E2,1.6719873E2,3.473462E1,4.2398407E1,0E0,0E0,1.8492383E2,1.479906E2,5.1336475E2,1.0100806E2,2.5409047E2,0E0,1.552832E1,3.9936572E2,1.0304547E3,1.7634863E2,0E0,1.5874769E3,1.8105762E3,0E0,8.15177E1,2.0436592E3,8.3216797E2,8.417518E1,5.3671448E1,9.238828E2,6.7925024E2,3.0707443E2,7.058744E2,0E0,0E0,0E0,0E0,0E0,0E0,0E0,0E0,0E0,0E0,0E0,0E0,0E0,0E0,0E0,0E0,0E0,0E0,0E0,0E0,0E0,0E0,0E0,0E0,0E0,0E0,0E0,0E0,0E0,0E0,0E0,0E0,0E0,0E0,0E0,0E0,0E0,0E0,0E0,0E0,0E0,0E0,0E0,0E0,0E0,0E0],"parents":[2147483647,0,0,1,1,2,2,3,3,4,4,5,5,6,6,7,7,8,8,9,9,10,10,11,11,12,12,13,13,14,14,15,15,16,16,17,17,18,18,21,21,22,22,23,23,24,24,25,25,26,26,27,27,28,28,29,29,30,30,31,31,32,32,33,33,36,36,37,37,38,38,39,39,40,40,42,42,43,43,44,44,45,45,47,47,48,48,50,50,51,51,52,52,53,53,54,54,55,55,56,56,57,57,58,58],"right_children":[2,4,6,8,10,12,14,16,18,20,22,24,26,28,30,32,34,36,38,-1,-1,40,42,44,46,48,50,52,54,56,58,60,62,64,-1,-1,66,68,70,72,74,-1,76,78,80,82,-1,84,86,-1,88,90,92,94,96,98,100,102,104,-1,-1,-1,-1,-1,-1,-1,-1,-1,-1,-1,-1,-1,-1,-1,-1,-1,-1,-1,-1,-1,-1,-1,-1,-1,-1,-1,-1,-1,-1,-1,-1,-1,-1,-1,-1,-1,-1,-1,-1,-1,-1,-1,-1,-1,-1],"split_conditions":[4.467E1,-1.8369701E-16,7.2E1,1.29E2,3.333E1,5.933E1,8.533E1,1.3741637E1,3.533E1,1.11666664E-1,-5E-1,8.660254E-1,8.660254E-1,8.660254E-1,1.37E2,4.689E1,1.333E1,-8.660254E-1,-7.0710677E-1,-1.0826843E0,-1.2458656E0,3.933E1,4E0,5E1,5.018603E0,-8.660254E-1,-1.067E1,7.733E1,2.78823E0,8.660254E-1,3.4632263E0,3E1,1E1,2.489E1,2.5916323E-1,-1.1061014E0,-2.5881904E-1,3.7665E1,-4.67E0,2.6458647E0,4.267E1,-1.1904632E0,5.133E1,1.8889778E1,1.13E2,5.533E1,-8.4702843E-1,2.5881904E-1,7.0710677E-1,4.944544E-2,5.911E1,-8.66E0,6.7E1,7.867E1,2.3E1,-2.5881904E-1,-4.67E0,1.34E0,8.867E1,-4.094274E-1,-2.2394863E-1,-6.502304E-2,-4.4886485E-1,-1.5920725E-1,-2.955977E-3,-3.4269163E-1,-6.4849514E-1,-4.0516207E-1,-2.0100263E-1,-9.986741E-1,-4.3181625E-1,-2.8897545E-1,-6.29102E-1,3.2473356E-1,-2.0921715E-1,-8.689715E-1,-2.3594666E-1,-2.2422002E-1,1.6646568E-1,-2.5605649E-2,-1.407608E-1,-5.883024E-1,-2.733464E-1,1.21131204E-1,-1.3369475E-1,1.6781665E-1,-2.382365E-2,-2.798284E-2,-3.704225E-1,-6.541802E-1,2.8138062E-1,4.9725738E-1,3.6098757E-1,-1.1424495E-1,1.5436661E-1,-1.0568663E-1,-4.5717308E-1,6.271984E-1,3.3373976E-1,-2.3964691E-1,3.6217764E-1,-3.6302948E-1,1.4700747E-1,8.601028E-2,7.8590083E-1],"split_indices":[5,1,5,3,5,5,5,13,5,11,0,1,1,1,3,11,8,0,1,0,0,5,2,5,13,0,9,5,13,1,13,5,3,11,0,0,0,11,9,13,6,0,6,13,3,5,0,1,0,0,11,8,3,6,3,0,8,9,6,0,0,0,0,0,0,0,0,0,0,0,0,0,0,0,0,0,0,0,0,0,0,0,0,0,0,0,0,0,0,0,0,0,0,0,0,0,0,0,0,0,0,0,0,0,0],"split_type":[0,0,0,0,0,0,0,0,0,0,0,0,0,0,0,0,0,0,0,0,0,0,0,0,0,0,0,0,0,0,0,0,0,0,0,0,0,0,0,0,0,0,0,0,0,0,0,0,0,0,0,0,0,0,0,0,0,0,0,0,0,0,0,0,0,0,0,0,0,0,0,0,0,0,0,0,0,0,0,0,0,0,0,0,0,0,0,0,0,0,0,0,0,0,0,0,0,0,0,0,0,0,0,0,0],"sum_hessian":[4.96E3,8.36E2,4.124E3,3.92E2,4.44E2,2.534E3,1.59E3,1.39E2,2.53E2,3.76E2,6.8E1,1.186E3,1.348E3,9.56E2,6.34E2,9.8E1,4.1E1,1.15E2,1.38E2,1.27E2,2.49E2,2.8E1,4E1,1.124E3,6.2E1,1.308E3,4E1,9.34E2,2.2E1,6.1E2,2.4E1,8.3E1,1.5E1,3.9E1,2E0,5E0,1.1E2,6.1E1,7.7E1,1.8E1,1E1,2E1,2E1,3.18E2,8.06E2,3.1E1,3.1E1,2.45E2,1.063E3,1E0,3.9E1,4.48E2,4.86E2,1E1,1.2E1,5.9E2,2E1,1E1,1.4E1,1.7E1,6.6E1,1E0,1.4E1,3.4E1,5E0,9E0,1.01E2,1.2E1,4.9E1,4E0,7.3E1,6E0,1.2E1,2E0,8E0,1.9E1,1E0,3.12E2,6E0,4.8E2,3.26E2,2.2E1,9E0,1.35E2,1.1E2,9.21E2,1.42E2,2E0,3.7E1,5E0,4.43E2,2.35E2,2.51E2,6E0,4E0,2E0,1E1,5.58E2,3.2E1,6E0,1.4E1,5E0,5E0,8E0,6E0],"tree_param":{"num_deleted":"0","num_feature":"14","num_nodes":"105","size_leaf_vector":"1"}},{"base_weights":[1.0312132E-2,-2.1040272E1,2.497042E0,-2.2587988E1,-1.253531E1,-2.4602046E0,6.725815E0,-1.3870714E1,-2.3722532E1,-1.3497242E1,2.21935E0,-6.2034755E0,-5.7999897E-1,4.1991363E0,1.0258012E1,-1.0834154E1,-8.3620787E-1,-2.3817314E1,-4.2516246E-1,-1.5529282E1,-9.458232E0,-1.0119019E0,2.8939515E-1,-3.282346E0,-7.943176E0,-2.0510187E0,7.8896344E-1,3.0585384E0,5.329E0,8.268652E0,1.1680874E1,-1.150034E1,-3.1818578E-1,-1.2102528E0,-2.053423E1,-8.0083317E-1,-2.8991938E-1,-1.1415391E1,-5.7343073E0,8.862191E-2,-1.2654139E-1,6.6237345E0,-3.7465653E0,-1.128324E1,-6.48873E0,-1.8959343E0,-8.644942E0,1.7047788E0,-9.639724E-1,-2.3589404E0,3.2854137E0,4.3791595E0,7.1825395E0,8.48041E0,-1.3673557E0,1.1956413E1,6.16647E0,-4.3830273E-1,-7.936577E-1,-4.9446878E-1,-1.0512061E0,-6.2429315E-1,-3.0674967E-1,-3.6674443E-1,-1.013258E-1,3.942048E-1,-1.8100595E-1,-2.0044439E-1,4.9282733E-1,-3.3679563E-1,-6.124639E-1,-3.930287E-1,-2.673183E-1,-2.6808133E-2,-1.2991713E-1,-1.6114779E-1,-4.8659298E-1,1.3624401E-1,-7.901159E-2,-1.1209388E-1,8.334228E-2,-1.5484777E-1,2.0147895E-2,3.385508E-1,1.4652048E-1,2.3348288E-1,-3.5728776E-1,4.1775092E-1,2.327653E-1,4.9198252E-1,3.5757047E-1,8.361314E-2,-2.3707135E-1,6.8326753E-1,5.522036E-1,1.481284E-1,3.8101462E-1],"categories":[],"categories_nodes":[],"categories_segments":[],"categories_sizes":[],"default_left":[0,0,0,0,0,0,0,0,0,0,0,0,0,0,0,0,0,0,0,0,0,0,0,0,0,0,0,0,0,0,0,0,0,0,0,0,0,0,0,0,0,0,0,0,0,0,0,0,0,0,0,0,0,0,0,0,0,0,0,0,0,0,0,0,0,0,0,0,0,0,0,0,0,0,0,0,0,0,0,0,0,0,0,0,0,0,0,0,0,0,0,0,0,0,0,0,0],"id":18,"left_children":[1,3,5,7,9,11,13,15,17,19,21,23,25,27,29,31,-1,33,-1,35,37,39,-1,41,43,45,47,49,51,53,55,57,-1,-1,59,-1,-1,61,63,-1,-1,65,67,69,71,73,75,77,79,81,83,85,87,89,91,93,95,-1,-1,-1,-1,-1,-1,-1,-1,-1,-1,-1,-1,-1,-1,-1,-1,-1,-1,-1,-1,-1,-1,-1,-1,-1,-1,-1,-1,-1,-1,-1,-1,-1,-1,-1,-1,-1,-1,-1,-1],"loss_changes":[2.6309678E5,6.7065312E3,9.424555E4,4.10175E3,1.222165E3,1.4565311E4,2.1608312E4,2.8669824E2,3.6725E2,5.015078E2,7.5042145E1,3.4905957E3,2.778608E3,1.8085293E3,2.7651406E3,1.31813965E1,0E0,1.984375E0,0E0,1.490039E2,1.4590161E2,2.1402561E1,0E0,1.2204509E3,2.0302754E3,6.6364795E2,1.14948E3,8.7671875E2,1.2185488E3,8.788125E2,8.181797E2,1.4781177E2,0E0,0E0,4.2396484E1,0E0,0E0,2.5144531E1,5.6351196E1,0E0,0E0,1.8347284E2,9.280459E2,4.885664E2,4.3438672E2,6.203867E2,5.7033447E1,1.5792965E3,8.307731E2,6.03593E1,8.2035547E2,1.6136104E3,6.6929297E2,6.8110547E2,1.104878E2,7.190781E2,1.171615E2,0E0,0E0,0E0,0E0,0E0,0E0,0E0,0E0,0E0,0E0,0E0,0E0,0E0,0E0,0E0,0E0,0E0,0E0,0E0,0E0,0E0,0E0,0E0,0E0,0E0,0E0,0E0,0E0,0E0,0E0,0E0,0E0,0E0,0E0,0E0,0E0,0E0,0E0,0E0,0E0],"parents":[2147483647,0,0,1,1,2,2,3,3,4,4,5,5,6,6,7,7,8,8,9,9,10,10,11,11,12,12,13,13,14,14,15,15,17,17,19,19,20,20,21,21,23,23,24,24,25,25,26,26,27,27,28,28,29,29,30,30,31,31,34,34,37,37,38,38,41,41,42,42,43,43,44,44,45,45,46,46,47,47,48,48,49,49,50,50,51,51,52,52,53,53,54,54,55,55,56,56],"right_children":[2,4,6,8,10,12,14,16,18,20,22,24,26,28,30,32,-1,34,-1,36,38,40,-1,42,44,46,48,50,52,54,56,58,-1,-1,60,-1,-1,62,64,-1,-1,66,68,70,72,74,76,78,80,82,84,86,88,90,92,94,96,-1,-1,-1,-1,-1,-1,-1,-1,-1,-1,-1,-1,-1,-1,-1,-1,-1,-1,-1,-1,-1,-1,-1,-1,-1,-1,-1,-1,-1,-1,-1,-1,-1,-1,-1,-1,-1,-1,-1,-1],"split_conditions":[4.5E1,3E1,6.4E1,-4.5E1,9.333E1,4.933E1,7.867E1,-5E1,8.267E1,7.133E1,3.4632263E0,1.07E2,5.733E1,7.067E1,8.6E1,1.52E2,-8.3620787E-1,2E1,-4.2516246E-1,2E0,4E1,9.467E1,2.8939515E-1,1.65E2,3.467E1,8.660254E-1,1.13E2,9E1,4.8743935E0,8.660254E-1,-2.5881904E-1,1.03E2,-3.1818578E-1,-1.2102528E0,6.1190906E0,-8.0083317E-1,-2.8991938E-1,8.8E1,-2.67E0,8.862191E-2,-1.2654139E-1,8.66E0,1.06E2,1.3E2,4.277833E1,-2.5881904E-1,5.3888332E1,8.05E2,3.35E2,6.933E1,1.75E2,7.33E0,-2.5881904E-1,6.7E1,2.78823E0,8.8331665E1,8.333E1,-4.3830273E-1,-7.936577E-1,-4.9446878E-1,-1.0512061E0,-6.2429315E-1,-3.0674967E-1,-3.6674443E-1,-1.013258E-1,3.942048E-1,-1.8100595E-1,-2.0044439E-1,4.9282733E-1,-3.3679563E-1,-6.124639E-1,-3.930287E-1,-2.673183E-1,-2.6808133E-2,-1.2991713E-1,-1.6114779E-1,-4.8659298E-1,1.3624401E-1,-7.901159E-2,-1.1209388E-1,8.334228E-2,-1.5484777E-1,2.0147895E-2,3.385508E-1,1.4652048E-1,2.3348288E-1,-3.5728776E-1,4.1775092E-1,2.327653E-1,4.9198252E-1,3.5757047E-1,8.361314E-2,-2.3707135E-1,6.8326753E-1,5.522036E-1,1.481284E-1,3.8101462E-1],"split_indices":[4,4,5,4,5,5,5,4,6,7,13,3,5,5,5,3,0,4,0,9,4,5,0,4,5,1,3,4,13,1,0,3,0,0,13,0,0,6,9,0,0,9,3,3,11,0,11,4,4,5,4,9,0,3,13,11,6,0,0,0,0,0,0,0,0,0,0,0,0,0,0,0,0,0,0,0,0,0,0,0,0,0,0,0,0,0,0,0,0,0,0,0,0,0,0,0,0],"split_type":[0,0,0,0,0,0,0,0,0,0,0,0,0,0,0,0,0,0,0,0,0,0,0,0,0,0,0,0,0,0,0,0,0,0,0,0,0,0,0,0,0,0,0,0,0,0,0,0,0,0,0,0,0,0,0,0,0,0,0,0,0,0,0,0,0,0,0,0,0,0,0,0,0,0,0,0,0,0,0,0,0,0,0,0,0,0,0,0,0,0,0,0,0,0,0,0,0],"sum_hessian":[5.024E3,5.3E2,4.494E3,4.47E2,8.3E1,2.069E3,2.425E3,5.3E1,3.94E2,7.8E1,5E0,6.91E2,1.378E3,1.415E3,1.01E3,2.8E1,2.5E1,3.91E2,3E0,5E1,2.8E1,3E0,2E0,2.59E2,4.32E2,6.64E2,7.14E2,7.06E2,7.09E2,4.24E2,5.86E2,2.3E1,5E0,3.44E2,4.7E1,4.7E1,3E0,1.7E1,1.1E1,1E0,2E0,1.1E1,2.48E2,1.29E2,3.03E2,6.5E2,1.4E1,4.69E2,2.45E2,2.8E1,6.78E2,4.71E2,2.38E2,4.15E2,9E0,5.57E2,2.9E1,1.6E1,7E0,3E0,4.4E1,1.3E1,4E0,7E0,4E0,1E1,1E0,2.44E2,4E0,2.4E1,1.05E2,1.35E2,1.68E2,2.22E2,4.28E2,3E0,1.1E1,3.58E2,1.11E2,1.65E2,8E1,2.2E1,6E0,6.1E1,6.17E2,4.6E2,1.1E1,1.61E2,7.7E1,2.02E2,2.13E2,5E0,4E0,1.89E2,3.68E2,1E1,1.9E1],"tree_param":{"num_deleted":"0","num_feature":"14","num_nodes":"97","size_leaf_vector":"1"}},{"base_weights":[-8.197039E-4,-2.0504477E1,2.2028022E0,-2.175229E1,-1.4273841E1,-2.0236425E0,6.644841E0,-1.3729096E1,-1.1399221E0,-1.5006023E1,2.9583818E-1,-5.471151E0,-2.1701457E-1,4.023289E0,9.69765E0,-1.093771E1,-1.5971319E1,-8.32375E-1,-1.229557E1,-1.6420308E-1,1.8885626E-1,-8.758859E0,-4.218165E0,-1.5901474E0,1.1837231E0,4.8237123E0,2.0209954E0,8.144771E0,1.1117712E1,-4.1877243E-1,-6.3293046E-1,-9.0412563E-1,-4.61236E-1,-1.4087687E1,-9.6747675E0,-3.6376188E0,-9.989402E0,-2.2690778E0,-4.864129E0,-1.370064E0,-7.5876217E0,1.433402E0,-7.1889286E0,6.9233537E0,3.725824E0,-3.1166441E0,2.6001368E0,8.353084E0,-1.4124767E-1,2.5402963E0,1.1294954E1,-2.9472828E-1,-7.371708E-1,-2.4786113E-1,-5.1657915E-1,1.8127504E-1,-2.1287468E-1,-6.0931295E-1,-4.1756627E-1,-1.2922378E-1,3.5710138E-1,-2.9950082E-1,-2.0924075E-1,-3.3023477E-2,-1.5491427E-1,-4.3004557E-1,-7.044838E-2,1.3984586E-1,3.921799E-2,-4.0590677E-1,7.010486E-2,2.890245E-1,4.8058334E-1,2.0846573E-1,-5.411799E-2,-5.1055558E-2,-2.15425E-1,2.8076217E-1,1.9174265E-2,4.825216E-1,3.529366E-1,3.8541922E-1,-1.1346078E-1,3.3634242E-1,-1.3836984E-1,5.2936995E-1,6.7891884E-1],"categories":[],"categories_nodes":[],"categories_segments":[],"categories_sizes":[],"default_left":[0,0,0,0,0,0,0,0,0,0,0,0,0,0,0,0,0,0,0,0,0,0,0,0,0,0,0,0,0,0,0,0,0,0,0,0,0,0,0,0,0,0,0,0,0,0,0,0,0,0,0,0,0,0,0,0,0,0,0,0,0,0,0,0,0,0,0,0,0,0,0,0,0,0,0,0,0,0,0,0,0,0,0,0,0,0,0],"id":19,"left_children":[1,3,5,7,9,11,13,15,-1,17,19,21,23,25,27,29,31,-1,33,-1,-1,35,37,39,41,43,45,47,49,-1,-1,-1,-1,51,53,55,57,59,61,63,65,67,69,71,73,75,77,79,81,83,85,-1,-1,-1,-1,-1,-1,-1,-1,-1,-1,-1,-1,-1,-1,-1,-1,-1,-1,-1,-1,-1,-1,-1,-1,-1,-1,-1,-1,-1,-1,-1,-1,-1,-1,-1,-1],"loss_changes":[2.2627298E5,3.4679844E3,8.4909625E4,3.0695938E3,9.005215E2,1.4436164E4,1.7607812E4,1.3199707E2,0E0,1.5124219E2,7.47176E1,3.2462559E3,2.9292954E3,1.8942383E3,2.1543203E3,4.213623E0,1.8927832E2,0E0,2.3395996E1,0E0,0E0,1.3437812E3,7.1794727E2,1.0046416E3,1.5865221E3,1.9289902E3,1.0227217E3,8.46959E2,7.7553516E2,0E0,0E0,0E0,0E0,9.798584E0,1.4595947E0,2.1353339E2,5.3158594E2,4.5182123E2,3.0686914E2,9.091217E2,1.5692236E2,6.46496E2,1.87005E2,8.354297E2,1.1965146E3,8.301553E1,2.0496624E3,7.345508E2,2.3464093E2,2.8526703E2,6.931406E2,0E0,0E0,0E0,0E0,0E0,0E0,0E0,0E0,0E0,0E0,0E0,0E0,0E0,0E0,0E0,0E0,0E0,0E0,0E0,0E0,0E0,0E0,0E0,0E0,0E0,0E0,0E0,0E0,0E0,0E0,0E0,0E0,0E0,0E0,0E0,0E0],"parents":[2147483647,0,0,1,1,2,2,3,3,4,4,5,5,6,6,7,7,9,9,10,10,