{"learner":{"attributes":{},"feature_names":["last_5_mins","minutes_until_close","rolling_mean_15","hour_sin","hour_cos"],"feature_types":["float","int","float","float","float"],"gradient_booster":{"model":{"cats":{"enc":[],"feature_segments":[],"sorted_idx":[]},"gbtree_model_param":{"num_parallel_tree":"1","num_trees":"300"},"iteration_indptr":[0,1,2,3,4,5,6,7,8,9,10,11,12,13,14,15,16,17,18,19,20,21,22,23,24,25,26,27,28,29,30,31,32,33,34,35,36,37,38,39,40,41,42,43,44,45,46,47,48,49,50,51,52,53,54,55,56,57,58,59,60,61,62,63,64,65,66,67,68,69,70,71,72,73,74,75,76,77,78,79,80,81,82,83,84,85,86,87,88,89,90,91,92,93,94,95,96,97,98,99,100,101,102,103,104,105,106,107,108,109,110,111,112,113,114,115,116,117,118,119,120,121,122,123,124,125,126,127,128,129,130,131,132,133,134,135,136,137,138,139,140,141,142,143,144,145,146,147,148,149,150,151,152,153,154,155,156,157,158,159,160,161,162,163,164,165,166,167,168,169,170,171,172,173,174,175,176,177,178,179,180,181,182,183,184,185,186,187,188,189,190,191,192,193,194,195,196,197,198,199,200,201,202,203,204,205,206,207,208,209,210,211,212,213,214,215,216,217,218,219,220,221,222,223,224,225,226,227,228,229,230,231,232,233,234,235,236,237,238,239,240,241,242,243,244,245,246,247,248,249,250,251,252,253,254,255,256,257,258,259,260,261,262,263,264,265,266,267,268,269,270,271,272,273,274,275,276,277,278,279,280,281,282,283,284,285,286,287,288,289,290,291,292,293,294,295,296,297,298,299,300],"tree_info":[0,0,0,0,0,0,0,0,0,0,0,0,0,0,0,0,0,0,0,0,0,0,0,0,0,0,0,0,0,0,0,0,0,0,0,0,0,0,0,0,0,0,0,0,0,0,0,0,0,0,0,0,0,0,0,0,0,0,0,0,0,0,0,0,0,0,0,0,0,0,0,0,0,0,0,0,0,0,0,0,0,0,0,0,0,0,0,0,0,0,0,0,0,0,0,0,0,0,0,0,0,0,0,0,0,0,0,0,0,0,0,0,0,0,0,0,0,0,0,0,0,0,0,0,0,0,0,0,0,0,0,0,0,0,0,0,0,0,0,0,0,0,0,0,0,0,0,0,0,0,0,0,0,0,0,0,0,0,0,0,0,0,0,0,0,0,0,0,0,0,0,0,0,0,0,0,0,0,0,0,0,0,0,0,0,0,0,0,0,0,0,0,0,0,0,0,0,0,0,0,0,0,0,0,0,0,0,0,0,0,0,0,0,0,0,0,0,0,0,0,0,0,0,0,0,0,0,0,0,0,0,0,0,0,0,0,0,0,0,0,0,0,0,0,0,0,0,0,0,0,0,0,0,0,0,0,0,0,0,0,0,0,0,0,0,0,0,0,0,0,0,0,0,0,0,0,0,0,0,0,0,0,0,0,0,0,0,0,0,0,0,0,0,0,0,0,0,0,0,0],"trees":[{"base_weights":[-1.6549118E-2,-4.423263E1,6.0751195E0,-2.29891E1,-4.854072E1,-6.2950172E0,1.7615498E1,-1.8284494E1,-1.0866108E0,-5.26713E1,-2.5734291E1,-1.4250731E1,-1.0177923E0,1.1536851E1,2.6520931E1,-1.028062E0,-6.591375E-1,-1.4523987E0,-5.3676575E1,-3.006883E1,-9.910082E0,-2.0857605E1,-1.1696786E1,-4.0742035E0,2.524577E0,-6.114784E0,1.2048886E1,2.2692583E1,3.0168175E1,-2.2002285E0,-1.8035959E0,-2.4018303E-1,-1.2359437E0,-1.1195154E-1,-5.5572724E-1,-9.310289E-1,-6.7838895E-1,-4.9193507E-1,1.9765237E-2,-2.0448917E-1,-1.0742165E-1,-3.0967186E-4,1.4189342E-1,-5.0536746E-1,-5.7861738E-2,3.9026034E-1,6.245749E-1,9.7452915E-1,7.458084E-1,6.3816315E-1,1.2425147E0],"categories":[],"categories_nodes":[],"categories_segments":[],"categories_sizes":[],"default_left":[0,0,0,0,0,0,0,0,0,0,0,0,0,0,0,0,0,0,0,0,0,0,0,0,0,0,0,0,0,0,0,0,0,0,0,0,0,0,0,0,0,0,0,0,0,0,0,0,0,0,0],"id":0,"left_children":[1,3,5,7,9,11,13,15,-1,17,19,21,23,25,27,-1,-1,-1,29,31,33,35,37,39,41,43,45,47,49,-1,-1,-1,-1,-1,-1,-1,-1,-1,-1,-1,-1,-1,-1,-1,-1,-1,-1,-1,-1,-1,-1],"loss_changes":[1.7799736E6,7.188725E4,8.2929E5,2.0950078E3,6.0935875E4,1.1771287E5,1.6230944E5,4.0113867E2,0E0,6.882625E3,6.7855703E3,1.8572031E4,1.8279707E4,1.6251219E4,1.61828125E4,0E0,0E0,0E0,3.01925E3,1.3950312E3,6.3713477E2,2.4460938E3,5.9431094E3,1.289001E3,2.0262461E3,1.5348888E3,1.4021719E4,3.5021875E3,7.287875E3,0E0,0E0,0E0,0E0,0E0,0E0,0E0,0E0,0E0,0E0,0E0,0E0,0E0,0E0,0E0,0E0,0E0,0E0,0E0,0E0,0E0,0E0],"parents":[2147483647,0,0,1,1,2,2,3,3,4,4,5,5,6,6,7,7,9,9,10,10,11,11,12,12,13,13,14,14,18,18,19,19,20,20,21,21,22,22,23,23,24,24,25,25,26,26,27,27,28,28],"right_children":[2,4,6,8,10,12,14,16,-1,18,20,22,24,26,28,-1,-1,-1,30,32,34,36,38,40,42,44,46,48,50,-1,-1,-1,-1,-1,-1,-1,-1,-1,-1,-1,-1,-1,-1,-1,-1,-1,-1,-1,-1,-1,-1],"split_conditions":[6E1,-3.5E1,5.933E1,-4.5E1,4.5E1,4.467E1,7.6E1,-9.659258E-1,-1.0866108E0,-3E1,8.133E1,3.333E1,5.267E1,8.5E1,8.533E1,-1.028062E0,-6.591375E-1,-1.4523987E0,3.5E1,-8.660254E-1,-8.660254E-1,3E1,9.3E2,4.933E1,5.467E1,7E1,6.867E1,-2.5881904E-1,8E1,-2.2002285E0,-1.8035959E0,-2.4018303E-1,-1.2359437E0,-1.1195154E-1,-5.5572724E-1,-9.310289E-1,-6.7838895E-1,-4.9193507E-1,1.9765237E-2,-2.0448917E-1,-1.0742165E-1,-3.0967186E-4,1.4189342E-1,-5.0536746E-1,-5.7861738E-2,3.9026034E-1,6.245749E-1,9.7452915E-1,7.458084E-1,6.3816315E-1,1.2425147E0],"split_indices":[1,1,0,1,1,0,0,3,0,1,0,0,0,1,0,0,0,0,1,3,3,0,1,0,0,1,0,3,1,0,0,0,0,0,0,0,0,0,0,0,0,0,0,0,0,0,0,0,0,0,0],"split_type":[0,0,0,0,0,0,0,0,0,0,0,0,0,0,0,0,0,0,0,0,0,0,0,0,0,0,0,0,0,0,0,0,0,0,0,0,0,0,0,0,0,0,0,0,0,0,0,0,0,0,0],"sum_hessian":[6.606E3,7.99E2,5.807E3,1.36E2,6.63E2,2.803E3,3.004E3,6.7E1,6.9E1,5.6E2,1.03E2,1.117E3,1.686E3,1.787E3,1.217E3,1E1,5.7E1,3.5E1,5.25E2,8E1,2.3E1,3.09E2,8.08E2,9.05E2,7.81E2,5E1,1.737E3,5.98E2,6.19E2,4.49E2,7.6E1,3E0,7.7E1,9E0,1.4E1,1.87E2,1.22E2,7.7E2,3.8E1,5.16E2,3.89E2,2.25E2,5.56E2,2E1,3E1,1.06E3,6.77E2,4.19E2,1.79E2,3.8E1,5.81E2],"tree_param":{"num_deleted":"0","num_feature":"5","num_nodes":"51","size_leaf_vector":"1"}},{"base_weights":[1.7879024E-1,-1.6317827E1,1.2882799E1,-9.5127325E0,-4.3792213E1,5.8496E0,2.2055738E1,-1.9155117E1,-5.0526657E0,-1.3854921E0,-5.0020596E1,7.424629E0,-3.4119556E1,2.3027735E1,-1.721891E1,-4.1180477E1,-1.6619036E1,-1.0021209E1,-3.0206997E0,-2.0549827E0,-1.5219506E0,4.006038E0,1.0467039E1,-2.873264E1,-1.4906939E0,1.8523994E1,2.7762651E1,-1.8589485E1,2.2272614E-1,-1.8367054E0,-6.7773235E-1,-8.7141174E-1,-5.768933E-1,-3.8551593E-1,-1.4532634E0,-1.6478042E-1,-3.1495135E-2,2.4965692E-1,7.023728E-2,5.004259E-1,2.6508412E-1,-1.4029473E0,-8.196655E-1,7.4791604E-1,-1.3186127E0,1.1403958E0,7.6351136E-1,-9.666888E-1,-5.303461E-1],"categories":[],"categories_nodes":[],"categories_segments":[],"categories_sizes":[],"default_left":[0,0,0,0,0,0,0,0,0,0,0,0,0,0,0,0,0,0,0,0,0,0,0,0,0,0,0,0,0,0,0,0,0,0,0,0,0,0,0,0,0,0,0,0,0,0,0,0,0],"id":1,"left_children":[1,3,5,7,9,11,13,15,17,-1,19,21,23,25,27,29,31,33,35,-1,-1,37,39,41,-1,43,45,47,-1,-1,-1,-1,-1,-1,-1,-1,-1,-1,-1,-1,-1,-1,-1,-1,-1,-1,-1,-1,-1],"loss_changes":[1.3989851E6,5.424807E5,2.4314175E5,1.00050266E5,3.0767625E4,1.3478069E5,6.2938125E4,4.029572E4,1.6057273E4,0E0,3.1598125E3,2.1334273E4,8.534375E1,3.3438188E4,1.3810137E3,7.6942188E3,7.1344688E3,4.2365234E3,2.7764873E3,0E0,0E0,4.8660117E3,8.430203E3,9.7141406E2,0E0,8.100375E3,4.3736875E3,7.4758594E2,0E0,0E0,0E0,0E0,0E0,0E0,0E0,0E0,0E0,0E0,0E0,0E0,0E0,0E0,0E0,0E0,0E0,0E0,0E0,0E0,0E0],"parents":[2147483647,0,0,1,1,2,2,3,3,4,4,5,5,6,6,7,7,8,8,10,10,11,11,12,12,13,13,14,14,15,15,16,16,17,17,18,18,21,21,22,22,23,23,25,25,26,26,27,27],"right_children":[2,4,6,8,10,12,14,16,18,-1,20,22,24,26,28,30,32,34,36,-1,-1,38,40,42,-1,44,46,48,-1,-1,-1,-1,-1,-1,-1,-1,-1,-1,-1,-1,-1,-1,-1,-1,-1,-1,-1,-1,-1],"split_conditions":[5.467E1,8.660254E-1,7.2E1,3.933E1,2.2333333E-1,8.660254E-1,8.660254E-1,-8.660254E-1,4.467E1,-1.3854921E0,4.933E1,6.267E1,6.1333332E1,8.267E1,9.711E1,2.5881904E-1,3E1,5.067E1,5.133E1,-2.0549827E0,-1.5219506E0,-5E-1,-2.5881904E-1,5.8E1,-1.4906939E0,8.867E1,-2.5881904E-1,8.267E1,2.2272614E-1,-1.8367054E0,-6.7773235E-1,-8.7141174E-1,-5.768933E-1,-3.8551593E-1,-1.4532634E0,-1.6478042E-1,-3.1495135E-2,2.4965692E-1,7.023728E-2,5.004259E-1,2.6508412E-1,-1.4029473E0,-8.196655E-1,7.4791604E-1,-1.3186127E0,1.1403958E0,7.6351136E-1,-9.666888E-1,-5.303461E-1],"split_indices":[0,4,0,0,2,4,4,3,0,0,0,0,2,0,2,4,0,2,0,0,0,4,4,0,0,2,3,0,0,0,0,0,0,0,0,0,0,0,0,0,0,0,0,0,0,0,0,0,0],"split_type":[0,0,0,0,0,0,0,0,0,0,0,0,0,0,0,0,0,0,0,0,0,0,0,0,0,0,0,0,0,0,0,0,0,0,0,0,0,0,0,0,0,0,0,0,0,0,0,0,0],"sum_hessian":[6.673E3,2.903E3,3.77E3,2.328E3,5.75E2,2.135E3,1.635E3,7.35E2,1.593E3,2.36E2,3.39E2,2.055E3,8E1,1.596E3,3.9E1,7.4E1,6.61E2,4.61E2,1.132E3,3.01E2,3.8E1,9.69E2,1.086E3,3.4E1,4.6E1,8.21E2,7.75E2,3.7E1,2E0,6.1E1,1.3E1,1.94E2,4.67E2,4.56E2,5E0,7.58E2,3.74E2,4.85E2,4.84E2,7.07E2,3.79E2,1.7E1,1.7E1,8.19E2,2E0,7.11E2,6.4E1,1.6E1,2.1E1],"tree_param":{"num_deleted":"0","num_feature":"5","num_nodes":"49","size_leaf_vector":"1"}},{"base_weights":[2.1671037E-1,-1.5571583E1,1.2342272E1,-9.023973E0,-4.2488987E1,1.3750974E1,-2.8575815E1,-1.9403961E1,-5.0856442E0,-1.36906E0,-4.8027397E1,8.468228E0,2.3981134E1,-3.355756E1,-1.6616653E1,-4.052791E1,-1.6711067E1,-9.842408E0,-2.8992965E0,-1.9759846E0,-3.8425564E1,3.8503578E0,1.1298286E1,2.0748226E1,2.7090288E1,-2.596269E1,-1.4876302E0,-1.775143E1,-8.258116E-2,-1.7408309E0,-5.86844E-1,-8.440934E-1,-5.714878E-1,-3.809518E-1,-1.589269E0,-1.7146344E-1,-3.4802143E-2,-4.609014E-1,-1.5723137E0,9.340015E-2,2.6184618E-1,2.5477117E-1,5.0525856E-1,6.6513467E-1,8.8380057E-1,1.1046824E0,7.040422E-1,-1.1786757E0,-5.971245E-1,-6.146371E-1,-1.1362994E0],"categories":[],"categories_nodes":[],"categories_segments":[],"categories_sizes":[],"default_left":[0,0,0,0,0,0,0,0,0,0,0,0,0,0,0,0,0,0,0,0,0,0,0,0,0,0,0,0,0,0,0,0,0,0,0,0,0,0,0,0,0,0,0,0,0,0,0,0,0,0,0],"id":2,"left_children":[1,3,5,7,9,11,13,15,17,-1,19,21,23,25,27,29,31,33,35,-1,37,39,41,43,45,47,-1,49,-1,-1,-1,-1,-1,-1,-1,-1,-1,-1,-1,-1,-1,-1,-1,-1,-1,-1,-1,-1,-1,-1,-1],"loss_changes":[1.269337E6,5.0715462E5,2.1663681E5,9.46467E4,2.3791812E4,1.95725E5,6.7849375E3,3.542842E4,1.7459258E4,0E0,2.11675E3,3.1222625E4,1.1726375E4,1.2411641E3,6.013662E2,4.7378516E3,5.671875E3,4.580629E3,3.244253E3,0E0,5.717422E2,3.7030996E3,9.648031E3,2.9409688E3,2.5373438E3,7.127871E2,0E0,3.920205E2,0E0,0E0,0E0,0E0,0E0,0E0,0E0,0E0,0E0,0E0,0E0,0E0,0E0,0E0,0E0,0E0,0E0,0E0,0E0,0E0,0E0,0E0,0E0],"parents":[2147483647,0,0,1,1,2,2,3,3,4,4,5,5,6,6,7,7,8,8,10,10,11,11,12,12,13,13,14,14,15,15,16,16,17,17,18,18,20,20,21,21,22,22,23,23,24,24,25,25,27,27],"right_children":[2,4,6,8,10,12,14,16,18,-1,20,22,24,26,28,30,32,34,36,-1,38,40,42,44,46,48,-1,50,-1,-1,-1,-1,-1,-1,-1,-1,-1,-1,-1,-1,-1,-1,-1,-1,-1,-1,-1,-1,-1,-1,-1],"split_conditions":[5.467E1,8.660254E-1,8.660254E-1,3.8E1,2.2333333E-1,7.6E1,7.4E1,-8.660254E-1,4.467E1,-1.36906E0,4.8E1,6.2E1,8.533E1,6.1333332E1,9.6223335E1,2.5881904E-1,3E1,5.067E1,5.067E1,-1.9759846E0,4.8E1,5.933E1,-8.660254E-1,-8.660254E-1,-2.5881904E-1,5.867E1,-1.4876302E0,9.1996666E1,-8.258116E-2,-1.7408309E0,-5.86844E-1,-8.440934E-1,-5.714878E-1,-3.809518E-1,-1.589269E0,-1.7146344E-1,-3.4802143E-2,-4.609014E-1,-1.5723137E0,9.340015E-2,2.6184618E-1,2.5477117E-1,5.0525856E-1,6.6513467E-1,8.8380057E-1,1.1046824E0,7.040422E-1,-1.1786757E0,-5.971245E-1,-6.146371E-1,-1.1362994E0],"split_indices":[0,4,4,0,2,0,0,3,0,0,0,0,0,2,2,4,0,2,0,0,2,0,3,4,3,0,0,2,0,0,0,0,0,0,0,0,0,0,0,0,0,0,0,0,0,0,0,0,0,0,0],"split_type":[0,0,0,0,0,0,0,0,0,0,0,0,0,0,0,0,0,0,0,0,0,0,0,0,0,0,0,0,0,0,0,0,0,0,0,0,0,0,0,0,0,0,0,0,0,0,0,0,0,0,0],"sum_hessian":[6.628E3,2.879E3,3.749E3,2.317E3,5.62E2,3.625E3,1.24E2,6.36E2,1.681E3,2.29E2,3.33E2,2.392E3,1.233E3,8.6E1,3.8E1,7E1,5.66E2,5.28E2,1.153E3,2.87E2,4.6E1,9.1E2,1.482E3,6.09E2,6.24E2,3.1E1,5.5E1,3.5E1,3E0,6.2E1,8E0,1.98E2,3.68E2,5.24E2,4E0,6.84E2,4.69E2,2E0,4.4E1,5.84E2,3.26E2,3.17E2,1.165E3,1.54E2,4.55E2,5.89E2,3.5E1,2.2E1,9E0,3.1E1,4E0],"tree_param":{"num_deleted":"0","num_feature":"5","num_nodes":"51","size_leaf_vector":"1"}},{"base_weights":[6.599802E-2,-3.9746487E1,5.27515E0,-1.8687622E1,-4.477757E1,-5.515464E0,1.5533161E1,-1.3763829E1,-9.300477E-1,-4.7259052E1,-2.5785404E1,-1.3503937E1,-1.4626193E0,1.061053E1,2.3448954E1,-8.7605107E-1,-4.783454E-1,-1.2859627E0,-4.8217915E1,-7.6386013E0,-2.8467672E1,-1.4394969E1,-3.6115167E0,-4.5320377E0,1.981963E0,-8.640501E0,1.11595955E1,2.3849129E1,-4.639208E0,-1.9752008E0,-1.6028792E0,-5.389938E-1,2.3658474E-1,-1.1566768E0,-3.6115202E-1,-8.140526E-1,-4.8639193E-1,-5.448861E-1,-3.6106825E-2,-3.750112E-1,-1.6196701E-1,-4.9730334E-1,9.17805E-2,-1.1521153E-1,-6.5057504E-1,3.8488832E-1,6.514316E-1,7.872233E-1,1.0473862E0,-3.3327925E-1,-1.3217986E-2],"categories":[],"categories_nodes":[],"categories_segments":[],"categories_sizes":[],"default_left":[0,0,0,0,0,0,0,0,0,0,0,0,0,0,0,0,0,0,0,0,0,0,0,0,0,0,0,0,0,0,0,0,0,0,0,0,0,0,0,0,0,0,0,0,0,0,0,0,0,0,0],"id":3,"left_children":[1,3,5,7,9,11,13,15,-1,17,19,21,23,25,27,-1,-1,-1,29,31,33,35,37,39,41,43,45,47,49,-1,-1,-1,-1,-1,-1,-1,-1,-1,-1,-1,-1,-1,-1,-1,-1,-1,-1,-1,-1,-1,-1],"loss_changes":[1.3769398E6,8.0379375E4,6.499884E5,2.9872695E3,2.77125E4,9.264149E4,1.1699506E5,7.8698535E2,0E0,6.045375E3,3.3471016E3,8.425906E3,2.0101592E4,1.9757281E4,1.3096875E4,0E0,0E0,0E0,2.455875E3,9.823132E2,2.4355078E2,1.1458234E4,2.1857144E3,2.3038848E3,4.070831E3,2.23424E3,1.4051797E4,1.04484375E4,2.695037E2,0E0,0E0,0E0,0E0,0E0,0E0,0E0,0E0,0E0,0E0,0E0,0E0,0E0,0E0,0E0,0E0,0E0,0E0,0E0,0E0,0E0,0E0],"parents":[2147483647,0,0,1,1,2,2,3,3,4,4,5,5,6,6,7,7,9,9,10,10,11,11,12,12,13,13,14,14,18,18,19,19,20,20,21,21,22,22,23,23,24,24,25,25,26,26,27,27,28,28],"right_children":[2,4,6,8,10,12,14,16,-1,18,20,22,24,26,28,-1,-1,-1,30,32,34,36,38,40,42,44,46,48,50,-1,-1,-1,-1,-1,-1,-1,-1,-1,-1,-1,-1,-1,-1,-1,-1,-1,-1,-1,-1,-1,-1],"split_conditions":[5.5E1,-3.5E1,5.911E1,-4.5E1,4.5E1,4.2446667E1,7.644334E1,-9.659258E-1,-9.300477E-1,-3E1,-8.660254E-1,9.35E2,5.177667E1,8E1,8.660254E-1,-8.7605107E-1,-4.783454E-1,-1.2859627E0,3.5E1,8.7996666E1,9.6223335E1,3.1556667E1,1.689E1,-9.659258E-1,7.5E1,-5E-1,7.155666E1,8.2666664E1,6E1,-1.9752008E0,-1.6028792E0,-5.389938E-1,2.3658474E-1,-1.1566768E0,-3.6115202E-1,-8.140526E-1,-4.8639193E-1,-5.448861E-1,-3.6106825E-2,-3.750112E-1,-1.6196701E-1,-4.9730334E-1,9.17805E-2,-1.1521153E-1,-6.5057504E-1,3.8488832E-1,6.514316E-1,7.872233E-1,1.0473862E0,-3.3327925E-1,-1.3217986E-2],"split_indices":[1,1,2,1,1,2,2,3,0,1,3,1,2,1,4,0,0,0,1,2,2,2,2,4,1,3,2,2,1,0,0,0,0,0,0,0,0,0,0,0,0,0,0,0,0,0,0,0,0,0,0],"split_type":[0,0,0,0,0,0,0,0,0,0,0,0,0,0,0,0,0,0,0,0,0,0,0,0,0,0,0,0,0,0,0,0,0,0,0,0,0,0,0,0,0,0,0,0,0,0,0,0,0,0,0],"sum_hessian":[6.637E3,7.67E2,5.87E3,1.49E2,6.18E2,2.861E3,3.009E3,7.4E1,7.5E1,5.45E2,7.3E1,9.62E2,1.899E3,1.857E3,1.152E3,1.1E1,6.3E1,3.5E1,5.1E2,1E1,6.3E1,8.82E2,8E1,1.004E3,8.95E2,5.1E1,1.806E3,1.136E3,1.6E1,4.41E2,6.9E1,7E0,3E0,6.1E1,2E0,2.38E2,6.44E2,1.6E1,6.4E1,8.9E1,9.15E2,1.8E1,8.77E2,3E1,2.1E1,1.392E3,4.14E2,4.12E2,7.24E2,8E0,8E0],"tree_param":{"num_deleted":"0","num_feature":"5","num_nodes":"51","size_leaf_vector":"1"}},{"base_weights":[-8.6113155E-2,-3.8555904E1,4.987674E0,-1.7923487E1,-4.330158E1,-5.5121284E0,1.4815533E1,-1.3703413E1,-2.21957E1,-4.5385387E1,-2.5031551E1,-1.2501181E1,-1.0614944E0,9.727197E0,2.2323175E1,-8.5071844E-1,-4.7672784E-1,-7.637313E-1,-1.0174236E0,-1.2287092E0,-4.6374382E1,-7.501874E0,-2.7246672E1,-1.7000208E1,-9.657543E0,-3.5330317E0,1.7740551E0,-7.6640344E0,1.0266012E1,1.7749905E1,2.4396265E1,-1.881869E0,-1.4155682E0,-4.5710188E-1,1.6451375E-1,-1.108205E0,-3.521232E-1,-7.1186346E-1,-3.1222883E-1,-3.988879E-1,1.596524E-1,-1.4714602E-1,2.4656938E-1,-4.836608E-1,8.572061E-2,-4.9922165E-1,-7.029368E-2,3.4312645E-1,5.5527705E-1,7.579003E-1,5.597132E-1,2.4249135E-1,9.979518E-1],"categories":[],"categories_nodes":[],"categories_segments":[],"categories_sizes":[],"default_left":[0,0,0,0,0,0,0,0,0,0,0,0,0,0,0,0,0,0,0,0,0,0,0,0,0,0,0,0,0,0,0,0,0,0,0,0,0,0,0,0,0,0,0,0,0,0,0,0,0,0,0,0,0],"id":4,"left_children":[1,3,5,7,9,11,13,15,17,19,21,23,25,27,29,-1,-1,-1,-1,-1,31,33,35,37,39,41,43,45,47,49,51,-1,-1,-1,-1,-1,-1,-1,-1,-1,-1,-1,-1,-1,-1,-1,-1,-1,-1,-1,-1,-1,-1],"loss_changes":[1.3002221E6,7.5064E4,6.0739606E5,2.2853008E3,2.262225E4,8.851583E4,1.1587619E5,7.350449E2,1.284336E2,6.46725E3,2.3606406E3,1.3965375E4,1.2203308E4,1.7094953E4,1.11109375E4,0E0,0E0,0E0,0E0,0E0,1.880375E3,4.7661053E2,2.042461E2,2.9588281E3,2.9738867E3,1.340501E3,4.180074E3,1.5426768E3,1.05975625E4,1.42075E3,8.3368125E3,0E0,0E0,0E0,0E0,0E0,0E0,0E0,0E0,0E0,0E0,0E0,0E0,0E0,0E0,0E0,0E0,0E0,0E0,0E0,0E0,0E0,0E0],"parents":[2147483647,0,0,1,1,2,2,3,3,4,4,5,5,6,6,7,7,8,8,9,9,10,10,11,11,12,12,13,13,14,14,20,20,21,21,22,22,23,23,24,24,25,25,26,26,27,27,28,28,29,29,30,30],"right_children":[2,4,6,8,10,12,14,16,18,20,22,24,26,28,30,-1,-1,-1,-1,-1,32,34,36,38,40,42,44,46,48,50,52,-1,-1,-1,-1,-1,-1,-1,-1,-1,-1,-1,-1,-1,-1,-1,-1,-1,-1,-1,-1,-1,-1],"split_conditions":[5.5E1,-3.5E1,5.933E1,-4.5E1,4.5E1,4.467E1,7.6E1,2.5881904E-1,-4E1,-3E1,-1.8369701E-16,3.533E1,5.267E1,8E1,8.133E1,-8.5071844E-1,-4.7672784E-1,-7.637313E-1,-1.0174236E0,-1.2287092E0,4E1,8.867E1,9.6223335E1,9.4E2,9.4E2,9.35E2,7.5E1,7E1,7E1,-1.8369701E-16,7E1,-1.881869E0,-1.4155682E0,-4.5710188E-1,1.6451375E-1,-1.108205E0,-3.521232E-1,-7.1186346E-1,-3.1222883E-1,-3.988879E-1,1.596524E-1,-1.4714602E-1,2.4656938E-1,-4.836608E-1,8.572061E-2,-4.9922165E-1,-7.029368E-2,3.4312645E-1,5.5527705E-1,7.579003E-1,5.597132E-1,2.4249135E-1,9.979518E-1],"split_indices":[1,1,0,1,1,0,0,4,1,1,4,0,0,1,0,0,0,0,0,0,1,0,2,1,1,1,1,1,0,4,1,0,0,0,0,0,0,0,0,0,0,0,0,0,0,0,0,0,0,0,0,0,0],"split_type":[0,0,0,0,0,0,0,0,0,0,0,0,0,0,0,0,0,0,0,0,0,0,0,0,0,0,0,0,0,0,0,0,0,0,0,0,0,0,0,0,0,0,0,0,0,0,0,0,0,0,0,0,0],"sum_hessian":[6.659E3,7.75E2,5.884E3,1.46E2,6.29E2,2.845E3,3.039E3,7.6E1,7E1,5.63E2,6.6E1,1.106E3,1.739E3,1.813E3,1.226E3,1.2E1,6.4E1,4E1,3E1,3.8E1,5.25E2,8E0,5.8E1,4.26E2,6.8E2,9.29E2,8.1E2,5.4E1,1.759E3,3.86E2,8.4E2,4.91E2,3.4E1,6E0,2E0,5.6E1,2E0,3.91E2,3.5E1,6.65E2,1.5E1,9.16E2,1.3E1,2E1,7.9E2,2.9E1,2.5E1,1.202E3,5.57E2,2.89E2,9.7E1,2.5E1,8.15E2],"tree_param":{"num_deleted":"0","num_feature":"5","num_nodes":"53","size_leaf_vector":"1"}},{"base_weights":[-6.410833E-2,-1.4149548E1,1.0890561E1,-8.186808E0,-3.708648E1,1.216426E1,-2.5317263E1,-1.7447996E1,-4.652945E0,-1.148768E0,-4.26353E1,7.5545917E0,2.1022488E1,-3.021775E1,-1.5832384E1,-3.5871357E1,-1.51146965E1,-8.420525E0,-2.883744E0,-1.7475427E0,-3.4727695E1,3.7024496E0,1.0196986E1,1.7951574E1,2.3826097E1,-2.4177547E1,-1.3369704E0,-1.7498928E1,1.326659E0,-1.5097581E0,-5.168595E-1,-7.6734585E-1,-5.102479E-1,-3.282316E-1,-1.1390606E0,-1.7827554E-1,-4.4239268E-2,-6.4280707E-1,-1.421487E0,2.2858392E-1,6.5906964E-2,2.1179044E-1,4.6524352E-1,7.259416E-1,-6.026577E-1,9.7471523E-1,6.150542E-1,-1.1813002E0,-7.124571E-1,-7.8980476E-1,-5.549861E-1,2.1749142E-1,-1.3000858E-1],"categories":[],"categories_nodes":[],"categories_segments":[],"categories_sizes":[],"default_left":[0,0,0,0,0,0,0,0,0,0,0,0,0,0,0,0,0,0,0,0,0,0,0,0,0,0,0,0,0,0,0,0,0,0,0,0,0,0,0,0,0,0,0,0,0,0,0,0,0,0,0,0,0],"id":5,"left_children":[1,3,5,7,9,11,13,15,17,-1,19,21,23,25,27,29,31,33,35,-1,37,39,41,43,45,47,-1,49,51,-1,-1,-1,-1,-1,-1,-1,-1,-1,-1,-1,-1,-1,-1,-1,-1,-1,-1,-1,-1,-1,-1,-1,-1],"loss_changes":[1.03172044E6,3.9970175E5,1.7382669E5,7.593353E4,2.6529188E4,1.4820369E5,5.3800938E3,2.6907672E4,1.118927E4,0E0,1.1715625E3,2.4303234E4,1.0186E4,6.3591406E2,1.350626E3,2.4695703E3,5.18475E3,2.0294805E3,3.201877E3,0E0,3.748828E1,4.0199414E3,9.894766E3,4.2187656E3,2.5046562E3,4.958418E2,0E0,1.1430664E1,1.1925738E2,0E0,0E0,0E0,0E0,0E0,0E0,0E0,0E0,0E0,0E0,0E0,0E0,0E0,0E0,0E0,0E0,0E0,0E0,0E0,0E0,0E0,0E0,0E0,0E0],"parents":[2147483647,0,0,1,1,2,2,3,3,4,4,5,5,6,6,7,7,8,8,10,10,11,11,12,12,13,13,14,14,15,15,16,16,17,17,18,18,20,20,21,21,22,22,23,23,24,24,25,25,27,27,28,28],"right_children":[2,4,6,8,10,12,14,16,18,-1,20,22,24,26,28,30,32,34,36,-1,38,40,42,44,46,48,-1,50,52,-1,-1,-1,-1,-1,-1,-1,-1,-1,-1,-1,-1,-1,-1,-1,-1,-1,-1,-1,-1,-1,-1,-1,-1],"split_conditions":[5.467E1,8.660254E-1,8.660254E-1,3.8E1,2.2333333E-1,7.6E1,7.4E1,-8.660254E-1,4.467E1,-1.148768E0,4.8E1,6.267E1,8.467E1,6.1333332E1,9.711E1,2.5881904E-1,3E1,5.0446667E1,5E1,-1.7475427E0,4.867E1,-5E-1,-8.660254E-1,8.9113335E1,-2.5881904E-1,5.8E1,-1.3369704E0,8.333E1,9.9776665E1,-1.5097581E0,-5.168595E-1,-7.6734585E-1,-5.102479E-1,-3.282316E-1,-1.1390606E0,-1.7827554E-1,-4.4239268E-2,-6.4280707E-1,-1.421487E0,2.2858392E-1,6.5906964E-2,2.1179044E-1,4.6524352E-1,7.259416E-1,-6.026577E-1,9.7471523E-1,6.150542E-1,-1.1813002E0,-7.124571E-1,-7.8980476E-1,-5.549861E-1,2.1749142E-1,-1.3000858E-1],"split_indices":[0,4,4,0,2,0,0,3,0,0,0,0,0,2,2,4,0,2,0,0,0,4,3,2,3,0,0,0,2,0,0,0,0,0,0,0,0,0,0,0,0,0,0,0,0,0,0,0,0,0,0,0,0],"split_type":[0,0,0,0,0,0,0,0,0,0,0,0,0,0,0,0,0,0,0,0,0,0,0,0,0,0,0,0,0,0,0,0,0,0,0,0,0,0,0,0,0,0,0,0,0,0,0,0,0,0,0,0,0],"sum_hessian":[6.684E3,2.924E3,3.76E3,2.322E3,6.02E2,3.633E3,1.27E2,6.4E2,1.682E3,2.43E2,3.59E2,2.391E3,1.242E3,8.2E1,4.5E1,7E1,5.7E2,5.36E2,1.146E3,3.12E2,4.7E1,9.74E2,1.417E3,5.97E2,6.45E2,3.2E1,5E1,4.1E1,4E0,6.4E1,6E0,2.06E2,3.64E2,5.32E2,4E0,6.07E2,5.39E2,3E0,4.4E1,4.91E2,4.83E2,3.22E2,1.095E3,5.94E2,3E0,6.04E2,4.1E1,1.5E1,1.7E1,2.2E1,1.9E1,2E0,2E0],"tree_param":{"num_deleted":"0","num_feature":"5","num_nodes":"53","size_leaf_vector":"1"}},{"base_weights":[-8.443332E-2,-3.613364E1,4.571713E0,-1.6286688E1,-4.047908E1,-5.0009236E0,1.35884495E1,-9.510702E0,-1.865031E1,-4.2851574E1,-2.682936E1,-1.190987E1,-1.3293558E0,8.792663E0,2.0813879E1,-6.452133E-1,-3.1710932E-1,-6.531803E-1,-8.976913E-1,-1.1603044E0,-1.7530117E0,-1.3389489E1,-2.8573483E1,-1.7053608E1,-9.806226E0,-3.4894378E0,1.5398445E0,-6.3844438E0,9.305792E0,1.7765255E1,2.3561485E1,-7.207282E-1,-1.863998E-1,-1.2469368E0,-8.736677E-1,-7.164292E-1,-1.3171706E-1,-4.1463178E-1,9.0197735E-2,-1.9186398E-1,-9.14084E-2,-4.3960395E-1,7.578356E-2,-4.559309E-1,-5.130217E-2,3.0031464E-1,4.8293036E-1,1.1577043E-1,7.2408664E-1,9.6180785E-1,-1.3192543E-1],"categories":[],"categories_nodes":[],"categories_segments":[],"categories_sizes":[],"default_left":[0,0,0,0,0,0,0,0,0,0,0,0,0,0,0,0,0,0,0,0,0,0,0,0,0,0,0,0,0,0,0,0,0,0,0,0,0,0,0,0,0,0,0,0,0,0,0,0,0,0,0],"id":6,"left_children":[1,3,5,7,9,11,13,15,17,19,21,23,25,27,29,-1,-1,-1,-1,-1,-1,31,33,35,37,39,41,43,45,47,49,-1,-1,-1,-1,-1,-1,-1,-1,-1,-1,-1,-1,-1,-1,-1,-1,-1,-1,-1,-1],"loss_changes":[1.1125794E6,6.4593375E4,5.067625E5,1.9977188E3,1.8730188E4,7.222902E4,1.0453625E5,2.44427E2,4.4696094E2,5.573875E3,1.7682656E3,1.0489547E4,1.1541817E4,1.42391875E4,9.588844E3,0E0,0E0,0E0,0E0,0E0,0E0,4.3033838E2,6.338281E2,3.2909219E3,4.781547E3,1.658168E3,3.5809082E3,1.5211052E3,8.6475E3,2.8219219E3,8.284969E3,0E0,0E0,0E0,0E0,0E0,0E0,0E0,0E0,0E0,0E0,0E0,0E0,0E0,0E0,0E0,0E0,0E0,0E0,0E0,0E0],"parents":[2147483647,0,0,1,1,2,2,3,3,4,4,5,5,6,6,7,7,8,8,9,9,10,10,11,11,12,12,13,13,14,14,21,21,22,22,23,23,24,24,25,25,26,26,27,27,28,28,29,29,30,30],"right_children":[2,4,6,8,10,12,14,16,18,20,22,24,26,28,30,-1,-1,-1,-1,-1,-1,32,34,36,38,40,42,44,46,48,50,-1,-1,-1,-1,-1,-1,-1,-1,-1,-1,-1,-1,-1,-1,-1,-1,-1,-1,-1,-1],"split_conditions":[5.5E1,-3.5E1,5.933E1,-5.3E1,4E1,4.333E1,7.6E1,2.5881904E-1,-4E1,-3E1,-1.8369701E-16,3.267E1,5.267E1,8.5E1,8.467E1,-6.452133E-1,-3.1710932E-1,-6.531803E-1,-8.976913E-1,-1.1603044E0,-1.7530117E0,5E1,5E1,9.45E2,9.35E2,4.8E1,7.5E1,7E1,6.867E1,7.5E1,8.660254E-1,-7.207282E-1,-1.863998E-1,-1.2469368E0,-8.736677E-1,-7.164292E-1,-1.3171706E-1,-4.1463178E-1,9.0197735E-2,-1.9186398E-1,-9.14084E-2,-4.3960395E-1,7.578356E-2,-4.559309E-1,-5.130217E-2,3.0031464E-1,4.8293036E-1,1.1577043E-1,7.2408664E-1,9.6180785E-1,-1.3192543E-1],"split_indices":[1,1,0,1,1,0,0,4,1,1,4,0,0,1,0,0,0,0,0,0,0,1,1,1,1,0,1,1,0,1,4,0,0,0,0,0,0,0,0,0,0,0,0,0,0,0,0,0,0,0,0],"split_type":[0,0,0,0,0,0,0,0,0,0,0,0,0,0,0,0,0,0,0,0,0,0,0,0,0,0,0,0,0,0,0,0,0,0,0,0,0,0,0,0,0,0,0,0,0,0,0,0,0,0,0],"sum_hessian":[6.626E3,7.57E2,5.869E3,1.37E2,6.2E2,2.847E3,3.022E3,3.7E1,1E2,5.26E2,9.4E1,9.87E2,1.86E3,1.818E3,1.204E3,5E0,3.2E1,6.6E1,3.4E1,3.7E1,4.89E2,1.2E1,8.2E1,2.84E2,7.03E2,1.061E3,7.99E2,5.9E1,1.759E3,5.75E2,6.29E2,7E0,5E0,5.6E1,2.6E1,2.67E2,1.7E1,6.72E2,3.1E1,5.07E2,5.54E2,2.1E1,7.78E2,2.9E1,3E1,1.069E3,6.9E2,1.3E1,5.62E2,6.18E2,1.1E1],"tree_param":{"num_deleted":"0","num_feature":"5","num_nodes":"51","size_leaf_vector":"1"}},{"base_weights":[-3.280898E-2,-1.400369E1,9.358533E0,-8.317887E0,-3.4708485E1,1.0545558E1,-2.325143E1,-1.7538992E1,-5.492954E0,-1.0982349E0,-3.9606834E1,5.449606E0,1.7688868E1,-2.749489E1,-1.3286138E1,-3.493675E1,-1.4933959E1,-8.566559E0,-3.1769707E0,-1.6144183E0,-3.0563364E1,1.5194068E0,7.5337496E0,1.3505025E1,2.0463423E1,-2.1902777E1,-1.2197456E0,-1.4791011E1,1.3944917E0,-1.4373411E0,-4.2575222E-1,-6.989785E-1,-4.99338E-1,-3.346193E-1,-1.3257358E0,-2.9383063E-1,-1.0946044E-1,-4.8432827E-1,-1.2803155E0,-1.06527604E-1,9.355675E-2,3.7191147E-1,1.7776434E-1,3.7941694E-1,5.7863164E-1,8.609246E-1,5.331305E-1,-1.0408524E0,-5.443955E-1,-3.4142447E-1,-6.505582E-1,2.1535222E-1,-1.2346027E-1],"categories":[],"categories_nodes":[],"categories_segments":[],"categories_sizes":[],"default_left":[0,0,0,0,0,0,0,0,0,0,0,0,0,0,0,0,0,0,0,0,0,0,0,0,0,0,0,0,0,0,0,0,0,0,0,0,0,0,0,0,0,0,0,0,0,0,0,0,0,0,0,0,0],"id":7,"left_children":[1,3,5,7,9,11,13,15,17,-1,19,21,23,25,27,29,31,33,35,-1,37,39,41,43,45,47,-1,49,51,-1,-1,-1,-1,-1,-1,-1,-1,-1,-1,-1,-1,-1,-1,-1,-1,-1,-1,-1,-1,-1,-1,-1,-1],"loss_changes":[8.7348656E5,3.1470044E5,1.544006E5,5.4616266E4,1.9158438E4,1.3974566E5,5.486242E3,2.1676281E4,1.1428242E4,0E0,8.38E2,1.8367828E4,1.8228938E4,8.232656E2,1.0025791E3,1.06675E3,2.413461E3,3.078918E3,1.6645283E3,0E0,3.622793E2,2.6782969E3,7.9401875E3,2.3091953E3,6.904875E3,8.757637E2,0E0,2.013291E2,1.1312608E2,0E0,0E0,0E0,0E0,0E0,0E0,0E0,0E0,0E0,0E0,0E0,0E0,0E0,0E0,0E0,0E0,0E0,0E0,0E0,0E0,0E0,0E0,0E0,0E0],"parents":[2147483647,0,0,1,1,2,2,3,3,4,4,5,5,6,6,7,7,8,8,10,10,11,11,12,12,13,13,14,14,15,15,16,16,17,17,18,18,20,20,21,21,22,22,23,23,24,24,25,25,27,27,28,28],"right_children":[2,4,6,8,10,12,14,16,18,-1,20,22,24,26,28,30,32,34,36,-1,38,40,42,44,46,48,-1,50,52,-1,-1,-1,-1,-1,-1,-1,-1,-1,-1,-1,-1,-1,-1,-1,-1,-1,-1,-1,-1,-1,-1,-1,-1],"split_conditions":[5.267E1,8.660254E-1,8.660254E-1,3.533E1,2.2333333E-1,7.2E1,7.467E1,-8.660254E-1,4.467E1,-1.0982349E0,4.8E1,5.933E1,7.933E1,6.111E1,9.711E1,2.5881904E-1,3E1,5.0446667E1,-8.660254E-1,-1.6144183E0,4.9556667E1,-8.660254E-1,-2.5881904E-1,-8.660254E-1,-2.5881904E-1,5.8E1,-1.2197456E0,8E1,9.9776665E1,-1.4373411E0,-4.2575222E-1,-6.989785E-1,-4.99338E-1,-3.346193E-1,-1.3257358E0,-2.9383063E-1,-1.0946044E-1,-4.8432827E-1,-1.2803155E0,-1.06527604E-1,9.355675E-2,3.7191147E-1,1.7776434E-1,3.7941694E-1,5.7863164E-1,8.609246E-1,5.331305E-1,-1.0408524E0,-5.443955E-1,-3.4142447E-1,-6.505582E-1,2.1535222E-1,-1.2346027E-1],"split_indices":[0,4,4,0,2,0,0,3,0,0,0,0,0,2,2,4,0,2,3,0,2,3,4,3,3,0,0,2,2,0,0,0,0,0,0,0,0,0,0,0,0,0,0,0,0,0,0,0,0,0,0,0,0],"split_type":[0,0,0,0,0,0,0,0,0,0,0,0,0,0,0,0,0,0,0,0,0,0,0,0,0,0,0,0,0,0,0,0,0,0,0,0,0,0,0,0,0,0,0,0,0,0,0,0,0,0,0,0,0],"sum_hessian":[6.655E3,2.675E3,3.98E3,2.1E3,5.75E2,3.841E3,1.39E2,4.91E2,1.609E3,2.35E2,3.4E2,2.243E3,1.598E3,9.6E1,4.3E1,6.2E1,4.29E2,6.9E2,9.19E2,3.1E2,3E1,7.78E2,1.465E3,6.4E2,9.58E2,3.7E1,5.9E1,3.9E1,4E0,5.9E1,3E0,2.07E2,2.22E2,6.86E2,4E0,8.6E1,8.33E2,3E0,2.7E1,1.27E2,6.51E2,9.31E2,5.34E2,1.26E2,5.14E2,8.32E2,1.26E2,2.3E1,1.4E1,9E0,3E1,2E0,2E0],"tree_param":{"num_deleted":"0","num_feature":"5","num_nodes":"53","size_leaf_vector":"1"}},{"base_weights":[-1.1460416E-1,-3.330965E1,4.239183E0,-1.5032372E1,-3.7428204E1,-4.656257E0,1.2571942E1,-1.0661647E1,-1.8763546E1,-3.9203888E1,-2.1587856E1,-1.0424368E1,-9.0846515E-1,8.776222E0,1.9695917E1,-6.568526E-1,-9.3541765E0,-6.34815E-1,-8.402386E-1,-1.0620974E0,-4.00296E1,-2.347085E1,-1.1886062E1,-1.3156734E1,-7.5498953E0,-3.3539324E0,1.0612804E0,-6.4327464E0,9.237283E0,1.5211233E0,2.0279634E1,-3.0244195E-1,-4.4000205E-1,-1.6237288E0,-1.2608846E0,-3.2939696E-1,-9.6674484E-1,-5.6114763E-1,-2.1332352E-1,-5.5011916E-1,4.288479E-2,-3.170208E-1,7.231123E-2,-1.6825397E-1,-4.141189E-2,-3.8562027E-1,5.299786E-2,5.0335073E-1,-3.2344505E-1,2.9192346E-1,5.046366E-1,4.722264E-1,-8.624374E-2,5.210281E-1,8.552817E-1],"categories":[],"categories_nodes":[],"categories_segments":[],"categories_sizes":[],"default_left":[0,0,0,0,0,0,0,0,0,0,0,0,0,0,0,0,0,0,0,0,0,0,0,0,0,0,0,0,0,0,0,0,0,0,0,0,0,0,0,0,0,0,0,0,0,0,0,0,0,0,0,0,0,0,0],"id":8,"left_children":[1,3,5,7,9,11,13,15,17,19,21,23,25,27,29,-1,31,-1,-1,-1,33,35,37,39,41,43,45,47,49,51,53,-1,-1,-1,-1,-1,-1,-1,-1,-1,-1,-1,-1,-1,-1,-1,-1,-1,-1,-1,-1,-1,-1,-1,-1],"loss_changes":[9.637438E5,5.7522875E4,4.3704428E5,2.1086016E3,1.6704312E4,6.1645453E4,8.210678E4,3.3420996E2,9.062695E1,4.6221875E3,8.710586E2,8.700461E3,8.338783E3,1.4013344E4,1.11765625E4,0E0,7.3052734E1,0E0,0E0,0E0,9.9E2,3.3413672E2,9.362024E1,4.890414E3,1.9517441E3,1.5204609E3,2.7210698E3,1.9829932E3,1.2533875E4,1.3249016E3,7.8526562E3,0E0,0E0,0E0,0E0,0E0,0E0,0E0,0E0,0E0,0E0,0E0,0E0,0E0,0E0,0E0,0E0,0E0,0E0,0E0,0E0,0E0,0E0,0E0,0E0],"parents":[2147483647,0,0,1,1,2,2,3,3,4,4,5,5,6,6,7,7,8,8,9,9,10,10,11,11,12,12,13,13,14,14,16,16,20,20,21,21,22,22,23,23,24,24,25,25,26,26,27,27,28,28,29,29,30,30],"right_children":[2,4,6,8,10,12,14,16,18,20,22,24,26,28,30,-1,32,-1,-1,-1,34,36,38,40,42,44,46,48,50,52,54,-1,-1,-1,-1,-1,-1,-1,-1,-1,-1,-1,-1,-1,-1,-1,-1,-1,-1,-1,-1,-1,-1,-1,-1],"split_conditions":[5.5E1,-3.5E1,5.933E1,-4.5E1,4.5E1,4.467E1,7.8E1,2.5881904E-1,-4E1,-3E1,8.2E1,3.8E1,5.133E1,8E1,7E1,-6.568526E-1,-5E1,-6.34815E-1,-8.402386E-1,-1.0620974E0,4E1,-1.8369701E-16,8.867E1,9.45E2,9.25E2,7.55E2,7.5E1,-2.5881904E-1,7E1,-1.8369701E-16,-8.660254E-1,-3.0244195E-1,-4.4000205E-1,-1.6237288E0,-1.2608846E0,-3.2939696E-1,-9.6674484E-1,-5.6114763E-1,-2.1332352E-1,-5.5011916E-1,4.288479E-2,-3.170208E-1,7.231123E-2,-1.6825397E-1,-4.141189E-2,-3.8562027E-1,5.299786E-2,5.0335073E-1,-3.2344505E-1,2.9192346E-1,5.046366E-1,4.722264E-1,-8.624374E-2,5.210281E-1,8.552817E-1],"split_indices":[1,1,0,1,1,0,0,4,1,1,0,0,0,1,1,0,1,0,0,0,1,4,0,1,1,1,1,4,0,4,4,0,0,0,0,0,0,0,0,0,0,0,0,0,0,0,0,0,0,0,0,0,0,0,0],"split_type":[0,0,0,0,0,0,0,0,0,0,0,0,0,0,0,0,0,0,0,0,0,0,0,0,0,0,0,0,0,0,0,0,0,0,0,0,0,0,0,0,0,0,0,0,0,0,0,0,0,0,0,0,0,0,0],"sum_hessian":[6.666E3,7.72E2,5.894E3,1.43E2,6.29E2,2.851E3,3.043E3,6.8E1,7.5E1,5.64E2,6.5E1,1.122E3,1.729E3,1.987E3,1.056E3,1E1,5.8E1,3.7E1,3.8E1,3.7E1,5.27E2,5.3E1,1.2E1,5.73E2,5.49E2,7.71E2,9.58E2,5.8E1,1.929E3,3.3E1,1.023E3,3.1E1,2.7E1,4.9E2,3.7E1,3E0,5E1,8E0,4E0,5.5E2,2.3E1,5.28E2,2.1E1,5.63E2,2.08E2,2.2E1,9.36E2,4E0,5.4E1,1.228E3,7.01E2,8E0,2.5E1,1.37E2,8.86E2],"tree_param":{"num_deleted":"0","num_feature":"5","num_nodes":"55","size_leaf_vector":"1"}},{"base_weights":[1.9117108E-1,-3.178757E1,4.264093E0,-1.2905748E1,-3.5720253E1,-4.3948355E0,1.2262533E1,-8.752016E0,-1.7075493E1,-3.770743E1,-1.9760841E1,-1.0830417E1,-1.3365432E0,7.9013233E0,1.8696756E1,-6.0234666E-1,-7.612089E0,-5.574217E-1,-7.8002673E-1,-1.0260055E0,-3.8466606E1,-7.8554034E0,-2.1778006E1,-1.5442179E1,-9.048861E0,-2.7710783E0,2.0376887E0,-5.6261377E0,8.420123E0,2.035411E1,1.3354296E1,-2.4545024E-1,-3.4350044E-1,-1.5595642E0,-1.1898818E0,-5.034809E-1,1.8918748E-1,-8.8551795E-1,-2.8134096E-1,-6.4412254E-1,-2.3511423E-1,-3.8537994E-1,1.2500377E-1,-1.8024397E-1,-6.073734E-2,-3.900058E-1,9.415632E-2,3.5680774E-1,-2.6802966E-1,2.663739E-1,4.4977495E-1,6.8780696E-1,8.862246E-1,-2.0067379E-1,5.714952E-1],"categories":[],"categories_nodes":[],"categories_segments":[],"categories_sizes":[],"default_left":[0,0,0,0,0,0,0,0,0,0,0,0,0,0,0,0,0,0,0,0,0,0,0,0,0,0,0,0,0,0,0,0,0,0,0,0,0,0,0,0,0,0,0,0,0,0,0,0,0,0,0,0,0,0,0],"id":9,"left_children":[1,3,5,7,9,11,13,15,17,19,21,23,25,27,29,-1,31,-1,-1,-1,33,35,37,39,41,43,45,47,49,51,53,-1,-1,-1,-1,-1,-1,-1,-1,-1,-1,-1,-1,-1,-1,-1,-1,-1,-1,-1,-1,-1,-1,-1,-1],"loss_changes":[8.6489525E5,5.5148875E4,4.0800847E5,2.0904668E3,1.8769312E4,5.5665414E4,8.57485E4,3.5047705E2,1.5943164E2,3.845875E3,1.5016289E3,7.3163906E3,9.29665E3,1.2880492E4,1.0616219E4,0E0,2.195459E1,0E0,0E0,0E0,9.485625E2,7.987088E2,1.2972656E2,1.4783555E3,4.7436914E3,2.9191445E3,2.163428E3,1.1375757E3,8.661594E3,4.8950625E3,5.1643438E3,0E0,0E0,0E0,0E0,0E0,0E0,0E0,0E0,0E0,0E0,0E0,0E0,0E0,0E0,0E0,0E0,0E0,0E0,0E0,0E0,0E0,0E0,0E0,0E0],"parents":[2147483647,0,0,1,1,2,2,3,3,4,4,5,5,6,6,7,7,8,8,9,9,10,10,11,11,12,12,13,13,14,14,16,16,20,20,21,21,22,22,23,23,24,24,25,25,26,26,27,27,28,28,29,29,30,30],"right_children":[2,4,6,8,10,12,14,16,18,20,22,24,26,28,30,-1,32,-1,-1,-1,34,36,38,40,42,44,46,48,50,52,54,-1,-1,-1,-1,-1,-1,-1,-1,-1,-1,-1,-1,-1,-1,-1,-1,-1,-1,-1,-1,-1,-1,-1,-1],"split_conditions":[5.5E1,-3.5E1,5.933E1,-4.5E1,4.5E1,4.267E1,7.6E1,-9.659258E-1,-4E1,-3E1,-8.660254E-1,3.2E1,5.467E1,8.5E1,-5E-1,-6.0234666E-1,-5E1,-5.574217E-1,-7.8002673E-1,-1.0260055E0,4E1,8.867E1,9.6223335E1,9.45E2,9.35E2,4.8E1,7.5E1,-7.0710677E-1,6.867E1,2.6E2,6.5E1,-2.4545024E-1,-3.4350044E-1,-1.5595642E0,-1.1898818E0,-5.034809E-1,1.8918748E-1,-8.8551795E-1,-2.8134096E-1,-6.4412254E-1,-2.3511423E-1,-3.8537994E-1,1.2500377E-1,-1.8024397E-1,-6.073734E-2,-3.900058E-1,9.415632E-2,3.5680774E-1,-2.6802966E-1,2.663739E-1,4.4977495E-1,6.8780696E-1,8.862246E-1,-2.0067379E-1,5.714952E-1],"split_indices":[1,1,0,1,1,0,0,3,1,1,3,0,0,1,3,0,1,0,0,0,1,0,2,1,1,0,1,3,0,1,1,0,0,0,0,0,0,0,0,0,0,0,0,0,0,0,0,0,0,0,0,0,0,0,0],"split_type":[0,0,0,0,0,0,0,0,0,0,0,0,0,0,0,0,0,0,0,0,0,0,0,0,0,0,0,0,0,0,0,0,0,0,0,0,0,0,0,0,0,0,0,0,0,0,0,0,0,0,0,0,0,0,0],"sum_hessian":[6.638E3,7.49E2,5.889E3,1.3E2,6.19E2,2.828E3,3.061E3,6.7E1,6.3E1,5.49E2,7E1,9.1E2,1.918E3,1.826E3,1.235E3,8E0,5.9E1,3.1E1,3.2E1,3.5E1,5.14E2,1.1E1,5.9E1,2.51E2,6.59E2,1.346E3,5.72E2,6.7E1,1.759E3,9.4E2,2.95E2,2.7E1,3.2E1,4.81E2,3.3E1,8E0,3E0,5.7E1,2E0,2.34E2,1.7E1,6.29E2,3E1,5.63E2,7.83E2,1.4E1,5.58E2,4E0,6.3E1,1.086E3,6.73E2,3.46E2,5.94E2,1.4E1,2.81E2],"tree_param":{"num_deleted":"0","num_feature":"5","num_nodes":"55","size_leaf_vector":"1"}},{"base_weights":[-5.0080746E-2,-3.0244081E1,3.9114447E0,-1.2846169E1,-3.42521E1,-3.4600878E0,1.2375396E1,-9.203218E0,-1.6795778E1,-3.6566345E1,-2.2615433E1,-9.032645E0,6.006908E-2,8.785112E0,1.811062E1,-6.4321977E-1,-7.663583E0,-8.8030887E-1,-6.222252E-1,-9.511991E-1,-1.4963411E0,-2.4329542E1,-1.0426004E1,-1.1570174E1,-6.493815E0,-2.081365E0,1.9867922E0,-7.2488513E0,9.113272E0,4.6507907E0,1.8767624E1,-2.5504193E-1,-3.6118373E-1,-1.0756766E0,-7.3129064E-1,-7.324313E-2,-6.3126737E-1,-5.0543875E-1,-4.5939155E-2,-3.1095088E-1,-1.4491738E-1,-2.7023396E-1,-6.817614E-2,-4.3433085E-1,9.741531E-2,1.2558375E-1,-3.501147E-1,3.0362105E-1,5.001343E-1,6.862294E-1,7.2397827E-3,7.935195E-1,4.7828615E-1],"categories":[],"categories_nodes":[],"categories_segments":[],"categories_sizes":[],"default_left":[0,0,0,0,0,0,0,0,0,0,0,0,0,0,0,0,0,0,0,0,0,0,0,0,0,0,0,0,0,0,0,0,0,0,0,0,0,0,0,0,0,0,0,0,0,0,0,0,0,0,0,0,0],"id":10,"left_children":[1,3,5,7,9,11,13,15,17,19,21,23,25,27,29,-1,31,-1,-1,-1,-1,33,35,37,39,41,43,45,47,49,51,-1,-1,-1,-1,-1,-1,-1,-1,-1,-1,-1,-1,-1,-1,-1,-1,-1,-1,-1,-1,-1,-1],"loss_changes":[7.8914444E5,5.2825625E4,3.639366E5,1.901082E3,1.57306875E4,6.1169023E4,5.571525E4,6.7776514E2,2.6246094E1,4.4850625E3,1.9110742E3,7.685242E3,7.894595E3,8.87807E3,9.126969E3,0E0,4.580298E1,0E0,0E0,0E0,0E0,8.341836E2,6.632435E2,6.6700703E3,2.1926074E3,1.5821516E3,5.8345547E3,5.678921E2,8.346031E3,2.8004465E3,6.9668125E3,0E0,0E0,0E0,0E0,0E0,0E0,0E0,0E0,0E0,0E0,0E0,0E0,0E0,0E0,0E0,0E0,0E0,0E0,0E0,0E0,0E0,0E0],"parents":[2147483647,0,0,1,1,2,2,3,3,4,4,5,5,6,6,7,7,8,8,9,9,10,10,11,11,12,12,13,13,14,14,16,16,21,21,22,22,23,23,24,24,25,25,26,26,27,27,28,28,29,29,30,30],"right_children":[2,4,6,8,10,12,14,16,18,20,22,24,26,28,30,-1,32,-1,-1,-1,-1,34,36,38,40,42,44,46,48,50,52,-1,-1,-1,-1,-1,-1,-1,-1,-1,-1,-1,-1,-1,-1,-1,-1,-1,-1,-1,-1,-1,-1],"split_conditions":[5.5E1,-3.5E1,6.1553333E1,-4.5E1,4E1,4.533E1,7.778E1,-9.659258E-1,-9.659258E-1,-3E1,8.755334E1,3.778E1,5.3333332E1,7.5E1,7.5E1,-6.4321977E-1,-5E1,-8.8030887E-1,-6.222252E-1,-9.511991E-1,-1.4963411E0,5E1,-8.660254E-1,9.4E2,7.2E2,-9.659258E-1,7.5E1,-7.0710677E-1,7.155666E1,-7.0710677E-1,-2.5881904E-1,-2.5504193E-1,-3.6118373E-1,-1.0756766E0,-7.3129064E-1,-7.324313E-2,-6.3126737E-1,-5.0543875E-1,-4.5939155E-2,-3.1095088E-1,-1.4491738E-1,-2.7023396E-1,-6.817614E-2,-4.3433085E-1,9.741531E-2,1.2558375E-1,-3.501147E-1,3.0362105E-1,5.001343E-1,6.862294E-1,7.2397827E-3,7.935195E-1,4.7828615E-1],"split_indices":[1,1,2,1,1,2,2,3,3,1,2,2,2,1,1,0,1,0,0,0,0,1,3,1,1,4,1,3,2,3,3,0,0,0,0,0,0,0,0,0,0,0,0,0,0,0,0,0,0,0,0,0,0],"split_type":[0,0,0,0,0,0,0,0,0,0,0,0,0,0,0,0,0,0,0,0,0,0,0,0,0,0,0,0,0,0,0,0,0,0,0,0,0,0,0,0,0,0,0,0,0,0,0,0,0,0,0,0,0],"sum_hessian":[6.595E3,7.64E2,5.831E3,1.44E2,6.2E2,3.117E3,2.714E3,7.7E1,6.7E1,5.15E2,1.05E2,1.206E3,1.911E3,1.671E3,1.043E3,1.2E1,6.5E1,9E0,5.8E1,3.4E1,4.81E2,9.1E1,1.4E1,6.01E2,6.05E2,9.05E2,1.006E3,3.3E1,1.638E3,4.9E1,9.94E2,3.7E1,2.8E1,6.1E1,3E1,6E0,8E0,5.45E2,5.6E1,4.17E2,1.88E2,6.6E1,8.39E2,3.3E1,9.73E2,4E0,2.9E1,1.133E3,5.05E2,1.2E1,3.7E1,8.57E2,1.37E2],"tree_param":{"num_deleted":"0","num_feature":"5","num_nodes":"53","size_leaf_vector":"1"}},{"base_weights":[-1.1073243E-1,-2.9418356E1,3.7241771E0,-1.3205465E1,-3.310707E1,-4.153493E0,1.1274147E1,-9.650642E0,-6.755775E-1,-3.4763603E1,-1.898906E1,-9.828008E0,-1.0849081E0,7.7708507E0,1.7646599E1,-6.0310215E-1,-8.556047E0,-9.3894684E-1,-3.5489178E1,-2.0883837E1,-4.1029124E0,-1.5669059E1,-8.455652E0,-3.0849988E0,1.1407384E0,5.266196E0,9.868635E0,1.0421124E0,1.8144938E1,-2.8132385E-1,-3.8925323E-1,-1.4388038E0,-1.0950398E0,-9.750427E-1,-6.678843E-1,8.517728E-2,-3.7630644E-1,-4.2407325E-1,-6.585898E-1,-3.595949E-1,1.3519803E-1,-1.3015498E-1,2.644369E-1,-3.1745714E-1,5.70915E-2,-3.479181E-1,2.3075843E-1,4.432293E-1,2.6697287E-1,5.442494E-1,-9.818149E-2,4.7258386E-1,7.6334524E-1],"categories":[],"categories_nodes":[],"categories_segments":[],"categories_sizes":[],"default_left":[0,0,0,0,0,0,0,0,0,0,0,0,0,0,0,0,0,0,0,0,0,0,0,0,0,0,0,0,0,0,0,0,0,0,0,0,0,0,0,0,0,0,0,0,0,0,0,0,0,0,0,0,0],"id":11,"left_children":[1,3,5,7,9,11,13,15,-1,17,19,21,23,25,27,-1,29,-1,31,33,35,37,39,41,43,45,47,49,51,-1,-1,-1,-1,-1,-1,-1,-1,-1,-1,-1,-1,-1,-1,-1,-1,-1,-1,-1,-1,-1,-1,-1,-1],"loss_changes":[7.452036E5,4.5352938E4,3.4877756E5,1.6901797E3,1.3800625E4,4.996413E4,6.667719E4,2.9547998E2,0E0,3.558875E3,1.8183242E3,7.9123125E3,8.302894E3,1.0098859E4,8.756469E3,0E0,3.468506E1,0E0,8.455E2,3.8766797E2,3.2892886E2,5.546953E2,5.2103633E3,1.6337393E3,2.3101948E3,6.2676113E3,3.9795234E3,1.4558129E3,5.8480312E3,0E0,0E0,0E0,0E0,0E0,0E0,0E0,0E0,0E0,0E0,0E0,0E0,0E0,0E0,0E0,0E0,0E0,0E0,0E0,0E0,0E0,0E0,0E0,0E0],"parents":[2147483647,0,0,1,1,2,2,3,3,4,4,5,5,6,6,7,7,9,9,10,10,11,11,12,12,13,13,14,14,16,16,18,18,19,19,20,20,21,21,22,22,23,23,24,24,25,25,26,26,27,27,28,28],"right_children":[2,4,6,8,10,12,14,16,-1,18,20,22,24,26,28,-1,30,-1,32,34,36,38,40,42,44,46,48,50,52,-1,-1,-1,-1,-1,-1,-1,-1,-1,-1,-1,-1,-1,-1,-1,-1,-1,-1,-1,-1,-1,-1,-1,-1],"split_conditions":[5.5E1,-3.5E1,5.933E1,-4.5E1,4.5E1,4.333E1,7.8E1,2.5881904E-1,-6.755775E-1,-3E1,8.644334E1,3E1,5.2E1,6.667E1,7E1,-6.0310215E-1,-5E1,-9.3894684E-1,4E1,5E1,-1.8369701E-16,1.689E1,9.35E2,9.35E2,8.5E1,8E1,-1.8369701E-16,-1.8369701E-16,-8.660254E-1,-2.8132385E-1,-3.8925323E-1,-1.4388038E0,-1.0950398E0,-9.750427E-1,-6.678843E-1,8.517728E-2,-3.7630644E-1,-4.2407325E-1,-6.585898E-1,-3.595949E-1,1.3519803E-1,-1.3015498E-1,2.644369E-1,-3.1745714E-1,5.70915E-2,-3.479181E-1,2.3075843E-1,4.432293E-1,2.6697287E-1,5.442494E-1,-9.818149E-2,4.7258386E-1,7.6334524E-1],"split_indices":[1,1,0,1,1,0,0,4,0,1,2,0,0,0,1,0,1,0,1,1,4,2,1,1,1,1,4,4,4,0,0,0,0,0,0,0,0,0,0,0,0,0,0,0,0,0,0,0,0,0,0,0,0],"split_type":[0,0,0,0,0,0,0,0,0,0,0,0,0,0,0,0,0,0,0,0,0,0,0,0,0,0,0,0,0,0,0,0,0,0,0,0,0,0,0,0,0,0,0,0,0,0,0,0,0,0,0,0,0],"sum_hessian":[6.628E3,7.66E2,5.862E3,1.43E2,6.23E2,2.869E3,2.993E3,7.5E1,6.8E1,5.56E2,6.7E1,1.006E3,1.863E3,1.933E3,1.06E3,1E1,6.5E1,3.6E1,5.2E2,5.9E1,8E0,1.89E2,8.17E2,9.81E2,8.82E2,8.83E2,1.05E3,3.1E1,1.029E3,3.2E1,3.3E1,4.87E2,3.3E1,2.9E1,3E1,4E0,4E0,2.8E1,1.61E2,7.82E2,3.5E1,9.65E2,1.6E1,2.6E1,8.56E2,3E1,8.53E2,7.59E2,2.91E2,6E0,2.5E1,1.35E2,8.94E2],"tree_param":{"num_deleted":"0","num_feature":"5","num_nodes":"53","size_leaf_vector":"1"}},{"base_weights":[-4.008349E-2,-2.7283354E1,3.5625536E0,-1.2189837E1,-3.0605356E1,-3.9479957E0,1.07565E1,-8.633234E0,-1.5493196E1,-3.3347034E1,-1.6701773E1,-9.768142E0,-1.1028582E0,7.3046756E0,1.6899006E1,-5.645253E-1,-7.5664353E0,-8.479501E-1,-1.3931647E1,-9.112518E-1,-3.40384E1,-3.8961685E0,-1.8896008E1,-1.5211325E1,-8.214843E0,-3.1436129E0,1.2284635E0,6.200367E0,1.0872411E1,1.8041012E1,1.134122E1,-2.3730963E-1,-3.4771487E-1,-4.4461352E-1,-6.3853073E-1,-1.3811178E0,-1.0390009E0,-3.7102953E-1,2.970962E-1,-8.3854544E-1,-5.4563576E-1,-1.8468599E-1,-6.378408E-1,-3.4968218E-1,1.619222E-1,-1.6307062E-1,-7.88146E-2,7.574825E-2,-5.8107402E-2,-2.5421253E-1,2.5903195E-1,-1.9527653E-1,4.424582E-1,2.5594082E-1,7.397069E-1,8.5027814E-2,4.6951336E-1],"categories":[],"categories_nodes":[],"categories_segments":[],"categories_sizes":[],"default_left":[0,0,0,0,0,0,0,0,0,0,0,0,0,0,0,0,0,0,0,0,0,0,0,0,0,0,0,0,0,0,0,0,0,0,0,0,0,0,0,0,0,0,0,0,0,0,0,0,0,0,0,0,0,0,0,0,0],"id":12,"left_children":[1,3,5,7,9,11,13,15,17,19,21,23,25,27,29,-1,31,-1,33,-1,35,37,39,41,43,45,47,49,51,53,55,-1,-1,-1,-1,-1,-1,-1,-1,-1,-1,-1,-1,-1,-1,-1,-1,-1,-1,-1,-1,-1,-1,-1,-1,-1,-1],"loss_changes":[6.5311475E5,3.8517375E4,3.1759962E5,1.507752E3,2.3578062E4,4.7613316E4,6.3504688E4,2.859204E2,2.8535156E2,2.93675E3,2.921537E3,7.8308203E3,9.202327E3,7.4985156E3,6.6012188E3,0E0,5.1114014E1,0E0,1.2881152E2,0E0,8.725E2,1.130613E3,6.443262E2,1.5301211E3,4.809039E3,1.1187324E3,1.614306E3,5.1406094E3,1.4151719E3,4.5523438E3,6.528906E2,0E0,0E0,0E0,0E0,0E0,0E0,0E0,0E0,0E0,0E0,0E0,0E0,0E0,0E0,0E0,0E0,0E0,0E0,0E0,0E0,0E0,0E0,0E0,0E0,0E0,0E0],"parents":[2147483647,0,0,1,1,2,2,3,3,4,4,5,5,6,6,7,7,8,8,9,9,10,10,11,11,12,12,13,13,14,14,16,16,18,18,20,20,21,21,22,22,23,23,24,24,25,25,26,26,27,27,28,28,29,29,30,30],"right_children":[2,4,6,8,10,12,14,16,18,20,22,24,26,28,30,-1,32,-1,34,-1,36,38,40,42,44,46,48,50,52,54,56,-1,-1,-1,-1,-1,-1,-1,-1,-1,-1,-1,-1,-1,-1,-1,-1,-1,-1,-1,-1,-1,-1,-1,-1,-1,-1],"split_conditions":[6E1,-3.5E1,5.933E1,-4.5E1,4.5E1,4.267E1,7.733E1,-9.659258E-1,-9.659258E-1,-3E1,-8.660254E-1,3E1,5.2E1,7.2E1,-2.5881904E-1,-5.645253E-1,-5E1,-8.479501E-1,-4E1,-9.112518E-1,4E1,8.711E1,6.867E1,-2.5881904E-1,9.4E2,4.8E1,8.05E2,8.5E1,7E1,7.5E1,3.85E2,-2.3730963E-1,-3.4771487E-1,-4.4461352E-1,-6.3853073E-1,-1.3811178E0,-1.0390009E0,-3.7102953E-1,2.970962E-1,-8.3854544E-1,-5.4563576E-1,-1.8468599E-1,-6.378408E-1,-3.4968218E-1,1.619222E-1,-1.6307062E-1,-7.88146E-2,7.574825E-2,-5.8107402E-2,-2.5421253E-1,2.5903195E-1,-1.9527653E-1,4.424582E-1,2.5594082E-1,7.397069E-1,8.5027814E-2,4.6951336E-1],"split_indices":[1,1,0,1,1,0,0,3,3,1,3,0,0,0,3,0,1,0,1,0,1,2,0,3,1,0,1,1,1,1,1,0,0,0,0,0,0,0,0,0,0,0,0,0,0,0,0,0,0,0,0,0,0,0,0,0,0],"split_type":[0,0,0,0,0,0,0,0,0,0,0,0,0,0,0,0,0,0,0,0,0,0,0,0,0,0,0,0,0,0,0,0,0,0,0,0,0,0,0,0,0,0,0,0,0,0,0,0,0,0,0,0,0,0,0,0,0],"sum_hessian":[6.652E3,7.76E2,5.876E3,1.41E2,6.35E2,2.875E3,3.001E3,7E1,7.1E1,5.29E2,1.06E2,9.43E2,1.932E3,1.923E3,1.078E3,9E0,6.1E1,1.2E1,5.9E1,3.5E1,4.94E2,1.6E1,9E1,2.07E2,7.36E2,1.03E3,9.02E2,1.471E3,4.52E2,8.92E2,1.86E2,2.8E1,3.3E1,2.8E1,3.1E1,4.62E2,3.2E1,1.1E1,5E0,6.2E1,2.8E1,1.4E1,1.93E2,7.06E2,3E1,5.72E2,4.58E2,7.23E2,1.79E2,3.1E1,1.44E3,5E0,4.47E2,3.4E1,8.58E2,8E0,1.78E2],"tree_param":{"num_deleted":"0","num_feature":"5","num_nodes":"57","size_leaf_vector":"1"}},{"base_weights":[2.047759E-2,-2.6866426E1,3.4715962E0,-1.1361206E1,-3.045404E1,-3.701398E0,1.0213987E1,-7.2700006E-1,-9.887383E0,-3.2091904E1,-1.742077E1,-8.326151E0,-6.777952E-1,7.1352763E0,1.6487719E1,-6.8430405E0,-1.2549729E1,-8.5761106E-1,-3.268499E1,-1.8621254E1,-1.2148255E0,-1.27184305E1,-6.812932E0,-2.40155E0,1.31049E0,-6.845436E0,7.4975357E0,9.6335775E-1,1.7066044E1,-2.2318207E-1,-3.1633696E-1,-4.0716684E-1,-5.834544E-1,-1.3385086E0,-1.0808048E0,-8.62096E-1,-5.970299E-1,2.787975E-1,-2.8510207E-1,-5.376527E-1,-1.3303024E-1,-2.8991964E-1,1.1377922E-1,-2.782044E-1,-8.0563344E-2,1.1955075E-1,-1.2400326E-2,4.0574944E-1,-3.252321E-1,2.4491124E-1,4.4053748E-1,4.195895E-1,-1.0079207E-1,7.1813315E-1,4.4229522E-1],"categories":[],"categories_nodes":[],"categories_segments":[],"categories_sizes":[],"default_left":[0,0,0,0,0,0,0,0,0,0,0,0,0,0,0,0,0,0,0,0,0,0,0,0,0,0,0,0,0,0,0,0,0,0,0,0,0,0,0,0,0,0,0,0,0,0,0,0,0,0,0,0,0,0,0],"id":13,"left_children":[1,3,5,7,9,11,13,-1,15,17,19,21,23,25,27,29,31,-1,33,35,37,39,41,43,45,47,49,51,53,-1,-1,-1,-1,-1,-1,-1,-1,-1,-1,-1,-1,-1,-1,-1,-1,-1,-1,-1,-1,-1,-1,-1,-1,-1,-1],"loss_changes":[6.176449E5,4.1701188E4,2.853498E5,1.2296523E3,1.24353125E4,3.997372E4,5.859725E4,0E0,8.773447E2,2.5915E3,1.3560645E3,7.405914E3,5.9338286E3,1.0404672E4,8.958406E3,2.5389404E1,1.24475586E2,0E0,1.17E3,3.274121E2,3.5967456E2,1.9015156E3,3.5679297E3,1.6182012E3,2.1885205E3,1.2386777E3,9.541836E3,1.2668822E3,4.8994062E3,0E0,0E0,0E0,0E0,0E0,0E0,0E0,0E0,0E0,0E0,0E0,0E0,0E0,0E0,0E0,0E0,0E0,0E0,0E0,0E0,0E0,0E0,0E0,0E0,0E0,0E0],"parents":[2147483647,0,0,1,1,2,2,3,3,4,4,5,5,6,6,8,8,9,9,10,10,11,11,12,12,13,13,14,14,15,15,16,16,18,18,19,19,20,20,21,21,22,22,23,23,24,24,25,25,26,26,27,27,28,28],"right_children":[2,4,6,8,10,12,14,-1,16,18,20,22,24,26,28,30,32,-1,34,36,38,40,42,44,46,48,50,52,54,-1,-1,-1,-1,-1,-1,-1,-1,-1,-1,-1,-1,-1,-1,-1,-1,-1,-1,-1,-1,-1,-1,-1,-1,-1,-1],"split_conditions":[5.5E1,-3.5E1,5.933E1,-9.659258E-1,4.5E1,4.467E1,7.867E1,-7.2700006E-1,-4.5E1,-3E1,8.867E1,3.267E1,5.267E1,7.5E1,7E1,-5E1,-4E1,-8.5761106E-1,3.5E1,5E1,9.667E1,9.45E2,9.35E2,-9.659258E-1,-5E-1,-2.5881904E-1,7.2E1,-7.0710677E-1,1.2246469E-16,-2.2318207E-1,-3.1633696E-1,-4.0716684E-1,-5.834544E-1,-1.3385086E0,-1.0808048E0,-8.62096E-1,-5.970299E-1,2.787975E-1,-2.8510207E-1,-5.376527E-1,-1.3303024E-1,-2.8991964E-1,1.1377922E-1,-2.782044E-1,-8.0563344E-2,1.1955075E-1,-1.2400326E-2,4.0574944E-1,-3.252321E-1,2.4491124E-1,4.4053748E-1,4.195895E-1,-1.0079207E-1,7.1813315E-1,4.4229522E-1],"split_indices":[1,1,0,3,1,0,0,0,1,1,0,0,0,1,1,1,1,0,1,1,0,1,1,4,4,4,0,3,3,0,0,0,0,0,0,0,0,0,0,0,0,0,0,0,0,0,0,0,0,0,0,0,0,0,0],"split_type":[0,0,0,0,0,0,0,0,0,0,0,0,0,0,0,0,0,0,0,0,0,0,0,0,0,0,0,0,0,0,0,0,0,0,0,0,0,0,0,0,0,0,0,0,0,0,0,0,0,0,0,0,0,0,0],"sum_hessian":[6.654E3,7.56E2,5.898E3,1.43E2,6.13E2,2.858E3,3.04E3,2.3E1,1.2E2,5.43E2,7E1,1.129E3,1.729E3,2.041E3,9.99E2,5.8E1,6.2E1,3.1E1,5.12E2,6.5E1,5E0,2.87E2,8.42E2,9.26E2,8.03E2,5.1E1,1.99E3,3.6E1,9.63E2,3E1,2.8E1,3.2E1,3E1,4.45E2,6.7E1,3.3E1,3.2E1,2E0,3E0,2.66E2,2.1E1,8.06E2,3.6E1,7.1E1,8.55E2,3.94E2,4.09E2,3E0,4.8E1,1.433E3,5.57E2,9E0,2.7E1,8.37E2,1.26E2],"tree_param":{"num_deleted":"0","num_feature":"5","num_nodes":"55","size_leaf_vector":"1"}},{"base_weights":[-4.6017166E-2,-2.5960373E1,3.2609136E0,-1.1243271E1,-2.9231598E1,-3.7667053E0,9.973631E0,-9.457532E0,-6.577301E-1,-3.0712315E1,-1.6474567E1,-7.979307E0,-5.5528E-1,6.3918395E0,1.4375051E1,-6.218778E-1,-8.263415E0,-8.242382E-1,-3.128299E1,-5.8007774E0,-1.8438103E1,-1.0208581E1,-5.748834E0,-1.8689396E0,1.1000371E0,-6.356316E0,6.80322E0,8.3197E-1,1.4824904E1,-2.1966927E-1,-3.700373E-1,-1.2831593E0,-1.0201193E0,-3.8681316E-1,1.7235751E-1,-7.5118333E-1,-2.2834966E-1,-4.44348E-1,-4.6488464E-2,-2.718396E-1,-1.2305666E-1,-2.744031E-1,-5.8474302E-2,-4.5603576E-1,5.665791E-2,-3.3036768E-1,-8.587526E-2,1.18592165E-1,3.1537402E-1,4.8938942E-1,-1.4914875E-1,4.8618758E-1,6.8448836E-1],"categories":[],"categories_nodes":[],"categories_segments":[],"categories_sizes":[],"default_left":[0,0,0,0,0,0,0,0,0,0,0,0,0,0,0,0,0,0,0,0,0,0,0,0,0,0,0,0,0,0,0,0,0,0,0,0,0,0,0,0,0,0,0,0,0,0,0,0,0,0,0,0,0],"id":14,"left_children":[1,3,5,7,9,11,13,15,-1,17,19,21,23,25,27,-1,29,-1,31,33,35,37,39,41,43,45,47,49,51,-1,-1,-1,-1,-1,-1,-1,-1,-1,-1,-1,-1,-1,-1,-1,-1,-1,-1,-1,-1,-1,-1,-1,-1],"loss_changes":[5.756619E5,3.6199812E4,2.8107316E5,1.112666E3,1.1122375E4,3.937787E4,4.7926688E4,6.229551E2,0E0,2.4233125E3,1.2776328E3,6.1891406E3,3.5974656E3,8.873969E3,8.3070625E3,0E0,1.8992139E2,0E0,1.4196875E3,5.278036E2,1.1319141E2,5.0985938E3,1.7430957E3,1.860862E3,2.9145444E3,4.0381543E2,6.735914E3,2.406196E3,7.8229375E3,0E0,0E0,0E0,0E0,0E0,0E0,0E0,0E0,0E0,0E0,0E0,0E0,0E0,0E0,0E0,0E0,0E0,0E0,0E0,0E0,0E0,0E0,0E0,0E0],"parents":[2147483647,0,0,1,1,2,2,3,3,4,4,5,5,6,6,7,7,9,9,10,10,11,11,12,12,13,13,14,14,16,16,18,18,19,19,20,20,21,21,22,22,23,23,24,24,25,25,26,26,27,27,28,28],"right_children":[2,4,6,8,10,12,14,16,-1,18,20,22,24,26,28,-1,30,-1,32,34,36,38,40,42,44,46,48,50,52,-1,-1,-1,-1,-1,-1,-1,-1,-1,-1,-1,-1,-1,-1,-1,-1,-1,-1,-1,-1,-1,-1,-1,-1],"split_conditions":[5.5E1,-3.5E1,5.911E1,-4E1,4.5E1,4.533E1,7.4003334E1,-9.659258E-1,-6.577301E-1,-3E1,-8.660254E-1,3.778E1,5.3333332E1,9E1,7E1,-6.218778E-1,-5.3E1,-8.242382E-1,3.5E1,8.7996666E1,9.6223335E1,9.4E2,7.2E2,-9.659258E-1,7E1,7.5E1,-8.660254E-1,-7.0710677E-1,8.2666664E1,-2.1966927E-1,-3.700373E-1,-1.2831593E0,-1.0201193E0,-3.8681316E-1,1.7235751E-1,-7.5118333E-1,-2.2834966E-1,-4.44348E-1,-4.6488464E-2,-2.718396E-1,-1.2305666E-1,-2.744031E-1,-5.8474302E-2,-4.5603576E-1,5.665791E-2,-3.3036768E-1,-8.587526E-2,1.18592165E-1,3.1537402E-1,4.8938942E-1,-1.4914875E-1,4.8618758E-1,6.8448836E-1],"split_indices":[1,1,2,1,1,2,2,3,0,1,3,2,2,1,1,0,1,0,1,2,2,1,1,4,1,1,3,3,2,0,0,0,0,0,0,0,0,0,0,0,0,0,0,0,0,0,0,0,0,0,0,0,0],"split_type":[0,0,0,0,0,0,0,0,0,0,0,0,0,0,0,0,0,0,0,0,0,0,0,0,0,0,0,0,0,0,0,0,0,0,0,0,0,0,0,0,0,0,0,0,0,0,0,0,0,0,0,0,0],"sum_hessian":[6.715E3,7.59E2,5.956E3,1.39E2,6.2E2,2.91E3,3.046E3,1.06E2,3.3E1,5.54E2,6.6E1,1.258E3,1.652E3,1.681E3,1.365E3,1.5E1,9.1E1,3.2E1,5.22E2,1.1E1,5.5E1,6.27E2,6.31E2,9.21E2,7.31E2,5.2E1,1.629E3,4.4E1,1.321E3,2.6E1,6.5E1,4.54E2,6.8E1,8E0,3E0,5.3E1,2E0,5.7E2,5.7E1,4.52E2,1.79E2,6.8E1,8.53E2,1.7E1,7.14E2,3.5E1,1.7E1,3.59E2,1.27E3,1.2E1,3.2E1,6.13E2,7.08E2],"tree_param":{"num_deleted":"0","num_feature":"5","num_nodes":"53","size_leaf_vector":"1"}},{"base_weights":[1.3809113E-1,-2.5151697E1,3.2688854E0,-1.1662413E1,-2.8338375E1,-2.777079E0,1.0207371E1,-7.9252124E0,-6.122121E-1,-2.9758982E1,-1.716633E1,-7.4601164E0,-3.472667E-2,7.3376026E0,1.487163E1,-5.0617653E-1,-6.9191465E0,-8.146628E-1,-3.0283733E1,-1.8525501E1,-5.8749294E0,-1.0276681E1,-5.7806163E0,-1.9589695E0,1.7820542E0,8.684123E0,3.6596658E0,1.5198636E1,-3.4964E0,-2.1272914E-1,-3.402568E-1,-1.232108E0,-1.0384458E0,-8.254888E-1,-6.0690457E-1,1.6743307E-1,-4.6277305E-1,-4.587091E-1,-1.24132074E-1,-2.4058503E-1,1.9890077E-1,-2.388932E-1,-6.409839E-2,-3.758227E-1,8.5739076E-2,4.779014E-1,2.5595662E-1,2.915022E-1,1.4965511E-2,6.456879E-1,3.4046665E-1,-2.2123243E-1,-2.2112167E-2],"categories":[],"categories_nodes":[],"categories_segments":[],"categories_sizes":[],"default_left":[0,0,0,0,0,0,0,0,0,0,0,0,0,0,0,0,0,0,0,0,0,0,0,0,0,0,0,0,0,0,0,0,0,0,0,0,0,0,0,0,0,0,0,0,0,0,0,0,0,0,0,0,0],"id":15,"left_children":[1,3,5,7,9,11,13,15,-1,17,19,21,23,25,27,-1,29,-1,31,33,35,37,39,41,43,45,47,49,51,-1,-1,-1,-1,-1,-1,-1,-1,-1,-1,-1,-1,-1,-1,-1,-1,-1,-1,-1,-1,-1,-1,-1,-1],"loss_changes":[5.233939E5,3.0901844E4,2.467921E5,1.7744453E3,8.717625E3,4.0378457E4,3.653197E4,2.3649316E2,0E0,1.8187188E3,9.2896484E2,5.4200664E3,6.9408257E3,8.37082E3,6.324875E3,0E0,1.02386475E2,0E0,1.3434375E2,5.3992188E1,5.8591846E2,3.6484844E3,1.8734258E3,1.3673379E3,4.1489346E3,9.170219E3,5.445573E3,6.2948906E3,1.107016E2,0E0,0E0,0E0,0E0,0E0,0E0,0E0,0E0,0E0,0E0,0E0,0E0,0E0,0E0,0E0,0E0,0E0,0E0,0E0,0E0,0E0,0E0,0E0,0E0],"parents":[2147483647,0,0,1,1,2,2,3,3,4,4,5,5,6,6,7,7,9,9,10,10,11,11,12,12,13,13,14,14,16,16,18,18,19,19,20,20,21,21,22,22,23,23,24,24,25,25,26,26,27,27,28,28],"right_children":[2,4,6,8,10,12,14,16,-1,18,20,22,24,26,28,-1,30,-1,32,34,36,38,40,42,44,46,48,50,52,-1,-1,-1,-1,-1,-1,-1,-1,-1,-1,-1,-1,-1,-1,-1,-1,-1,-1,-1,-1,-1,-1,-1,-1],"split_conditions":[5.5E1,-3.5E1,6.1553333E1,-4.5E1,4.5E1,4.489E1,7.778E1,-9.659258E-1,-6.122121E-1,-3E1,8.8223335E1,3.489E1,5.3333332E1,-1.8369701E-16,8.660254E-1,-5.0617653E-1,-5E1,-8.146628E-1,3.5E1,5E1,-8.660254E-1,9.35E2,9.35E2,-9.659258E-1,7.5E1,-2.5881904E-1,1.95E2,1.2246469E-16,6E1,-2.1272914E-1,-3.402568E-1,-1.232108E0,-1.0384458E0,-8.254888E-1,-6.0690457E-1,1.6743307E-1,-4.6277305E-1,-4.587091E-1,-1.24132074E-1,-2.4058503E-1,1.9890077E-1,-2.388932E-1,-6.409839E-2,-3.758227E-1,8.5739076E-2,4.779014E-1,2.5595662E-1,2.915022E-1,1.4965511E-2,6.456879E-1,3.4046665E-1,-2.2123243E-1,-2.2112167E-2],"split_indices":[1,1,2,1,1,2,2,3,0,1,2,2,2,4,4,0,1,0,1,1,3,1,1,4,1,3,1,3,1,0,0,0,0,0,0,0,0,0,0,0,0,0,0,0,0,0,0,0,0,0,0,0,0],"split_type":[0,0,0,0,0,0,0,0,0,0,0,0,0,0,0,0,0,0,0,0,0,0,0,0,0,0,0,0,0,0,0,0,0,0,0,0,0,0,0,0,0,0,0,0,0,0,0,0,0,0,0,0,0],"sum_hessian":[6.608E3,7.27E2,5.881E3,1.4E2,5.87E2,3.143E3,2.738E3,7.1E1,6.9E1,5.19E2,6.8E1,1.16E3,1.983E3,1.697E3,1.041E3,1E1,6.1E1,3E1,4.89E2,6E1,8E0,4.31E2,7.29E2,9.63E2,1.02E3,1.241E3,4.56E2,1.023E3,1.8E1,3.3E1,2.8E1,4.3E2,5.9E1,3.3E1,2.7E1,3E0,5E0,3.69E2,6.2E1,7.14E2,1.5E1,7.7E1,8.86E2,3.1E1,9.89E2,5.09E2,7.32E2,2.16E2,2.4E2,8.95E2,1.28E2,1E1,8E0],"tree_param":{"num_deleted":"0","num_feature":"5","num_nodes":"53","size_leaf_vector":"1"}},{"base_weights":[-7.0767472E-3,-2.3297876E1,3.1979828E0,-1.0258571E1,-2.6087881E1,-2.7506685E0,9.743971E0,-6.49688E0,-1.337224E1,-2.8389355E1,-1.3782026E1,-6.4334826E0,6.6898245E-1,6.891376E0,1.4797294E1,-5.0707036E-1,-5.148787E0,-7.26943E-1,-1.2243494E1,-7.573133E-1,-2.8944315E1,-2.7330098E0,-1.5562242E1,-1.0330734E1,-4.8822546E0,-8.7690806E-1,2.4856381E0,5.635332E0,9.651259E0,1.2277743E1,1.6372477E1,-1.0381659E-1,-2.8694275E-1,-3.7568733E-1,-5.716941E-1,-1.1836835E0,-9.740037E-1,-3.431299E-1,7.610833E-4,-6.735451E-1,-3.359827E-1,-4.3866348E-1,2.1399315E-2,-2.0591004E-1,1.4899482E-1,6.5247864E-3,-7.929096E-2,1.3097061E-1,-3.7573874E-2,-2.3508398E-1,2.3605545E-1,4.3598467E-1,2.3661609E-1,5.255286E-1,3.2847133E-1,2.3997195E-1,6.7357594E-1],"categories":[],"categories_nodes":[],"categories_segments":[],"categories_sizes":[],"default_left":[0,0,0,0,0,0,0,0,0,0,0,0,0,0,0,0,0,0,0,0,0,0,0,0,0,0,0,0,0,0,0,0,0,0,0,0,0,0,0,0,0,0,0,0,0,0,0,0,0,0,0,0,0,0,0,0,0],"id":16,"left_children":[1,3,5,7,9,11,13,15,17,19,21,23,25,27,29,-1,31,-1,33,-1,35,37,39,41,43,45,47,49,51,53,55,-1,-1,-1,-1,-1,-1,-1,-1,-1,-1,-1,-1,-1,-1,-1,-1,-1,-1,-1,-1,-1,-1,-1,-1,-1,-1],"loss_changes":[4.9442803E5,2.8822625E4,2.2674816E5,1.5710137E3,1.8195906E4,3.8432375E4,3.9836938E4,4.7974023E2,1.4833301E2,2.2460312E3,2.0360469E3,8.820039E3,4.4489575E3,6.0835312E3,3.7214688E3,0E0,2.7240625E2,0E0,2.232832E2,0E0,6.810625E2,2.6165002E2,6.6153516E2,2.8905195E3,2.4298828E3,9.848671E2,1.9708193E3,3.7851367E3,2.5008984E3,1.2300742E3,2.8368438E3,0E0,0E0,0E0,0E0,0E0,0E0,0E0,0E0,0E0,0E0,0E0,0E0,0E0,0E0,0E0,0E0,0E0,0E0,0E0,0E0,0E0,0E0,0E0,0E0,0E0,0E0],"parents":[2147483647,0,0,1,1,2,2,3,3,4,4,5,5,6,6,7,7,8,8,9,9,10,10,11,11,12,12,13,13,14,14,16,16,18,18,20,20,21,21,22,22,23,23,24,24,25,25,26,26,27,27,28,28,29,29,30,30],"right_children":[2,4,6,8,10,12,14,16,18,20,22,24,26,28,30,-1,32,-1,34,-1,36,38,40,42,44,46,48,50,52,54,56,-1,-1,-1,-1,-1,-1,-1,-1,-1,-1,-1,-1,-1,-1,-1,-1,-1,-1,-1,-1,-1,-1,-1,-1,-1,-1],"split_conditions":[6E1,-3.5E1,6.133E1,-4.5E1,4.5E1,4.8E1,7.867E1,-9.659258E-1,-9.659258E-1,-3E1,-8.660254E-1,3.533E1,5.533E1,7.2E1,8.533E1,-5.0707036E-1,-5E1,-7.26943E-1,-4E1,-7.573133E-1,3.5E1,5E1,8.2E1,9.45E2,9.35E2,5.55E2,7.95E2,9E1,-1.8369701E-16,2.5881904E-1,7.5E1,-1.0381659E-1,-2.8694275E-1,-3.7568733E-1,-5.716941E-1,-1.1836835E0,-9.740037E-1,-3.431299E-1,7.610833E-4,-6.735451E-1,-3.359827E-1,-4.3866348E-1,2.1399315E-2,-2.0591004E-1,1.4899482E-1,6.5247864E-3,-7.929096E-2,1.3097061E-1,-3.7573874E-2,-2.3508398E-1,2.3605545E-1,4.3598467E-1,2.3661609E-1,5.255286E-1,3.2847133E-1,2.3997195E-1,6.7357594E-1],"split_indices":[1,1,0,1,1,0,0,3,3,1,3,0,0,0,0,0,1,0,1,0,1,1,0,1,1,1,1,1,4,4,1,0,0,0,0,0,0,0,0,0,0,0,0,0,0,0,0,0,0,0,0,0,0,0,0,0,0],"split_type":[0,0,0,0,0,0,0,0,0,0,0,0,0,0,0,0,0,0,0,0,0,0,0,0,0,0,0,0,0,0,0,0,0,0,0,0,0,0,0,0,0,0,0,0,0,0,0,0,0,0,0,0,0,0,0,0,0],"sum_hessian":[6.621E3,8E2,5.821E3,1.42E2,6.58E2,3.05E3,2.771E3,6.6E1,7.6E1,5.53E2,1.05E2,1.468E3,1.582E3,1.773E3,9.98E2,1E1,5.6E1,1.1E1,6.5E1,3.3E1,5.2E2,1.5E1,9E1,4.16E2,1.052E3,8.55E2,7.27E2,1.221E3,5.52E2,3.88E2,6.1E2,2.6E1,3E1,3E1,3.5E1,4.5E2,7E1,4E0,1.1E1,7.5E1,1.5E1,3.93E2,2.3E1,1.021E3,3.1E1,4.41E2,4.14E2,5.91E2,1.36E2,2.7E1,1.194E3,4.12E2,1.4E2,3.18E2,7E1,2.7E1,5.83E2],"tree_param":{"num_deleted":"0","num_feature":"5","num_nodes":"57","size_leaf_vector":"1"}},{"base_weights":[5.6458335E-2,-2.317686E1,2.997531E0,-1.0789323E1,-2.601449E1,-3.056293E0,8.763565E0,-8.157303E0,-1.3422999E1,-2.714414E1,-1.53011465E1,-6.743784E0,-4.794709E-1,4.879152E0,1.2400258E1,-4.6998924E-1,-2.9456806E-1,-7.187169E-1,-1.2067117E1,-7.460647E-1,-2.775645E1,-7.633744E-1,-1.1047479E1,-9.05753E0,-5.1806717E0,-1.6992556E0,1.2190641E0,-7.5557084E0,5.3199124E0,2.3045177E0,1.2912283E1,-3.9089838E-1,-5.5704415E-1,-1.136929E0,-9.345266E-1,-6.338136E-2,-5.110797E-1,-4.0278044E-1,-2.7270216E-2,-2.4554233E-1,-1.1194584E-1,-2.2074604E-1,-5.610628E-2,-1.5301454E-1,8.562862E-2,-3.771068E-1,-1.3202387E-1,5.7837557E-2,2.5832176E-1,4.9713024E-1,-6.2473137E-2,3.1525826E-1,5.6740797E-1],"categories":[],"categories_nodes":[],"categories_segments":[],"categories_sizes":[],"default_left":[0,0,0,0,0,0,0,0,0,0,0,0,0,0,0,0,0,0,0,0,0,0,0,0,0,0,0,0,0,0,0,0,0,0,0,0,0,0,0,0,0,0,0,0,0,0,0,0,0,0,0,0,0],"id":17,"left_children":[1,3,5,7,9,11,13,15,17,19,21,23,25,27,29,-1,-1,-1,31,-1,33,-1,35,37,39,41,43,45,47,49,51,-1,-1,-1,-1,-1,-1,-1,-1,-1,-1,-1,-1,-1,-1,-1,-1,-1,-1,-1,-1,-1,-1],"loss_changes":[4.5073712E5,2.5713656E4,2.0441756E5,8.382998E2,6.785375E3,2.7144533E4,4.229364E4,1.02813965E2,1.5708496E2,2.1987812E3,7.1275684E2,4.192547E3,3.489867E3,8.0072227E3,7.9658438E3,0E0,0E0,0E0,7.40542E1,0E0,6.749375E2,0E0,4.8489746E2,3.9931133E3,1.5852695E3,1.1004165E3,3.283628E3,3.6125E2,6.17484E3,3.0069905E3,9.297734E3,0E0,0E0,0E0,0E0,0E0,0E0,0E0,0E0,0E0,0E0,0E0,0E0,0E0,0E0,0E0,0E0,0E0,0E0,0E0,0E0,0E0,0E0],"parents":[2147483647,0,0,1,1,2,2,3,3,4,4,5,5,6,6,7,7,8,8,9,9,10,10,11,11,12,12,13,13,14,14,18,18,20,20,22,22,23,23,24,24,25,25,26,26,27,27,28,28,29,29,30,30],"right_children":[2,4,6,8,10,12,14,16,18,20,22,24,26,28,30,-1,-1,-1,32,-1,34,-1,36,38,40,42,44,46,48,50,52,-1,-1,-1,-1,-1,-1,-1,-1,-1,-1,-1,-1,-1,-1,-1,-1,-1,-1,-1,-1,-1,-1],"split_conditions":[5.5E1,-3.5E1,5.911E1,-4.5E1,4.5E1,4.4886665E1,7.155666E1,-9.659258E-1,-9.659258E-1,-3E1,5E1,3.6E1,5.3336666E1,9E1,8E1,-4.6998924E-1,-2.9456806E-1,-7.187169E-1,-4E1,-7.460647E-1,3.5E1,-7.633744E-1,-8.660254E-1,9.4E2,7.5E2,-9.659258E-1,-8.660254E-1,7.5E1,-8.660254E-1,-7.0710677E-1,-8.660254E-1,-3.9089838E-1,-5.5704415E-1,-1.136929E0,-9.345266E-1,-6.338136E-2,-5.110797E-1,-4.0278044E-1,-2.7270216E-2,-2.4554233E-1,-1.1194584E-1,-2.2074604E-1,-5.610628E-2,-1.5301454E-1,8.562862E-2,-3.771068E-1,-1.3202387E-1,5.7837557E-2,2.5832176E-1,4.9713024E-1,-6.2473137E-2,3.1525826E-1,5.6740797E-1],"split_indices":[1,1,2,1,1,2,2,3,3,1,1,2,2,1,1,0,0,0,1,0,1,0,3,1,1,4,4,1,3,3,4,0,0,0,0,0,0,0,0,0,0,0,0,0,0,0,0,0,0,0,0,0,0],"split_type":[0,0,0,0,0,0,0,0,0,0,0,0,0,0,0,0,0,0,0,0,0,0,0,0,0,0,0,0,0,0,0,0,0,0,0,0,0,0,0,0,0,0,0,0,0,0,0,0,0,0,0,0,0],"sum_hessian":[6.594E3,7.4E2,5.854E3,1.39E2,6.01E2,2.856E3,2.998E3,7.2E1,6.7E1,5.42E2,5.9E1,1.174E3,1.682E3,1.451E3,1.547E3,1E1,6.2E1,1.2E1,5.5E1,3.9E1,5.03E2,2.9E1,3E1,4.71E2,7.03E2,9.79E2,7.03E2,4.9E1,1.402E3,7.5E1,1.472E3,2.8E1,2.7E1,4.31E2,7.2E1,5E0,2.5E1,4.2E2,5.1E1,5E2,2.03E2,6.9E1,9.1E2,1.08E2,5.95E2,3.3E1,1.6E1,3.19E2,1.083E3,2E1,5.5E1,2.99E2,1.173E3],"tree_param":{"num_deleted":"0","num_feature":"5","num_nodes":"53","size_leaf_vector":"1"}},{"base_weights":[1.7127713E-2,-2.1813845E1,2.9913616E0,-9.694208E0,-2.4270369E1,-3.2492232E0,8.4500675E0,-5.0374465E0,-1.1228863E1,-2.6269606E1,-1.2796137E1,-7.3322673E0,-9.668209E-1,4.8830366E0,1.2079282E1,-3.8393524E-1,-1.6440244E-1,-6.507801E-1,-9.99278E0,-7.160745E-1,-2.6780315E1,-1.8731021E0,-1.437949E1,-7.8976936E0,-8.324172E-1,-2.3983512E0,6.9170475E-1,5.458492E0,-1.768216E0,9.967808E0,1.456457E1,-3.4967124E-1,-4.811712E-1,-1.0932434E0,-9.1039765E-1,-2.9172713E-1,2.606399E-1,-7.3019665E-1,-4.9240676E-1,-4.6731603E-1,-2.629687E-1,-3.5263073E-1,4.6598524E-2,-2.5715712E-1,-8.029271E-2,-1.0051732E-1,5.4085158E-2,1.1128931E-1,2.857502E-1,-4.2850864E-3,-1.9971281E-1,7.959226E-2,4.1402632E-1,2.4759367E-1,6.0365784E-1],"categories":[],"categories_nodes":[],"categories_segments":[],"categories_sizes":[],"default_left":[0,0,0,0,0,0,0,0,0,0,0,0,0,0,0,0,0,0,0,0,0,0,0,0,0,0,0,0,0,0,0,0,0,0,0,0,0,0,0,0,0,0,0,0,0,0,0,0,0,0,0,0,0,0,0],"id":18,"left_children":[1,3,5,7,9,11,13,15,17,19,21,23,25,27,29,-1,-1,-1,31,-1,33,35,37,39,41,43,45,47,49,51,53,-1,-1,-1,-1,-1,-1,-1,-1,-1,-1,-1,-1,-1,-1,-1,-1,-1,-1,-1,-1,-1,-1,-1,-1],"loss_changes":[4.3440894E5,2.3597562E4,2.0061803E5,9.10999E2,1.4875125E4,2.560155E4,4.0591984E4,1.0440582E2,4.3905273E2,1.839875E3,1.7163105E3,3.6120273E3,4.1907773E3,6.083133E3,7.989672E3,0E0,0E0,0E0,8.879492E1,0E0,4.2478125E2,7.027723E2,4.345957E2,4.445742E3,1.2919414E3,1.4765425E3,1.7356165E3,6.5609453E3,6.8017633E2,2.5556172E3,3.0283125E3,0E0,0E0,0E0,0E0,0E0,0E0,0E0,0E0,0E0,0E0,0E0,0E0,0E0,0E0,0E0,0E0,0E0,0E0,0E0,0E0,0E0,0E0,0E0,0E0],"parents":[2147483647,0,0,1,1,2,2,3,3,4,4,5,5,6,6,7,7,8,8,9,9,10,10,11,11,12,12,13,13,14,14,18,18,20,20,21,21,22,22,23,23,24,24,25,25,26,26,27,27,28,28,29,29,30,30],"right_children":[2,4,6,8,10,12,14,16,18,20,22,24,26,28,30,-1,-1,-1,32,-1,34,36,38,40,42,44,46,48,50,52,54,-1,-1,-1,-1,-1,-1,-1,-1,-1,-1,-1,-1,-1,-1,-1,-1,-1,-1,-1,-1,-1,-1,-1,-1],"split_conditions":[6E1,-3.5E1,5.7996666E1,-5E1,4.5E1,4.2446667E1,7.155666E1,-9.659258E-1,-9.659258E-1,-3E1,-8.660254E-1,9.35E2,5.089E1,8.05E2,8.2666664E1,-3.8393524E-1,-1.6440244E-1,-6.507801E-1,-4E1,-7.160745E-1,3.5E1,8.7996666E1,5E1,3.1556667E1,1.689E1,-9.659258E-1,-8.660254E-1,3.4E2,8.95E2,8.5E1,8.5E1,-3.4967124E-1,-4.811712E-1,-1.0932434E0,-9.1039765E-1,-2.9172713E-1,2.606399E-1,-7.3019665E-1,-4.9240676E-1,-4.6731603E-1,-2.629687E-1,-3.5263073E-1,4.6598524E-2,-2.5715712E-1,-8.029271E-2,-1.0051732E-1,5.4085158E-2,1.1128931E-1,2.857502E-1,-4.2850864E-3,-1.9971281E-1,7.959226E-2,4.1402632E-1,2.4759367E-1,6.0365784E-1],"split_indices":[1,1,2,1,1,2,2,3,3,1,3,1,2,1,2,0,0,0,1,0,1,2,1,2,2,4,4,1,1,1,1,0,0,0,0,0,0,0,0,0,0,0,0,0,0,0,0,0,0,0,0,0,0,0,0],"split_type":[0,0,0,0,0,0,0,0,0,0,0,0,0,0,0,0,0,0,0,0,0,0,0,0,0,0,0,0,0,0,0,0,0,0,0,0,0,0,0,0,0,0,0,0,0,0,0,0,0,0,0,0,0,0,0],"sum_hessian":[6.688E3,8.01E2,5.887E3,1.36E2,6.65E2,2.747E3,3.14E3,3.5E1,1.01E2,5.65E2,1E2,9.84E2,1.763E3,1.585E3,1.555E3,4E0,3.1E1,1.7E1,8.4E1,3.5E1,5.3E2,1.3E1,8.7E1,9.05E2,7.9E1,9.46E2,8.17E2,1.459E3,1.26E2,8.44E2,7.11E2,5.6E1,2.8E1,4.6E2,7E1,8E0,5E0,2.7E1,6E1,2.32E2,6.73E2,1.5E1,6.4E1,8.2E1,8.64E2,1.39E2,6.78E2,5.65E2,8.94E2,8.4E1,4.2E1,3.9E1,8.05E2,4.3E1,6.68E2],"tree_param":{"num_deleted":"0","num_feature":"5","num_nodes":"55","size_leaf_vector":"1"}},{"base_weights":[9.7035214E-2,-2.1431293E1,2.8120663E0,-1.14675455E1,-2.4349874E1,-2.8730497E0,8.064405E0,-8.731292E0,-6.0858655E-1,-1.0378994E0,-1.6605692E1,-6.735984E0,-3.2803494E-1,5.6355815E0,1.29962635E1,-5.313612E-1,-7.8163934E0,-1.7671911E1,-6.135499E0,-9.664813E0,-5.050558E0,-1.4309353E0,1.5335506E0,-4.994614E0,5.94828E0,3.460697E0,1.34274435E1,-2.5525576E-1,-3.345627E-1,-7.845114E-1,-5.1875913E-1,-3.0211502E-1,-1.09514505E-1,-4.0709648E-1,-2.5103357E-2,-2.1395391E-1,6.72733E-2,-6.1365545E-2,2.3386934E-1,1.0457301E-1,-7.060878E-2,3.5115305E-1,-2.5845748E-1,2.5699875E-1,-4.1532747E-2,4.8159212E-1,-2.8938598E-3,3.0275756E-1,5.7064766E-1],"categories":[],"categories_nodes":[],"categories_segments":[],"categories_sizes":[],"default_left":[0,0,0,0,0,0,0,0,0,0,0,0,0,0,0,0,0,0,0,0,0,0,0,0,0,0,0,0,0,0,0,0,0,0,0,0,0,0,0,0,0,0,0,0,0,0,0,0,0],"id":19,"left_children":[1,3,5,7,9,11,13,15,-1,-1,17,19,21,23,25,-1,27,29,31,33,35,37,39,41,43,45,47,-1,-1,-1,-1,-1,-1,-1,-1,-1,-1,-1,-1,-1,-1,-1,-1,-1,-1,-1,-1,-1,-1],"loss_changes":[3.868463E5,2.1215469E4,1.7552242E5,1.5832637E3,6.5580312E3,2.7752158E4,3.6507312E4,2.9481738E2,0E0,0E0,9.972578E2,5.4745547E3,3.4995369E3,6.847375E3,4.0836875E3,0E0,3.0073242E0,5.239668E2,2.809262E1,1.8822344E3,1.4454238E3,8.141387E2,2.2666897E3,1.2638661E3,6.6401094E3,1.3722701E3,4.6012188E3,0E0,0E0,0E0,0E0,0E0,0E0,0E0,0E0,0E0,0E0,0E0,0E0,0E0,0E0,0E0,0E0,0E0,0E0,0E0,0E0,0E0,0E0],"parents":[2147483647,0,0,1,1,2,2,3,3,4,4,5,5,6,6,7,7,10,10,11,11,12,12,13,13,14,14,16,16,17,17,18,18,19,19,20,20,21,21,22,22,23,23,24,24,25,25,26,26],"right_children":[2,4,6,8,10,12,14,16,-1,-1,18,20,22,24,26,-1,28,30,32,34,36,38,40,42,44,46,48,-1,-1,-1,-1,-1,-1,-1,-1,-1,-1,-1,-1,-1,-1,-1,-1,-1,-1,-1,-1,-1,-1],"split_conditions":[5.5E1,-3E1,5.933E1,-4E1,4E1,4.467E1,7.867E1,2.5881904E-1,-6.0858655E-1,-1.0378994E0,8.8E1,3.533E1,5.4E1,8E1,7.5E1,-5.313612E-1,-5E1,5E1,9.422E1,9.45E2,9.3E2,9.35E2,-1.8369701E-16,-2.5881904E-1,8E2,-1.8369701E-16,-8.660254E-1,-2.5525576E-1,-3.345627E-1,-7.845114E-1,-5.1875913E-1,-3.0211502E-1,-1.09514505E-1,-4.0709648E-1,-2.5103357E-2,-2.1395391E-1,6.72733E-2,-6.1365545E-2,2.3386934E-1,1.0457301E-1,-7.060878E-2,3.5115305E-1,-2.5845748E-1,2.5699875E-1,-4.1532747E-2,4.8159212E-1,-2.8938598E-3,3.0275756E-1,5.7064766E-1],"split_indices":[1,1,0,1,1,0,0,4,0,0,0,0,0,1,1,0,1,1,2,1,1,1,4,4,1,4,4,0,0,0,0,0,0,0,0,0,0,0,0,0,0,0,0,0,0,0,0,0,0],"split_type":[0,0,0,0,0,0,0,0,0,0,0,0,0,0,0,0,0,0,0,0,0,0,0,0,0,0,0,0,0,0,0,0,0,0,0,0,0,0,0,0,0,0,0,0,0,0,0,0,0],"sum_hessian":[6.616E3,7.4E2,5.876E3,1.69E2,5.71E2,2.822E3,3.054E3,1E2,6.9E1,4.71E2,1E2,1.12E3,1.702E3,2.048E3,1.006E3,1.4E1,8.6E1,9E1,1E1,4.07E2,7.13E2,1.069E3,6.33E2,5.8E1,1.99E3,4.4E1,9.62E2,2.8E1,5.8E1,6.1E1,2.9E1,6E0,4E0,3.85E2,2.2E1,6.83E2,3E1,1.055E3,1.4E1,4.77E2,1.56E2,5E0,5.3E1,1.863E3,1.27E2,1.2E1,3.2E1,1.22E2,8.4E2],"tree_param":{"num_deleted":"0","num_feature":"5","num_nodes":"49","size_leaf_vector":"1"}},{"base_weights":[6.7374565E-2,-1.9875748E1,2.7758298E0,-8.394044E0,-2.2432413E1,-2.8191507E0,8.020422E0,-5.278081E0,-1.1585948E1,-2.4123814E1,-1.2320009E1,-7.2236996E0,-7.2975785E-1,5.864245E0,1.3546719E1,-3.9200678E-1,-4.5737276E0,-6.4819086E-1,-1.0319536E1,-6.647402E-1,-2.4576698E1,-2.4198241E0,-1.3711817E1,-1.2076449E1,-6.236699E0,-1.8405449E0,1.4362912E0,4.615467E0,8.361948E0,1.4299907E1,6.810212E0,-1.1594354E-1,-2.3493941E-1,-3.1699622E-1,-4.8116046E-1,-9.860983E-1,-1.233778E-1,-3.655761E-1,6.731832E-2,-5.9466094E-1,-3.571372E-1,-5.036869E-1,-1.3622104E-1,-2.6523915E-1,1.5449485E-1,-2.0323545E-1,-5.858692E-2,9.713267E-2,-5.6018405E-2,2.0585155E-1,-3.779996E-2,3.7089214E-1,1.7185336E-1,4.672755E-1,6.287555E-1,-1.00535415E-2,2.934779E-1],"categories":[],"categories_nodes":[],"categories_segments":[],"categories_sizes":[],"default_left":[0,0,0,0,0,0,0,0,0,0,0,0,0,0,0,0,0,0,0,0,0,0,0,0,0,0,0,0,0,0,0,0,0,0,0,0,0,0,0,0,0,0,0,0,0,0,0,0,0,0,0,0,0,0,0,0,0],"id":20,"left_children":[1,3,5,7,9,11,13,15,17,19,21,23,25,27,29,-1,31,-1,33,-1,35,37,39,41,43,45,47,49,51,53,55,-1,-1,-1,-1,-1,-1,-1,-1,-1,-1,-1,-1,-1,-1,-1,-1,-1,-1,-1,-1,-1,-1,-1,-1,-1,-1],"loss_changes":[3.5787103E5,2.3025875E4,1.7119353E5,1.3790156E3,1.07095E4,2.5974314E4,3.5783203E4,1.8748315E2,2.1314844E2,1.386125E3,1.2703477E3,4.2577656E3,4.613627E3,6.715172E3,4.164375E3,0E0,1.27183105E2,0E0,1.2594873E2,0E0,7.5134375E2,3.8311343E2,2.9788574E2,6.275469E2,3.0460762E3,1.5338052E3,1.8339312E3,4.280791E3,2.6201055E3,2.5935625E3,3.2726733E2,0E0,0E0,0E0,0E0,0E0,0E0,0E0,0E0,0E0,0E0,0E0,0E0,0E0,0E0,0E0,0E0,0E0,0E0,0E0,0E0,0E0,0E0,0E0,0E0,0E0,0E0],"parents":[2147483647,0,0,1,1,2,2,3,3,4,4,5,5,6,6,7,7,8,8,9,9,10,10,11,11,12,12,13,13,14,14,16,16,18,18,20,20,21,21,22,22,23,23,24,24,25,25,26,26,27,27,28,28,29,29,30,30],"right_children":[2,4,6,8,10,12,14,16,18,20,22,24,26,28,30,-1,32,-1,34,-1,36,38,40,42,44,46,48,50,52,54,56,-1,-1,-1,-1,-1,-1,-1,-1,-1,-1,-1,-1,-1,-1,-1,-1,-1,-1,-1,-1,-1,-1,-1,-1,-1,-1],"split_conditions":[6E1,-3.5E1,5.933E1,-4.5E1,4.5E1,4.267E1,8.133E1,-9.659258E-1,-9.659258E-1,-3E1,-8.660254E-1,2.867E1,5.4E1,7.2E1,-2.5881904E-1,-3.9200678E-1,-5E1,-6.4819086E-1,-4E1,-6.647402E-1,9.467E1,5E1,7.533E1,9.45E2,9.4E2,-8.660254E-1,-1.8369701E-16,8E2,2.5881904E-1,2.65E2,3.9E2,-1.1594354E-1,-2.3493941E-1,-3.1699622E-1,-4.8116046E-1,-9.860983E-1,-1.233778E-1,-3.655761E-1,6.731832E-2,-5.9466094E-1,-3.571372E-1,-5.036869E-1,-1.3622104E-1,-2.6523915E-1,1.5449485E-1,-2.0323545E-1,-5.858692E-2,9.713267E-2,-5.6018405E-2,2.0585155E-1,-3.779996E-2,3.7089214E-1,1.7185336E-1,4.672755E-1,6.287555E-1,-1.00535415E-2,2.934779E-1],"split_indices":[1,1,0,1,1,0,0,3,3,1,3,0,0,0,3,0,1,0,1,0,0,1,0,1,1,3,4,1,4,1,1,0,0,0,0,0,0,0,0,0,0,0,0,0,0,0,0,0,0,0,0,0,0,0,0,0,0],"split_type":[0,0,0,0,0,0,0,0,0,0,0,0,0,0,0,0,0,0,0,0,0,0,0,0,0,0,0,0,0,0,0,0,0,0,0,0,0,0,0,0,0,0,0,0,0,0,0,0,0,0,0,0,0,0,0,0,0],"sum_hessian":[6.623E3,7.91E2,5.832E3,1.45E2,6.46E2,2.822E3,3.01E3,7.5E1,7E1,5.52E2,9.4E1,9.07E2,1.915E3,2.167E3,8.43E2,8E0,6.7E1,1.2E1,5.8E1,3.4E1,5.18E2,1.2E1,8.2E1,1.51E2,7.56E2,1.266E3,6.49E2,1.447E3,7.2E2,7.57E2,8.6E1,3.1E1,3.6E1,2.7E1,3.1E1,5.16E2,2E0,4E0,8E0,6.4E1,1.8E1,1.42E2,9E0,7.28E2,2.8E1,1.3E2,1.136E3,4.81E2,1.68E2,1.321E3,1.26E2,5.87E2,1.33E2,2.7E2,4.87E2,6E0,8E1],"tree_param":{"num_deleted":"0","num_feature":"5","num_nodes":"57","size_leaf_vector":"1"}},{"base_weights":[-1.6782439E-1,-7.073684E0,5.9287686E0,-4.113965E0,-1.95764E1,6.5773168E0,-1.3863031E1,-9.429902E0,-2.2572944E0,-6.3312835E-1,-2.2072788E1,4.0701194E0,1.111392E1,-1.6516748E1,-8.614581E0,-1.9216059E1,-8.230308E0,-4.3962054E0,-1.3415537E0,-9.084603E-1,-1.7338877E1,4.0677947E-1,5.006421E0,9.851832E0,1.3670277E1,-1.1563044E1,-7.296754E-1,-9.110995E0,2.0423058E-2,-8.1788063E-1,-2.76175E-1,-4.576638E-1,-2.7964473E-1,-3.7084955E-1,-1.5996017E-1,-1.3120991E-1,-3.3264447E-2,-2.819016E-1,-7.137514E-1,8.266517E-2,-1.0066435E-1,2.9882118E-1,1.2351016E-1,4.2631072E-1,2.5324374E-1,5.0691205E-1,6.430572E-1,-1.5664804E-1,-4.833024E-1,-3.066842E-1,-5.060585E-1],"categories":[],"categories_nodes":[],"categories_segments":[],"categories_sizes":[],"default_left":[0,0,0,0,0,0,0,0,0,0,0,0,0,0,0,0,0,0,0,0,0,0,0,0,0,0,0,0,0,0,0,0,0,0,0,0,0,0,0,0,0,0,0,0,0,0,0,0,0,0,0],"id":21,"left_children":[1,3,5,7,9,11,13,15,17,-1,19,21,23,25,27,29,31,33,35,-1,37,39,41,43,45,47,-1,49,-1,-1,-1,-1,-1,-1,-1,-1,-1,-1,-1,-1,-1,-1,-1,-1,-1,-1,-1,-1,-1,-1,-1],"loss_changes":[2.7936497E5,1.15029484E5,4.5345117E4,2.4817906E4,5.1462188E3,3.8766484E4,1.389457E3,7.4521875E3,3.6496104E3,0E0,5.9440625E2,7.5436797E3,3.7534688E3,3.6945508E2,1.8854248E2,8.917461E2,2.2189688E3,1.037E3,1.2906199E3,0E0,9.186426E1,2.1858875E3,8.255324E3,2.236125E3,7.0835156E2,2.9812012E1,0E0,7.684839E1,0E0,0E0,0E0,0E0,0E0,0E0,0E0,0E0,0E0,0E0,0E0,0E0,0E0,0E0,0E0,0E0,0E0,0E0,0E0,0E0,0E0,0E0,0E0],"parents":[2147483647,0,0,1,1,2,2,3,3,4,4,5,5,6,6,7,7,8,8,10,10,11,11,12,12,13,13,14,14,15,15,16,16,17,17,18,18,20,20,21,21,22,22,23,23,24,24,25,25,27,27],"right_children":[2,4,6,8,10,12,14,16,18,-1,20,22,24,26,28,30,32,34,36,-1,38,40,42,44,46,48,-1,50,-1,-1,-1,-1,-1,-1,-1,-1,-1,-1,-1,-1,-1,-1,-1,-1,-1,-1,-1,-1,-1,-1,-1],"split_conditions":[5.6E1,8.660254E-1,8.660254E-1,3.8E1,2.2333333E-1,7.6E1,7.4E1,-8.660254E-1,4.467E1,-6.3312835E-1,4.8E1,-8.660254E-1,8.933E1,6.1333332E1,9.711E1,2.5881904E-1,2.867E1,-8.660254E-1,-8.660254E-1,-9.084603E-1,4.867E1,2.5881904E-1,-2.5881904E-1,2.5881904E-1,9.667E1,5.667E1,-7.296754E-1,9.1333336E1,2.0423058E-2,-8.1788063E-1,-2.76175E-1,-4.576638E-1,-2.7964473E-1,-3.7084955E-1,-1.5996017E-1,-1.3120991E-1,-3.3264447E-2,-2.819016E-1,-7.137514E-1,8.266517E-2,-1.0066435E-1,2.9882118E-1,1.2351016E-1,4.2631072E-1,2.5324374E-1,5.0691205E-1,6.430572E-1,-1.5664804E-1,-4.833024E-1,-3.066842E-1,-5.060585E-1],"split_indices":[0,4,4,0,2,0,0,3,0,0,0,3,0,2,2,4,0,3,4,0,0,4,3,4,0,0,0,2,0,0,0,0,0,0,0,0,0,0,0,0,0,0,0,0,0,0,0,0,0,0,0],"split_type":[0,0,0,0,0,0,0,0,0,0,0,0,0,0,0,0,0,0,0,0,0,0,0,0,0,0,0,0,0,0,0,0,0,0,0,0,0,0,0,0,0,0,0,0,0,0,0,0,0,0,0],"sum_hessian":[6.633E3,3.11E3,3.523E3,2.516E3,5.94E2,3.412E3,1.11E2,6.5E2,1.866E3,2.41E2,3.53E2,2.199E3,1.213E3,7.2E1,3.9E1,6.9E1,5.81E2,5.58E2,1.308E3,3.07E2,4.6E1,4.48E2,1.751E3,8.16E2,3.97E2,2.1E1,5.1E1,3.7E1,2E0,6.2E1,7E0,1.59E2,4.22E2,4E1,5.18E2,2.71E2,1.037E3,3E0,4.3E1,2.86E2,1.62E2,7.65E2,9.86E2,6.62E2,1.54E2,2.86E2,1.11E2,2E0,1.9E1,2.9E1,8E0],"tree_param":{"num_deleted":"0","num_feature":"5","num_nodes":"51","size_leaf_vector":"1"}},{"base_weights":[-1.1477387E-1,-1.8439098E1,2.394707E0,-8.052906E0,-2.0655937E1,-2.995171E0,7.064861E0,-5.4014916E0,-1.0462275E1,-2.2444798E1,-1.1242527E1,-6.407584E0,-1.0962136E0,3.8000443E0,1.0383252E1,-3.7486824E-1,-1.8214062E-1,-5.780293E-1,-3.790608E-1,-6.030152E-1,-2.2925365E1,-1.2612968E1,-2.6039028E0,-7.4197965E0,-4.4124737E0,-3.7569673E0,-3.9297187E-1,5.1967015E0,1.1449679E0,6.167876E0,1.142576E1,-9.348683E-1,-7.88056E-1,-6.099867E-1,-4.3025932E-1,2.3505385E-1,-2.811306E-1,-3.1670263E-1,-6.0628284E-2,-2.1124032E-1,-9.934392E-2,-1.8312225E-1,3.1435154E-3,-5.8933858E-2,7.662894E-2,2.3509693E-1,-3.445192E-2,-2.3396873E-1,6.915966E-2,1.9662125E-1,4.5420656E-1,5.063958E-1,3.2221943E-1],"categories":[],"categories_nodes":[],"categories_segments":[],"categories_sizes":[],"default_left":[0,0,0,0,0,0,0,0,0,0,0,0,0,0,0,0,0,0,0,0,0,0,0,0,0,0,0,0,0,0,0,0,0,0,0,0,0,0,0,0,0,0,0,0,0,0,0,0,0,0,0,0,0],"id":22,"left_children":[1,3,5,7,9,11,13,15,17,19,21,23,25,27,29,-1,-1,-1,-1,-1,31,33,35,37,39,41,43,45,47,49,51,-1,-1,-1,-1,-1,-1,-1,-1,-1,-1,-1,-1,-1,-1,-1,-1,-1,-1,-1,-1,-1,-1],"loss_changes":[3.043435E5,1.8152656E4,1.465545E5,8.3900586E2,1.074375E4,1.7507629E4,3.3744453E4,1.8373706E2,1.2107129E2,1.5300312E3,1.2281787E3,1.9107422E3,3.250251E3,5.8297246E3,6.708547E3,0E0,0E0,0E0,0E0,0E0,1.8303125E2,2.5187793E2,6.5749493E2,1.8631836E3,5.333164E2,1.1447197E3,3.4359377E3,4.2590527E3,2.2346558E3,1.9400391E3,5.0256875E3,0E0,0E0,0E0,0E0,0E0,0E0,0E0,0E0,0E0,0E0,0E0,0E0,0E0,0E0,0E0,0E0,0E0,0E0,0E0,0E0,0E0,0E0],"parents":[2147483647,0,0,1,1,2,2,3,3,4,4,5,5,6,6,7,7,8,8,9,9,10,10,11,11,12,12,13,13,14,14,20,20,21,21,22,22,23,23,24,24,25,25,26,26,27,27,28,28,29,29,30,30],"right_children":[2,4,6,8,10,12,14,16,18,20,22,24,26,28,30,-1,-1,-1,-1,-1,32,34,36,38,40,42,44,46,48,50,52,-1,-1,-1,-1,-1,-1,-1,-1,-1,-1,-1,-1,-1,-1,-1,-1,-1,-1,-1,-1,-1,-1],"split_conditions":[6E1,-3.5E1,5.777667E1,-4.5E1,4.5E1,4.2446667E1,7.155666E1,-9.659258E-1,-9.659258E-1,-3E1,8.8223335E1,3.8663334E1,-8.660254E-1,-2.5881904E-1,-8.660254E-1,-3.7486824E-1,-1.8214062E-1,-5.780293E-1,-3.790608E-1,-6.030152E-1,3.5E1,5E1,-8.660254E-1,9.4E2,7.37E2,6.95E2,5.3336666E1,8E2,8.5E1,6.9E2,2.5881904E-1,-9.348683E-1,-7.88056E-1,-6.099867E-1,-4.3025932E-1,2.3505385E-1,-2.811306E-1,-3.1670263E-1,-6.0628284E-2,-2.1124032E-1,-9.934392E-2,-1.8312225E-1,3.1435154E-3,-5.8933858E-2,7.662894E-2,2.3509693E-1,-3.445192E-2,-2.3396873E-1,6.915966E-2,1.9662125E-1,4.5420656E-1,5.063958E-1,3.2221943E-1],"split_indices":[1,1,2,1,1,2,2,3,3,1,2,2,4,4,4,0,0,0,0,0,1,1,3,1,1,1,2,1,1,1,4,0,0,0,0,0,0,0,0,0,0,0,0,0,0,0,0,0,0,0,0,0,0],"split_type":[0,0,0,0,0,0,0,0,0,0,0,0,0,0,0,0,0,0,0,0,0,0,0,0,0,0,0,0,0,0,0,0,0,0,0,0,0,0,0,0,0,0,0,0,0,0,0,0,0,0,0,0,0],"sum_hessian":[6.616E3,7.96E2,5.82E3,1.41E2,6.55E2,2.702E3,3.118E3,6.9E1,7.2E1,5.49E2,1.06E2,9.65E2,1.737E3,1.573E3,1.545E3,1E1,5.9E1,1.1E1,6.1E1,3.6E1,5.13E2,9.1E1,1.5E1,6.38E2,3.27E2,3.62E2,1.375E3,1.03E3,5.43E2,3.08E2,1.237E3,4.44E2,6.9E1,3.4E1,5.7E1,5E0,1E1,5.88E2,5E1,2.24E2,1.03E2,2.98E2,6.4E1,9.37E2,4.38E2,9.26E2,1.04E2,4.1E1,5.02E2,2.5E2,5.8E1,9.03E2,3.34E2],"tree_param":{"num_deleted":"0","num_feature":"5","num_nodes":"53","size_leaf_vector":"1"}},{"base_weights":[-3.376086E-2,-1.7524017E1,2.33005E0,-7.459673E0,-1.9827068E1,-2.4678357E0,7.1335382E0,-4.389109E0,-1.0702568E1,-2.1568134E1,-9.828838E0,-6.0899944E0,-6.4670974E-1,4.448028E0,1.0379001E1,-3.676415E-1,-3.5343611E0,-5.738599E-1,-9.688565E0,-6.0294384E-1,-2.1987455E1,-1.6347314E0,-1.1054914E1,-8.47397E0,-5.0822067E0,-1.6694818E0,1.1172756E0,-5.441898E0,4.7295647E0,1.1327021E1,6.494903E0,-8.499406E-2,-1.9282159E-1,-3.2086644E-1,-4.4089514E-1,-8.9930046E-1,-7.4540055E-1,-3.8640925E-1,1.055687E-1,-4.9745864E-1,-3.0226454E-1,-3.7162155E-1,2.3352206E-2,-2.1909946E-1,7.583969E-2,-2.1184325E-1,-5.386411E-2,-1.09113194E-1,7.4091256E-2,-2.8537455E-1,-6.1267428E-2,5.582122E-2,2.262903E-1,5.103548E-1,3.0431288E-1,2.06966E-1,4.1091478E-1],"categories":[],"categories_nodes":[],"categories_segments":[],"categories_sizes":[],"default_left":[0,0,0,0,0,0,0,0,0,0,0,0,0,0,0,0,0,0,0,0,0,0,0,0,0,0,0,0,0,0,0,0,0,0,0,0,0,0,0,0,0,0,0,0,0,0,0,0,0,0,0,0,0,0,0,0,0],"id":23,"left_children":[1,3,5,7,9,11,13,15,17,19,21,23,25,27,29,-1,31,-1,33,-1,35,37,39,41,43,45,47,49,51,53,55,-1,-1,-1,-1,-1,-1,-1,-1,-1,-1,-1,-1,-1,-1,-1,-1,-1,-1,-1,-1,-1,-1,-1,-1,-1,-1],"loss_changes":[2.7648247E5,1.8274672E4,1.3579364E5,1.4377402E3,1.1008641E4,1.9442125E4,2.5603969E4,2.8481763E2,9.757617E1,1.0969219E3,9.636211E2,2.3163516E3,3.5442107E3,4.5225645E3,4.8153594E3,0E0,1.1246527E2,0E0,2.5838867E1,0E0,3.4653125E2,5.183649E2,2.9700586E2,2.1611797E3,1.9331797E3,1.4465066E3,2.0442134E3,2.851494E2,4.843297E3,5.575328E3,1.2529678E3,0E0,0E0,0E0,0E0,0E0,0E0,0E0,0E0,0E0,0E0,0E0,0E0,0E0,0E0,0E0,0E0,0E0,0E0,0E0,0E0,0E0,0E0,0E0,0E0,0E0,0E0],"parents":[2147483647,0,0,1,1,2,2,3,3,4,4,5,5,6,6,7,7,8,8,9,9,10,10,11,11,12,12,13,13,14,14,16,16,18,18,20,20,21,21,22,22,23,23,24,24,25,25,26,26,27,27,28,28,29,29,30,30],"right_children":[2,4,6,8,10,12,14,16,18,20,22,24,26,28,30,-1,32,-1,34,-1,36,38,40,42,44,46,48,50,52,54,56,-1,-1,-1,-1,-1,-1,-1,-1,-1,-1,-1,-1,-1,-1,-1,-1,-1,-1,-1,-1,-1,-1,-1,-1,-1,-1],"split_conditions":[6E1,-3.5E1,5.9553333E1,-4.5E1,4.5E1,4.2446667E1,7.4003334E1,-9.659258E-1,-9.659258E-1,-3E1,-8.660254E-1,3.1556667E1,5.377667E1,9E1,-2.5881904E-1,-3.676415E-1,-5E1,-5.738599E-1,-4E1,-6.0294384E-1,3.5E1,5E1,7.4003334E1,9.45E2,9.25E2,-9.659258E-1,-8.660254E-1,7.0223335E1,-8.660254E-1,2.5881904E-1,6.95E2,-8.499406E-2,-1.9282159E-1,-3.2086644E-1,-4.4089514E-1,-8.9930046E-1,-7.4540055E-1,-3.8640925E-1,1.055687E-1,-4.9745864E-1,-3.0226454E-1,-3.7162155E-1,2.3352206E-2,-2.1909946E-1,7.583969E-2,-2.1184325E-1,-5.386411E-2,-1.09113194E-1,7.4091256E-2,-2.8537455E-1,-6.1267428E-2,5.582122E-2,2.262903E-1,5.103548E-1,3.0431288E-1,2.06966E-1,4.1091478E-1],"split_indices":[1,1,2,1,1,2,2,3,3,1,3,2,2,1,3,0,1,0,1,0,1,1,2,1,1,4,4,2,3,4,1,0,0,0,0,0,0,0,0,0,0,0,0,0,0,0,0,0,0,0,0,0,0,0,0,0,0],"split_type":[0,0,0,0,0,0,0,0,0,0,0,0,0,0,0,0,0,0,0,0,0,0,0,0,0,0,0,0,0,0,0,0,0,0,0,0,0,0,0,0,0,0,0,0,0,0,0,0,0,0,0,0,0,0,0,0,0],"sum_hessian":[6.685E3,7.95E2,5.89E3,1.49E2,6.46E2,2.947E3,2.943E3,7.8E1,7.1E1,5.49E2,9.7E1,9.85E2,1.962E3,1.612E3,1.331E3,1E1,6.8E1,1.2E1,5.9E1,3.6E1,5.13E2,1.3E1,8.4E1,2.9E2,6.95E2,1.242E3,7.2E2,4.4E1,1.568E3,1.068E3,2.63E2,3.4E1,3.4E1,3E1,2.9E1,4.41E2,7.2E1,4E0,9E0,5.8E1,2.6E1,2.66E2,2.4E1,6.58E2,3.7E1,1E2,1.142E3,1.15E2,6.05E2,3E1,1.4E1,3.42E2,1.226E3,7.69E2,2.99E2,1.97E2,6.6E1],"tree_param":{"num_deleted":"0","num_feature":"5","num_nodes":"57","size_leaf_vector":"1"}},{"base_weights":[6.349083E-3,-1.6959435E1,2.279824E0,-7.628053E0,-1.8996975E1,-2.0676682E0,7.1875877E0,-5.3414106E0,-9.635897E0,-2.056666E1,-1.0274621E1,-5.5803394E0,-1.0116849E-1,5.3469257E0,1.1389777E1,-3.4187305E-1,-1.8760663E-1,-5.34289E-1,-8.732997E0,-5.409687E-1,-2.102044E1,-1.2008675E1,-4.823082E0,-9.862082E0,-4.644617E0,-1.6149552E0,1.0144112E0,6.246736E0,2.7552073E0,1.1986629E1,6.1107445E0,-2.8273547E-1,-4.107107E-1,-8.619026E-1,-6.9711834E-1,-5.683628E-1,-3.9106122E-1,-4.4030055E-1,-9.309039E-2,1.2699719E-1,-4.115763E-1,-1.9964488E-1,1.6701956E-1,-7.0247486E-2,2.967049E-1,6.723209E-2,-7.41928E-2,3.4467497E-1,1.5688744E-1,2.3849872E-1,-2.5433945E-3,3.7784064E-1,5.3755754E-1,-3.7381522E-2,2.6585495E-1],"categories":[],"categories_nodes":[],"categories_segments":[],"categories_sizes":[],"default_left":[0,0,0,0,0,0,0,0,0,0,0,0,0,0,0,0,0,0,0,0,0,0,0,0,0,0,0,0,0,0,0,0,0,0,0,0,0,0,0,0,0,0,0,0,0,0,0,0,0,0,0,0,0,0,0],"id":24,"left_children":[1,3,5,7,9,11,13,15,17,19,21,23,25,27,29,-1,-1,-1,31,-1,33,35,37,39,41,43,45,47,49,51,53,-1,-1,-1,-1,-1,-1,-1,-1,-1,-1,-1,-1,-1,-1,-1,-1,-1,-1,-1,-1,-1,-1,-1,-1],"loss_changes":[2.553174E5,1.4695469E4,1.2456357E5,5.896113E2,8.522219E3,2.1386273E4,2.113564E4,9.5028564E1,1.07123535E2,1.3881094E3,8.7603125E2,4.395629E3,3.356221E3,4.4308047E3,2.5386953E3,0E0,0E0,0E0,7.2637695E1,0E0,5.0595312E2,2.0025488E2,3.723291E2,1.1440977E3,2.819082E3,1.090727E3,2.1914678E3,7.760746E3,4.4689106E3,2.6060469E3,3.370879E2,0E0,0E0,0E0,0E0,0E0,0E0,0E0,0E0,0E0,0E0,0E0,0E0,0E0,0E0,0E0,0E0,0E0,0E0,0E0,0E0,0E0,0E0,0E0,0E0],"parents":[2147483647,0,0,1,1,2,2,3,3,4,4,5,5,6,6,7,7,8,8,9,9,10,10,11,11,12,12,13,13,14,14,18,18,20,20,21,21,22,22,23,23,24,24,25,25,26,26,27,27,28,28,29,29,30,30],"right_children":[2,4,6,8,10,12,14,16,18,20,22,24,26,28,30,-1,-1,-1,32,-1,34,36,38,40,42,44,46,48,50,52,54,-1,-1,-1,-1,-1,-1,-1,-1,-1,-1,-1,-1,-1,-1,-1,-1,-1,-1,-1,-1,-1,-1,-1,-1],"split_conditions":[6E1,-3.5E1,6.133E1,-4.5E1,4.5E1,4.467E1,8.133E1,-9.659258E-1,-9.659258E-1,-3E1,8.2E1,3E1,5.2E1,-1.8369701E-16,-2.5881904E-1,-3.4187305E-1,-1.8760663E-1,-5.34289E-1,-4E1,-5.409687E-1,3.5E1,5.8E1,5E1,2.4E2,9.4E2,9.35E2,8E2,5.55E2,1.95E2,2.65E2,3.9E2,-2.8273547E-1,-4.107107E-1,-8.619026E-1,-6.9711834E-1,-5.683628E-1,-3.9106122E-1,-4.4030055E-1,-9.309039E-2,1.2699719E-1,-4.115763E-1,-1.9964488E-1,1.6701956E-1,-7.0247486E-2,2.967049E-1,6.723209E-2,-7.41928E-2,3.4467497E-1,1.5688744E-1,2.3849872E-1,-2.5433945E-3,3.7784064E-1,5.3755754E-1,-3.7381522E-2,2.6585495E-1],"split_indices":[1,1,0,1,1,0,0,3,3,1,0,0,0,4,3,0,0,0,1,0,1,0,1,1,1,1,1,1,1,1,1,0,0,0,0,0,0,0,0,0,0,0,0,0,0,0,0,0,0,0,0,0,0,0,0],"split_type":[0,0,0,0,0,0,0,0,0,0,0,0,0,0,0,0,0,0,0,0,0,0,0,0,0,0,0,0,0,0,0,0,0,0,0,0,0,0,0,0,0,0,0,0,0,0,0,0,0,0,0,0,0,0,0],"sum_hessian":[6.617E3,7.81E2,5.836E3,1.41E2,6.4E2,3.095E3,2.741E3,6.8E1,7.3E1,5.41E2,9.9E1,1.11E3,1.985E3,1.908E3,8.33E2,9E0,5.9E1,1.1E1,6.2E1,3.5E1,5.06E2,7.4E1,2.5E1,1.97E2,9.13E2,8.42E2,1.143E3,1.415E3,4.93E2,7.47E2,8.6E1,3.3E1,2.9E1,4.36E2,7E1,3.4E1,4E1,6E0,1.9E1,6E0,1.91E2,8.79E2,3.4E1,8.3E2,1.2E1,9.28E2,2.15E2,6.99E2,7.16E2,2.3E2,2.63E2,2.75E2,4.72E2,6E0,8E1],"tree_param":{"num_deleted":"0","num_feature":"5","num_nodes":"55","size_leaf_vector":"1"}},{"base_weights":[6.7376435E-2,-1.6362053E1,2.319629E0,-7.313759E0,-1.8250793E1,-1.0104585E0,8.154023E0,-5.8473964E0,-4.4730136E-1,-1.9769634E1,-1.0267968E1,-4.14678E0,1.6437126E0,6.156168E0,1.1179159E1,-3.8873637E-1,-5.264314E0,-5.501503E-1,-2.020532E1,-3.9554918E0,-1.1231922E1,-7.1915483E0,-2.6765864E0,2.2079213E0,-1.210381E0,7.126236E0,3.461135E0,5.377222E0,1.1746106E1,-1.4245433E-1,-2.4500707E-1,-8.2185143E-1,-6.067119E-1,-3.441143E-1,-7.993684E-3,-5.177003E-1,-3.294664E-1,-4.201354E-1,-2.5143397E-1,-1.9633055E-1,-8.279014E-2,1.3220339E-1,-8.927072E-3,-1.0799009E-2,-1.3092156E-1,3.724789E-1,1.9365555E-1,2.8578186E-1,9.481944E-3,2.8466186E-1,1.2674394E-1,3.6706644E-1,5.2298814E-1],"categories":[],"categories_nodes":[],"categories_segments":[],"categories_sizes":[],"default_left":[0,0,0,0,0,0,0,0,0,0,0,0,0,0,0,0,0,0,0,0,0,0,0,0,0,0,0,0,0,0,0,0,0,0,0,0,0,0,0,0,0,0,0,0,0,0,0,0,0,0,0,0,0],"id":25,"left_children":[1,3,5,7,9,11,13,15,-1,17,19,21,23,25,27,-1,29,-1,31,33,35,37,39,41,43,45,47,49,51,-1,-1,-1,-1,-1,-1,-1,-1,-1,-1,-1,-1,-1,-1,-1,-1,-1,-1,-1,-1,-1,-1,-1,-1],"loss_changes":[2.456049E5,1.3512609E4,1.1342183E5,7.1518945E2,7.7702188E3,3.0951645E4,1.273575E4,1.7230054E2,0E0,1.1156875E3,6.035586E2,7.604592E3,3.2467812E3,3.31625E3,2.6928125E3,0E0,1.0948657E2,0E0,5.0565625E2,2.798095E2,3.4748242E2,1.5814336E3,1.5461299E3,4.4881465E3,6.4490515E2,4.639914E3,4.0491982E3,2.6847705E2,2.4694219E3,0E0,0E0,0E0,0E0,0E0,0E0,0E0,0E0,0E0,0E0,0E0,0E0,0E0,0E0,0E0,0E0,0E0,0E0,0E0,0E0,0E0,0E0,0E0,0E0],"parents":[2147483647,0,0,1,1,2,2,3,3,4,4,5,5,6,6,7,7,9,9,10,10,11,11,12,12,13,13,14,14,16,16,18,18,19,19,20,20,21,21,22,22,23,23,24,24,25,25,26,26,27,27,28,28],"right_children":[2,4,6,8,10,12,14,16,-1,18,20,22,24,26,28,-1,30,-1,32,34,36,38,40,42,44,46,48,50,52,-1,-1,-1,-1,-1,-1,-1,-1,-1,-1,-1,-1,-1,-1,-1,-1,-1,-1,-1,-1,-1,-1,-1,-1],"split_conditions":[6E1,-3.5E1,6.667E1,-4E1,4.5E1,5E1,8.133E1,2.5881904E-1,-4.4730136E-1,-3E1,-1.8369701E-16,3.8E1,8.05E2,-1.8369701E-16,-8.660254E-1,-3.8873637E-1,-5E1,-5.501503E-1,4E1,5E1,6.6003334E1,2.733E1,2.7E2,-1.8369701E-16,8.95E2,5.55E2,1.95E2,8.3776665E1,2.65E2,-1.4245433E-1,-2.4500707E-1,-8.2185143E-1,-6.067119E-1,-3.441143E-1,-7.993684E-3,-5.177003E-1,-3.294664E-1,-4.201354E-1,-2.5143397E-1,-1.9633055E-1,-8.279014E-2,1.3220339E-1,-8.927072E-3,-1.0799009E-2,-1.3092156E-1,3.724789E-1,1.9365555E-1,2.8578186E-1,9.481944E-3,2.8466186E-1,1.2674394E-1,3.6706644E-1,5.2298814E-1],"split_indices":[1,1,0,1,1,0,0,4,0,1,4,0,1,4,4,0,1,0,1,1,2,0,1,4,1,1,1,2,1,0,0,0,0,0,0,0,0,0,0,0,0,0,0,0,0,0,0,0,0,0,0,0,0],"split_type":[0,0,0,0,0,0,0,0,0,0,0,0,0,0,0,0,0,0,0,0,0,0,0,0,0,0,0,0,0,0,0,0,0,0,0,0,0,0,0,0,0,0,0,0,0,0,0,0,0,0,0,0,0],"sum_hessian":[6.635E3,7.99E2,5.836E3,1.39E2,6.6E2,3.716E3,2.12E3,1.03E2,3.6E1,5.53E2,1.07E2,1.703E3,2.013E3,1.279E3,8.41E2,1.1E1,9.2E1,4E1,5.13E2,1.5E1,9.2E1,5.53E2,1.15E3,1.681E3,3.32E2,9.39E2,3.4E2,7.6E1,7.65E2,3.3E1,5.9E1,4.77E2,3.6E1,6E0,9E0,5.6E1,3.6E1,1.16E2,4.37E2,2.44E2,9.06E2,1.158E3,5.23E2,2.29E2,1.03E2,4.78E2,4.61E2,1.58E2,1.82E2,4.1E1,3.5E1,2.64E2,5.01E2],"tree_param":{"num_deleted":"0","num_feature":"5","num_nodes":"53","size_leaf_vector":"1"}},{"base_weights":[-7.21396E-2,-1.6007088E1,2.0356095E0,-6.4425883E0,-1.811786E1,-1.690726E0,6.700423E0,-5.233995E0,-4.1492653E-1,-1.9333279E1,-1.1982695E1,-5.434901E0,-3.3427957E-2,4.866433E0,9.629758E0,-3.7232697E-1,-4.5312343E0,-5.2236193E-1,-7.898621E-1,-1.3767605E1,-5.7619405E0,-9.612869E0,-4.6382284E0,-1.1287409E0,1.5901439E0,2.1639442E0,5.612352E0,1.6865208E0,1.0035858E1,-9.0169676E-2,-2.2220506E-1,-5.971624E-1,-4.1518146E-1,-7.871072E-2,-3.1808355E-1,-5.718861E-1,-3.4446597E-1,-2.0255144E-1,1.13298506E-1,-1.7891157E-1,-3.4292832E-2,-2.9831237E-1,7.589923E-2,1.4161414E-2,5.856504E-1,3.2902184E-1,1.734374E-1,4.4549623E-1,-7.891164E-2,4.3310773E-1,2.171101E-1],"categories":[],"categories_nodes":[],"categories_segments":[],"categories_sizes":[],"default_left":[0,0,0,0,0,0,0,0,0,0,0,0,0,0,0,0,0,0,0,0,0,0,0,0,0,0,0,0,0,0,0,0,0,0,0,0,0,0,0,0,0,0,0,0,0,0,0,0,0,0,0],"id":26,"left_children":[1,3,5,7,9,11,13,15,-1,17,19,21,23,25,27,-1,29,-1,-1,31,33,35,37,39,41,43,45,47,49,-1,-1,-1,-1,-1,-1,-1,-1,-1,-1,-1,-1,-1,-1,-1,-1,-1,-1,-1,-1,-1,-1],"loss_changes":[2.2316481E5,1.5527766E4,1.02019016E5,6.088042E2,4.455422E3,2.024809E4,1.3943781E4,2.6638794E2,0E0,1.056875E3,1.10425E3,3.277539E3,4.0267996E3,3.2204727E3,3.2113594E3,0E0,2.1080359E2,0E0,0E0,1.3891992E2,1.9794739E2,5.966094E2,2.6981445E3,1.2221788E3,2.5530435E3,7.8781963E3,4.1493633E3,1.7633864E3,3.4059531E3,0E0,0E0,0E0,0E0,0E0,0E0,0E0,0E0,0E0,0E0,0E0,0E0,0E0,0E0,0E0,0E0,0E0,0E0,0E0,0E0,0E0,0E0],"parents":[2147483647,0,0,1,1,2,2,3,3,4,4,5,5,6,6,7,7,9,9,10,10,11,11,12,12,13,13,14,14,16,16,19,19,20,20,21,21,22,22,23,23,24,24,25,25,26,26,27,27,28,28],"right_children":[2,4,6,8,10,12,14,16,-1,18,20,22,24,26,28,-1,30,-1,-1,32,34,36,38,40,42,44,46,48,50,-1,-1,-1,-1,-1,-1,-1,-1,-1,-1,-1,-1,-1,-1,-1,-1,-1,-1,-1,-1,-1,-1],"split_conditions":[5.5E1,-3.5E1,6.267E1,-4E1,4E1,4.333E1,7.867E1,-9.659258E-1,-4.1492653E-1,-3E1,7.467E1,2.867E1,5.533E1,-8.660254E-1,7.5E1,-3.7232697E-1,-5E1,-5.2236193E-1,-7.898621E-1,5E1,-8.660254E-1,-8.660254E-1,9.3E2,-9.659258E-1,7.5E1,3.45E2,-5E-1,-7.0710677E-1,-2.5881904E-1,-9.0169676E-2,-2.2220506E-1,-5.971624E-1,-4.1518146E-1,-7.871072E-2,-3.1808355E-1,-5.718861E-1,-3.4446597E-1,-2.0255144E-1,1.13298506E-1,-1.7891157E-1,-3.4292832E-2,-2.9831237E-1,7.589923E-2,1.4161414E-2,5.856504E-1,3.2902184E-1,1.734374E-1,4.4549623E-1,-7.891164E-2,4.3310773E-1,2.171101E-1],"split_indices":[1,1,0,1,1,0,0,3,0,1,0,0,0,3,1,0,1,0,0,1,3,4,1,4,1,1,3,3,3,0,0,0,0,0,0,0,0,0,0,0,0,0,0,0,0,0,0,0,0,0,0],"split_type":[0,0,0,0,0,0,0,0,0,0,0,0,0,0,0,0,0,0,0,0,0,0,0,0,0,0,0,0,0,0,0,0,0,0,0,0,0,0,0,0,0,0,0,0,0,0,0,0,0,0,0],"sum_hessian":[6.642E3,7.75E2,5.867E3,1.41E2,6.34E2,3.262E3,2.605E3,1.1E2,3.1E1,5.27E2,1.07E2,1E3,2.262E3,1.604E3,1.001E3,1.4E1,9.6E1,3.5E1,4.92E2,8.2E1,2.5E1,1.58E2,8.42E2,1.351E3,9.11E2,3.48E2,1.256E3,4.9E1,9.52E2,3.1E1,6.5E1,5.8E1,2.4E1,1E1,1.5E1,2.5E1,1.33E2,7.97E2,4.5E1,1E2,1.251E3,2.9E1,8.82E2,3.05E2,4.3E1,4.1E2,8.46E2,1.3E1,3.6E1,8.11E2,1.41E2],"tree_param":{"num_deleted":"0","num_feature":"5","num_nodes":"51","size_leaf_vector":"1"}},{"base_weights":[-3.3843383E-2,-5.834566E0,4.4978786E0,-3.4152536E0,-1.5166457E1,5.068196E0,-1.1370547E1,-1.0967928E1,-2.481652E0,-4.7758082E-1,-1.7315329E1,2.699397E0,8.138415E0,-1.3088274E1,-4.2216697E0,-6.557018E-1,-8.87404E0,-4.164953E0,-1.1507897E0,-7.2009444E-1,-6.184525E-1,3.0865743E0,-2.2051265E0,6.745231E0,1.0231101E1,-1.3644411E1,-9.524692E0,-5.422417E0,2.0905125E0,-2.8131746E-3,-3.8322046E-1,2.0112532E-1,-1.7629829E-1,-1.9224061E-1,-3.446603E-2,1.3765549E-2,1.5358268E-1,-4.089838E-2,-1.378887E-1,1.2694716E-1,2.8577438E-1,3.7427917E-1,4.9163362E-1,-4.3631354E-1,-6.078747E-1,-3.0282164E-1,-5.5406815E-1,7.614975E-3,-2.3869674E-1,2.3373777E-1,-9.660447E-2],"categories":[],"categories_nodes":[],"categories_segments":[],"categories_sizes":[],"default_left":[0,0,0,0,0,0,0,0,0,0,0,0,0,0,0,0,0,0,0,0,0,0,0,0,0,0,0,0,0,0,0,0,0,0,0,0,0,0,0,0,0,0,0,0,0,0,0,0,0,0,0],"id":27,"left_children":[1,3,5,7,9,11,13,15,17,-1,19,21,23,25,27,-1,29,31,33,-1,-1,35,37,39,41,43,45,47,49,-1,-1,-1,-1,-1,-1,-1,-1,-1,-1,-1,-1,-1,-1,-1,-1,-1,-1,-1,-1,-1,-1],"loss_changes":[1.7658212E5,6.645165E4,3.4198055E4,1.6474234E4,3.9525312E3,2.6454023E4,1.5430762E3,2.744332E3,4.6650684E3,0E0,1.22734375E2,3.9147158E3,4.537125E3,5.0222656E1,2.2009393E2,0E0,1.168751E3,2.0779912E3,1.2269835E3,0E0,0E0,3.9364297E3,2.1743329E2,1.3334023E3,9.9628125E2,1.7317969E2,2.5912476E1,7.290924E1,1.0520628E2,0E0,0E0,0E0,0E0,0E0,0E0,0E0,0E0,0E0,0E0,0E0,0E0,0E0,0E0,0E0,0E0,0E0,0E0,0E0,0E0,0E0,0E0],"parents":[2147483647,0,0,1,1,2,2,3,3,4,4,5,5,6,6,7,7,8,8,10,10,11,11,12,12,13,13,14,14,16,16,17,17,18,18,21,21,22,22,23,23,24,24,25,25,26,26,27,27,28,28],"right_children":[2,4,6,8,10,12,14,16,18,-1,20,22,24,26,28,-1,30,32,34,-1,-1,36,38,40,42,44,46,48,50,-1,-1,-1,-1,-1,-1,-1,-1,-1,-1,-1,-1,-1,-1,-1,-1,-1,-1,-1,-1,-1,-1],"split_conditions":[5.467E1,8.660254E-1,8.660254E-1,3E1,2.2333333E-1,7.2E1,8.133E1,-8.660254E-1,4.467E1,-4.7758082E-1,3.733E1,8.660254E-1,8.533E1,7.4E1,9.711E1,-6.557018E-1,-2.5881904E-1,2.7333334E1,-9.659258E-1,-7.2009444E-1,-6.184525E-1,-8.660254E-1,5.8443333E1,-9.659258E-1,9.467E1,6.1553333E1,8.444334E1,7.955334E1,9.9776665E1,-2.8131746E-3,-3.8322046E-1,2.0112532E-1,-1.7629829E-1,-1.9224061E-1,-3.446603E-2,1.3765549E-2,1.5358268E-1,-4.089838E-2,-1.378887E-1,1.2694716E-1,2.8577438E-1,3.7427917E-1,4.9163362E-1,-4.3631354E-1,-6.078747E-1,-3.0282164E-1,-5.5406815E-1,7.614975E-3,-2.3869674E-1,2.3373777E-1,-9.660447E-2],"split_indices":[0,4,4,0,2,0,0,3,0,0,0,3,0,0,2,0,3,2,4,0,0,3,2,4,0,2,2,2,2,0,0,0,0,0,0,0,0,0,0,0,0,0,0,0,0,0,0,0,0,0,0],"split_type":[0,0,0,0,0,0,0,0,0,0,0,0,0,0,0,0,0,0,0,0,0,0,0,0,0,0,0,0,0,0,0,0,0,0,0,0,0,0,0,0,0,0,0,0,0,0,0,0,0,0,0],"sum_hessian":[6.715E3,2.945E3,3.77E3,2.34E3,6.05E2,3.64E3,1.3E2,2.56E2,2.084E3,2.45E2,3.6E2,2.056E3,1.584E3,1.04E2,2.6E1,6.9E1,1.87E2,9.19E2,1.165E3,2.55E2,1.05E2,1.906E3,1.5E2,9.54E2,6.3E2,8.7E1,1.7E1,2.2E1,4E0,1.4E1,1.73E2,2.3E1,8.96E2,8.4E1,1.081E3,4.11E2,1.495E3,7.8E1,7.2E1,9.7E1,8.57E2,4.47E2,1.83E2,3.5E1,5.2E1,1.4E1,3E0,2E0,2E1,2E0,2E0],"tree_param":{"num_deleted":"0","num_feature":"5","num_nodes":"51","size_leaf_vector":"1"}},{"base_weights":[-4.8359502E-2,-1.4448603E1,1.908105E0,-6.0591063E0,-1.634567E1,-1.6107543E0,6.2365594E0,-1.0104161E1,-5.2183614E0,-1.7725763E1,-8.612116E0,-5.793067E0,-3.5399118E-1,4.6084557E0,9.79874E0,-2.3238571E-1,-4.4525558E-1,-3.8682604E0,-6.4677973E0,-4.8315668E-1,-1.8048172E1,2.924167E-1,-1.0185107E1,-8.483445E0,-5.0736527E0,-1.4534273E0,1.1499596E0,-4.1750402E0,4.836689E0,1.0281339E1,5.3146176E0,-1.1380629E-1,-1.8329029E-1,-2.1377161E-1,-2.9388648E-1,-7.400964E-1,-5.960923E-1,-1.0290306E-1,2.1709682E-1,-5.204634E-1,-3.4107187E-1,-5.420611E-1,-2.991176E-1,-2.1972919E-1,1.8364556E-1,-1.7753528E-1,-4.83328E-2,6.538834E-2,-6.2624365E-2,2.3117626E-1,-2.2215454E-1,1.5633951E-1,2.7905005E-1,3.13629E-1,4.6066645E-1,2.55241E-1,1.4980905E-1],"categories":[],"categories_nodes":[],"categories_segments":[],"categories_sizes":[],"default_left":[0,0,0,0,0,0,0,0,0,0,0,0,0,0,0,0,0,0,0,0,0,0,0,0,0,0,0,0,0,0,0,0,0,0,0,0,0,0,0,0,0,0,0,0,0,0,0,0,0,0,0,0,0,0,0,0,0],"id":28,"left_children":[1,3,5,7,9,11,13,15,17,19,21,23,25,27,29,-1,-1,31,33,-1,35,37,39,41,43,45,47,49,51,53,55,-1,-1,-1,-1,-1,-1,-1,-1,-1,-1,-1,-1,-1,-1,-1,-1,-1,-1,-1,-1,-1,-1,-1,-1,-1,-1],"loss_changes":[1.868307E5,1.2503031E4,8.8935445E4,4.3920264E2,6.7110938E3,1.6928121E4,1.5128883E4,2.7459717E1,1.8013867E2,7.316094E2,1.4080396E3,1.3873906E3,4.099735E3,3.6311367E3,1.7078047E3,0E0,0E0,2.9779724E1,1.4052246E1,0E0,4.0201562E2,2.5537082E2,2.6405664E2,6.671885E2,2.4236875E3,1.0408462E3,1.3815791E3,6.726097E2,3.4499336E3,2.1183594E3,1.0788013E2,0E0,0E0,0E0,0E0,0E0,0E0,0E0,0E0,0E0,0E0,0E0,0E0,0E0,0E0,0E0,0E0,0E0,0E0,0E0,0E0,0E0,0E0,0E0,0E0,0E0,0E0],"parents":[2147483647,0,0,1,1,2,2,3,3,4,4,5,5,6,6,7,7,8,8,9,9,10,10,11,11,12,12,13,13,14,14,17,17,18,18,20,20,21,21,22,22,23,23,24,24,25,25,26,26,27,27,28,28,29,29,30,30],"right_children":[2,4,6,8,10,12,14,16,18,20,22,24,26,28,30,-1,-1,32,34,-1,36,38,40,42,44,46,48,50,52,54,56,-1,-1,-1,-1,-1,-1,-1,-1,-1,-1,-1,-1,-1,-1,-1,-1,-1,-1,-1,-1,-1,-1,-1,-1,-1,-1],"split_conditions":[6E1,-3.5E1,6.267E1,2.5881904E-1,4.5E1,4.067E1,8.133E1,-5.3E1,-4.5E1,-3E1,-1.8369701E-16,2.867E1,5.4E1,8E1,5.47E2,-2.3238571E-1,-4.4525558E-1,-5E1,-4E1,-4.8315668E-1,3.5E1,8.7996666E1,5E1,-8.660254E-1,9.4E2,-9.659258E-1,8.2E2,-2.5881904E-1,7.4E1,2.6E2,8.3776665E1,-1.1380629E-1,-1.8329029E-1,-2.1377161E-1,-2.9388648E-1,-7.400964E-1,-5.960923E-1,-1.0290306E-1,2.1709682E-1,-5.204634E-1,-3.4107187E-1,-5.420611E-1,-2.991176E-1,-2.1972919E-1,1.8364556E-1,-1.7753528E-1,-4.83328E-2,6.538834E-2,-6.2624365E-2,2.3117626E-1,-2.2215454E-1,1.5633951E-1,2.7905005E-1,3.13629E-1,4.6066645E-1,2.55241E-1,1.4980905E-1],"split_indices":[1,1,0,4,1,0,0,1,1,1,4,0,0,1,1,0,0,1,1,0,1,2,1,4,1,4,1,4,0,1,2,0,0,0,0,0,0,0,0,0,0,0,0,0,0,0,0,0,0,0,0,0,0,0,0,0,0],"split_type":[0,0,0,0,0,0,0,0,0,0,0,0,0,0,0,0,0,0,0,0,0,0,0,0,0,0,0,0,0,0,0,0,0,0,0,0,0,0,0,0,0,0,0,0,0,0,0,0,0,0,0,0,0,0,0,0,0],"sum_hessian":[6.629E3,7.92E2,5.837E3,1.47E2,6.45E2,3.22E3,2.617E3,2.3E1,1.24E2,5.46E2,9.9E1,7.43E2,2.477E3,1.798E3,8.19E2,6E0,1.7E1,6.2E1,6.2E1,3.2E1,5.14E2,1.5E1,8.4E1,1.54E2,5.89E2,1.431E3,1.046E3,4.5E1,1.753E3,7.38E2,8.1E1,2.8E1,3.4E1,3.1E1,3.1E1,4.44E2,7E1,1E1,5E0,2.8E1,5.6E1,2.3E1,1.31E2,5.65E2,2.4E1,1.07E2,1.324E3,8.88E2,1.58E2,5E0,4E1,1.225E3,5.28E2,2.51E2,4.87E2,4.6E1,3.5E1],"tree_param":{"num_deleted":"0","num_feature":"5","num_nodes":"57","size_leaf_vector":"1"}},{"base_weights":[2.3463522E-3,-6.1574054E0,3.6615577E0,-3.8017414E0,-1.4299268E1,4.1957536E0,-1.0808002E1,-7.375165E0,-2.204043E0,-4.735041E-1,-6.4342695E-1,1.7960681E0,7.2133627E0,-1.238791E1,-6.751988E0,-1.2902335E1,-5.9785776E0,-6.114506E0,-1.8684063E0,3.1247106E0,3.1713712E-1,5.9210377E0,9.65452E0,-1.0709592E1,-5.4693985E-1,-7.6912727E0,2.0483234E0,-3.4532768E-1,-5.9489983E-1,6.88402E-2,-2.6312774E-1,-3.3688113E-1,-1.1506668E-1,-1.5160707E-1,-4.8634585E-2,2.6281467E-1,7.442379E-2,4.7015674E-2,-6.349655E-2,1.5233302E-1,2.7151844E-1,3.4948444E-1,4.731777E-1,-4.7726732E-1,-1.7534919E-1,-5.5486877E-2,-3.4146443E-1,2.2823736E-1,-9.384635E-2],"categories":[],"categories_nodes":[],"categories_segments":[],"categories_sizes":[],"default_left":[0,0,0,0,0,0,0,0,0,0,0,0,0,0,0,0,0,0,0,0,0,0,0,0,0,0,0,0,0,0,0,0,0,0,0,0,0,0,0,0,0,0,0,0,0,0,0,0,0],"id":29,"left_children":[1,3,5,7,9,11,13,15,17,-1,-1,19,21,23,25,27,29,31,33,35,37,39,41,43,-1,45,47,-1,-1,-1,-1,-1,-1,-1,-1,-1,-1,-1,-1,-1,-1,-1,-1,-1,-1,-1,-1,-1,-1],"loss_changes":[1.4922247E5,4.7252594E4,3.2156234E4,1.0913896E4,2.2014297E3,2.8993703E4,8.4739844E2,4.469123E3,1.72481E3,0E0,0E0,4.3866396E3,5.527039E3,4.8817383E1,3.8482654E2,8.377422E2,2.2033555E3,7.483154E2,1.5266509E3,5.10767E3,1.7319209E3,2.0983867E3,1.0954375E3,3.3141797E2,0E0,1.990271E2,9.9981606E1,0E0,0E0,0E0,0E0,0E0,0E0,0E0,0E0,0E0,0E0,0E0,0E0,0E0,0E0,0E0,0E0,0E0,0E0,0E0,0E0,0E0,0E0],"parents":[2147483647,0,0,1,1,2,2,3,3,4,4,5,5,6,6,7,7,8,8,11,11,12,12,13,13,14,14,15,15,16,16,17,17,18,18,19,19,20,20,21,21,22,22,23,23,25,25,26,26],"right_children":[2,4,6,8,10,12,14,16,18,-1,-1,20,22,24,26,28,30,32,34,36,38,40,42,44,-1,46,48,-1,-1,-1,-1,-1,-1,-1,-1,-1,-1,-1,-1,-1,-1,-1,-1,-1,-1,-1,-1,-1,-1],"split_conditions":[5.133E1,8.660254E-1,8.660254E-1,3.733E1,2.2333333E-1,7E1,7.4E1,2.4E1,-8.660254E-1,-4.735041E-1,-6.4342695E-1,-5E-1,8.533E1,6.1553333E1,9.711E1,-2.5881904E-1,2.2446667E1,4.667E1,-8.660254E-1,-2.5881904E-1,-7.0710677E-1,-8.660254E-1,9.467E1,5.867E1,-5.4693985E-1,7.778E1,9.9776665E1,-3.4532768E-1,-5.9489983E-1,6.88402E-2,-2.6312774E-1,-3.3688113E-1,-1.1506668E-1,-1.5160707E-1,-4.8634585E-2,2.6281467E-1,7.442379E-2,4.7015674E-2,-6.349655E-2,1.5233302E-1,2.7151844E-1,3.4948444E-1,4.731777E-1,-4.7726732E-1,-1.7534919E-1,-5.5486877E-2,-3.4146443E-1,2.2823736E-1,-9.384635E-2],"split_indices":[0,4,4,0,2,0,0,0,3,0,0,4,0,2,2,4,2,0,4,3,3,4,0,0,0,2,2,0,0,0,0,0,0,0,0,0,0,0,0,0,0,0,0,0,0,0,0,0,0],"split_type":[0,0,0,0,0,0,0,0,0,0,0,0,0,0,0,0,0,0,0,0,0,0,0,0,0,0,0,0,0,0,0,0,0,0,0,0,0,0,0,0,0,0,0,0,0,0,0,0,0],"sum_hessian":[6.618E3,2.466E3,4.152E3,1.914E3,5.52E2,4.005E3,1.47E2,5.9E2,1.324E3,2.36E2,3.16E2,2.232E3,1.773E3,1.04E2,4.3E1,1.17E2,4.73E2,1.03E2,1.221E3,1.175E3,1.057E3,1.162E3,6.11E2,5E1,5.4E1,3.9E1,4E0,3.9E1,7.8E1,3.4E1,4.39E2,5.9E1,4.4E1,3.08E2,9.13E2,3.14E2,8.61E2,7.29E2,3.28E2,3.4E2,8.22E2,4.34E2,1.77E2,4.1E1,9E0,5E0,3.4E1,2E0,2E0],"tree_param":{"num_deleted":"0","num_feature":"5","num_nodes":"49","size_leaf_vector":"1"}},{"base_weights":[-2.1664467E-2,-4.7200656E0,4.2822976E0,-2.7059655E0,-1.3448296E1,4.7411366E0,-9.76007E0,-6.8278155E0,-1.4783214E0,-4.2705217E-1,-1.520426E1,2.563919E0,7.194693E0,-1.1803284E1,-5.796583E0,-1.3808957E1,-5.915904E0,-2.8888586E0,-8.831822E-1,-6.3737327E-1,-1.3556265E1,-3.5504304E-2,3.2484622E0,6.2415333E0,9.874252E0,-7.1606097E0,-1.2584336E1,-6.668245E0,1.4224818E-1,-5.73052E-1,-2.338627E-1,-3.57938E-1,-2.0356138E-1,-2.8059262E-1,-1.0275304E-1,-1.2652665E-1,-2.1752408E-2,-2.9936042E-1,-5.5183125E-1,6.155291E-2,-1.0102121E-1,1.5853584E-1,-2.6430719E-2,2.707747E-1,1.5300722E-1,4.0168536E-1,1.3275649E-1,-3.9335114E-1,-8.8923015E-2,-6.3985956E-1,-4.4530773E-1,-9.578345E-2,-2.837432E-1],"categories":[],"categories_nodes":[],"categories_segments":[],"categories_sizes":[],"default_left":[0,0,0,0,0,0,0,0,0,0,0,0,0,0,0,0,0,0,0,0,0,0,0,0,0,0,0,0,0,0,0,0,0,0,0,0,0,0,0,0,0,0,0,0,0,0,0,0,0,0,0,0,0],"id":30,"left_children":[1,3,5,7,9,11,13,15,17,-1,19,21,23,25,27,29,31,33,35,-1,37,39,41,43,45,47,49,51,-1,-1,-1,-1,-1,-1,-1,-1,-1,-1,-1,-1,-1,-1,-1,-1,-1,-1,-1,-1,-1,-1,-1,-1,-1],"loss_changes":[1.35696E5,5.635335E4,2.2620332E4,1.3184977E4,2.7289766E3,1.8097781E4,8.1666406E2,3.708246E3,1.684895E3,0E0,1.7723438E2,3.2019883E3,3.996086E3,1.517002E2,3.564967E2,1.7840625E2,1.2759453E3,7.6466406E2,1.0933682E3,0E0,4.879297E1,1.4795096E3,3.9838857E3,1.4718555E3,4.1670703E2,1.4678577E2,8.177051E1,4.6287598E1,0E0,0E0,0E0,0E0,0E0,0E0,0E0,0E0,0E0,0E0,0E0,0E0,0E0,0E0,0E0,0E0,0E0,0E0,0E0,0E0,0E0,0E0,0E0,0E0,0E0],"parents":[2147483647,0,0,1,1,2,2,3,3,4,4,5,5,6,6,7,7,8,8,10,10,11,11,12,12,13,13,14,14,15,15,16,16,17,17,18,18,20,20,21,21,22,22,23,23,24,24,25,25,26,26,27,27],"right_children":[2,4,6,8,10,12,14,16,18,-1,20,22,24,26,28,30,32,34,36,-1,38,40,42,44,46,48,50,52,-1,-1,-1,-1,-1,-1,-1,-1,-1,-1,-1,-1,-1,-1,-1,-1,-1,-1,-1,-1,-1,-1,-1,-1,-1],"split_conditions":[5.667E1,8.660254E-1,8.660254E-1,3.733E1,2.2333333E-1,7.2E1,7.4E1,-8.660254E-1,4.467E1,-4.2705217E-1,3.667E1,-8.660254E-1,8.933E1,6.0666668E1,9.711E1,2.5881904E-1,-8.660254E-1,-8.660254E-1,-8.660254E-1,-6.3737327E-1,3.9333332E1,2.5881904E-1,7.0710677E-1,2.5881904E-1,-2.5881904E-1,5.9333332E1,6.067E1,7.6E1,1.4224818E-1,-5.73052E-1,-2.338627E-1,-3.57938E-1,-2.0356138E-1,-2.8059262E-1,-1.0275304E-1,-1.2652665E-1,-2.1752408E-2,-2.9936042E-1,-5.5183125E-1,6.155291E-2,-1.0102121E-1,1.5853584E-1,-2.6430719E-2,2.707747E-1,1.5300722E-1,4.0168536E-1,1.3275649E-1,-3.9335114E-1,-8.8923015E-2,-6.3985956E-1,-4.4530773E-1,-9.578345E-2,-2.837432E-1],"split_indices":[0,4,4,0,2,0,0,3,0,0,0,3,0,2,2,4,4,3,3,0,2,4,3,4,3,2,0,2,0,0,0,0,0,0,0,0,0,0,0,0,0,0,0,0,0,0,0,0,0,0,0,0,0],"split_type":[0,0,0,0,0,0,0,0,0,0,0,0,0,0,0,0,0,0,0,0,0,0,0,0,0,0,0,0,0,0,0,0,0,0,0,0,0,0,0,0,0,0,0,0,0,0,0,0,0,0,0,0,0],"sum_hessian":[6.708E3,3.207E3,3.501E3,2.607E3,6E2,3.391E3,1.1E2,5.97E2,2.01E3,2.36E2,3.64E2,1.798E3,1.593E3,7.1E1,3.9E1,6.7E1,5.3E2,5.95E2,1.415E3,2.45E2,1.19E2,3.75E2,1.423E3,1.178E3,4.15E2,1.2E1,5.9E1,3.6E1,3E0,6.2E1,5E0,1.11E2,4.19E2,4.1E1,5.54E2,1.82E2,1.233E3,6E0,1.13E2,2.3E2,1.45E2,1.203E3,2.2E2,9.65E2,2.13E2,4.04E2,1.1E1,7E0,5E0,1.4E1,4.5E1,4E0,3.2E1],"tree_param":{"num_deleted":"0","num_feature":"5","num_nodes":"53","size_leaf_vector":"1"}},{"base_weights":[1.5352286E-2,-1.2781245E1,1.7596451E0,-4.388676E0,-1.4624758E1,-1.5056583E0,5.518269E0,-2.1693916E0,-6.5057273E0,-1.5923444E1,-7.627771E0,-4.406841E0,-2.0470248E-1,3.9711006E0,8.059766E0,-2.6264852E-1,-1.5075202E0,-4.1126218E-1,-5.65174E0,-4.3539852E-1,-1.6259092E1,-8.524667E0,-2.7728531E0,